9996 16
. 0.054741357 0.041316126 0.033263855 0.076581344 0.01651637 -0.015294721 -0.010435266 0.038061053 0.04494268 -0.011650837 0.047829438 -0.019947112 -0.040151626 0.046702392 0.00863631 0.032383457
영화 0.07408932 0.04713816 0.028415084 0.027144972 -0.026414445 -0.039382033 -0.04240947 0.008125064 0.063847706 -0.05487867 0.058943644 0.031102793 0.01811439 -0.0024302003 0.04680558 0.09064873
다 0.0702513 0.012676172 0.040808618 0.06113761 -0.005654824 -0.042688638 -0.013832862 0.025094884 0.009918572 -0.012163962 0.023916375 -0.024916712 0.04025842 0.05239429 0.006024209 0.05944766
고 0.02361478 0.03825052 0.09562584 0.13775973 0.011099959 0.01815237 -0.037268102 -0.0088250395 0.0012851879 0.016393768 0.025419151 -0.0476023 0.024829827 -0.0028533197 -0.008359086 0.07055558
하 -0.003846464 -0.010483103 0.047366116 0.00203749 -0.015926171 -0.07033257 -0.039007705 -0.06351316 0.040152166 0.019742772 0.0039702677 -0.0047152387 -0.029129263 0.04344057 -0.01516396 0.0053837653
을 0.019493885 0.059392486 0.053328354 -0.07959146 -0.046969414 0.050574344 -0.012304072 0.055016443 -0.02577022 -0.0221645 0.012541599 0.014006259 0.037797835 0.0024225386 -0.0070704045 -0.062711045
보 0.047739394 -0.01920502 -0.08684808 -0.04255538 -0.088972874 -0.0172744 -0.09849865 -0.086585216 0.0005690376 -0.045413375 0.026858168 0.044707008 -0.04717633 0.021112138 0.05399952 -0.00041007827
.. 0.011816905 0.053618614 0.054427996 -0.004677917 0.013120571 -0.013197906 0.014630815 0.023039855 -0.00018683082 0.007795061 -0.010283932 -6.740639e-05 0.010757047 0.028336698 -0.07084878 0.013967719
게 0.027989976 -0.005809326 -0.01462811 -0.0661681 -0.008461201 0.11370981 0.045347366 -0.019652955 0.017922243 -0.07018383 0.034098454 0.009245016 -0.0321925 -0.016798628 0.036544114 0.018280081
, 0.08377234 0.050293796 0.04792676 0.022555588 -0.020674333 0.008339754 0.012589357 0.0065609436 -0.0006409641 0.040723663 0.022245971 0.012005132 0.026069753 0.006070655 -0.042055685 0.0971581
! 0.13155344 -0.043380372 0.05054013 0.1297088 0.005471444 -0.049110457 -0.038654786 -0.0637183 -0.0536148 0.07182077 0.1092265 0.024881205 -0.024859091 -0.029637143 -0.016881473 0.07293225
지 -0.056093786 0.044842742 -0.0017012459 -0.24506895 0.028703233 -0.07356142 0.032425676 -0.09323196 0.0027848033 0.08667023 -0.03240381 0.0040174946 0.03341067 -0.048647076 -0.026544169 -0.058629747
있 0.12316596 -0.030769363 -0.034484576 -0.06617881 -0.037757777 -0.02064735 0.040311463 -0.048537046 -0.06418419 -0.029804755 -0.03230873 -0.018141102 0.071427256 -0.04044664 0.012573288 0.03621617
없 -0.10593376 0.17513247 0.12869768 0.05404636 0.076665655 0.0772306 0.019788235 0.021457298 -0.16571912 0.14473866 -0.14662598 0.020097302 -0.011253772 0.08279586 -0.078762405 -0.0613102
? 0.018275281 0.00983324 0.0053439713 0.040556174 -0.0048147542 0.0382811 -0.012248411 0.0063763265 -0.070164 0.06631927 -0.06448602 -0.11346894 0.0048054233 0.07724246 -0.023148213 -0.098236226
좋 -0.049657073 -0.018855536 -0.085761905 -0.046607364 -0.04873769 -0.049202576 0.03751607 -0.058359902 -0.04673039 -0.13370565 0.110344365 -0.061067645 0.04223681 -0.13173006 0.042424805 -0.06617529
나 -0.040249947 0.03442544 -0.07604072 0.010524625 0.0409479 -0.014209682 0.0028621878 -0.05044284 -0.024808394 -0.01202276 -0.01950173 -0.046942968 -0.032482564 0.04790457 0.01601678 -0.0050621345
었 0.03300592 -0.015191314 0.02071115 -0.03691847 -0.040286474 -0.00049802 -0.046884 -0.038290523 0.008232899 -0.07354248 0.016398543 0.0045681726 -0.06172893 -0.04977233 0.063251294 -0.021989701
만 0.09196284 -0.14066243 0.0031130265 -0.0035011591 0.027372422 0.010010786 -0.03360014 0.043729745 -0.05174294 0.0697059 0.010279981 0.056945145 -0.06441328 0.061554745 0.014232617 -0.14765717
는데 -0.056021843 0.073785946 -0.045845956 -0.013571853 -0.046453618 -0.0628635 -0.05159435 -0.039956342 0.06412055 0.011804344 0.014446927 -0.041306093 0.030346196 -0.017726636 0.07255674 0.010902276
너무 -0.063332684 0.17841162 0.14379837 -0.023703832 -0.02194473 -0.0041174944 0.076842844 0.12766893 -0.022042934 -0.020846313 0.11373005 -0.07172982 -0.054949068 -0.03269515 0.025539236 0.16457897
봤 0.06478239 0.11580455 -0.018991401 -0.017563475 0.0351651 -0.10066327 0.0008340185 -0.04613496 -0.027004637 -0.06217616 0.09853562 0.033896044 0.07045258 0.056810997 0.12797588 0.1980924
적 0.12039904 0.11106438 0.03639088 0.1061199 -0.05588396 0.016741607 -0.007544777 -0.023704648 -0.01831682 -0.06579187 -0.041570418 -0.0015608309 -0.06779335 0.018255316 0.03400228 0.1221823
안 0.058176346 -0.037366048 0.048272803 0.05952079 -0.02470088 0.08119654 -0.070799485 -0.23128405 -0.052064713 0.11819027 -0.09305978 0.15453137 0.013601782 0.059070237 -0.038801394 -0.08778577
정말 0.016013877 0.07377763 0.023699274 0.041264854 -0.083543636 0.06556904 0.10176064 -0.012005418 0.02094646 0.0055212807 0.06020167 0.006919504 0.049295884 -0.034565177 0.01572719 0.042809516
로 -0.022479117 -0.01795524 -0.0064151157 0.014623778 -0.051969968 0.016799152 -0.079623505 -0.028410492 -0.02433481 0.011689925 0.002978194 0.006244612 -0.07419144 0.044343416 -0.10707824 0.055102263
음 0.09296666 0.022215448 0.09168533 0.021796616 -0.06670469 -0.05948592 0.010547465 -0.028978968 -0.007120706 0.064093634 0.06977123 -0.011324199 -0.009840392 0.012210029 -0.05143575 0.0433563
것 0.010047782 0.018394763 -0.0497974 0.010481582 0.039243344 -0.0044989074 -0.00264427 -0.092626564 -0.027348712 0.0028381625 -0.02233509 -0.0077327006 0.026518337 -0.0031833327 0.037839405 0.031104747
아 -0.017288087 0.041218325 -0.02244347 -0.030381188 -0.030453036 0.060437515 -0.02552048 0.022815684 0.03639089 -0.008383288 0.00017691153 0.012118893 0.013769078 0.026793484 -0.0052344375 0.0010494924
네요 0.11759304 0.027495679 -0.0046882085 0.08858696 0.008553098 -0.009373564 -0.06391572 0.029293096 -0.03050596 -0.044623252 0.043768656 -0.041934337 0.021782687 -0.03971974 -0.0011614558 0.12390706
재밌 -0.10661333 -0.08370632 -0.06556725 -0.051135037 -0.08873514 -0.02794512 0.032977175 -0.058360383 0.1521996 -0.19827059 0.02817247 -0.12325211 0.052487757 -0.06517631 0.09680522 0.03773487
어 -0.03614021 -0.028248787 0.0034416267 0.021285843 -0.09108003 0.053894155 -0.042812645 0.0058207745 -0.018511549 -0.00037755095 0.006311117 0.0019835467 -0.06991652 -0.07137959 -0.0014250849 0.031231
점 0.117860064 0.016650343 0.006816056 0.12354119 -0.01565378 -0.04043397 -0.2641961 0.06279942 0.07238942 -0.046515252 -0.063887335 -0.04352231 0.001767011 0.020859713 -0.022506364 0.09412069
같 0.007660267 0.06708162 0.11914292 -0.03868439 0.05214736 -0.023862543 0.052513674 -0.01885544 -0.011906328 -0.03654175 -0.028506346 -0.0028384558 0.06836182 0.053141087 -0.025124218 -0.02129732
지만 -0.052924614 0.08005872 -0.0072804186 -0.094997965 -0.029514473 -0.015408104 0.16859578 -0.055777155 -0.03721419 0.035692688 0.0032881591 -0.05781521 -0.04247722 0.057586372 0.11506648 -0.10077703
진짜 0.011533923 -0.011553163 0.023038633 0.0059126304 -0.038113765 0.04197663 0.04161305 0.06311465 0.0385257 0.0035776703 0.015800778 -0.045082107 0.06865332 -0.08317546 0.019365747 0.054384153
했 0.15820473 -0.04649422 0.044753093 -0.020064022 -0.045467354 -0.013851067 -0.049263462 -0.11634782 0.013764849 -0.06481571 -0.08675445 0.07891473 0.008325133 -0.003950384 -0.06596876 0.016844092
에서 0.042281747 -0.05985682 0.023713127 -0.04797581 0.0052757394 -0.062164303 0.019643601 0.016511992 -0.02998413 0.022991596 -0.05314549 0.007895176 0.054226585 -0.0060834074 -0.00015039076 0.046335924
기 0.08149445 -0.01003656 0.020662311 -0.036295593 -0.016458249 -0.01833337 -0.007846166 0.067432314 0.01874409 -0.015889077 0.012235192 0.0087912 -0.04071247 -0.067410156 -0.1170396 -0.1354956
네 0.04192114 -0.06945306 0.0074909315 0.011217428 -0.01953537 0.10643723 -0.023087427 0.016481658 0.06651192 0.0374218 -0.015168393 -0.03865458 0.04769928 0.016433131 -0.06771714 0.024351817
않 -0.064257376 0.010979119 -0.006939697 0.029025309 0.00062693865 0.018583851 -0.123504266 0.03309693 0.084861666 0.056561816 -0.12314391 0.021204978 -0.036215324 -0.032356486 0.016644565 -0.03718944
거 0.016986918 -0.0008554176 -0.018792724 -0.064176865 -0.047420513 -0.0045833746 -0.1125559 -0.0949522 -0.0046420675 -0.0066370815 0.014519097 -0.008836436 0.03570625 -0.023128048 -0.03962554 0.03526108
았 8.546139e-05 0.073967256 -0.019986019 -0.02586225 -0.009582301 0.0700617 -0.020622976 0.10969856 0.011449635 -0.021432575 0.013609244 0.003956645 0.008088714 -0.014998433 0.011394075 -0.060122073
수 0.024519233 -0.069341004 -0.017178206 0.01698939 0.03268641 -0.022345988 -0.093626045 -0.033042293 0.14832644 -0.091906905 0.050948896 -0.0019849576 0.089139804 -0.026058773 -0.008119692 -0.028444717
되 0.035248507 -0.011071884 0.06336024 -0.0165199 -0.037915457 -0.011975752 0.021401942 0.030742612 0.021879792 -0.014541514 0.12408087 0.020563869 -0.00042905682 -0.02937655 -0.014604948 -0.046847075
면 -0.030795299 0.022699215 -0.07911903 -0.03515864 0.04066537 0.04702532 0.024366777 0.00485394 -0.0063977777 -0.006272472 -0.033252917 0.07828502 -0.03219916 0.062626556 -0.0075184624 -0.0390804
ㅋㅋ -0.057903882 -0.056231033 0.023235045 0.117324926 -0.014096647 -0.04298244 -0.025451658 0.0035291186 0.00990107 -0.044114962 0.056484226 0.058481153 -0.011041943 -0.04079966 -0.021658367 0.035131812
말 -0.048033014 0.0043903943 -0.0086915465 -0.07772191 0.012800446 -0.06583643 0.013421391 0.062221788 0.017165126 0.044109218 0.03286185 0.06103744 -0.014667297 -0.013525978 0.02478443 -0.14462489
연기 0.042319193 0.08275195 0.03503582 -0.024752427 -0.038942225 -0.02950734 0.05868037 -0.09548927 0.09155294 -0.06187079 0.031297177 -0.09330658 0.09725316 0.0018995447 -0.015100096 -0.04372105
인 -0.001755484 0.044968553 -0.023901112 0.033833843 -0.024407433 -0.067038804 -0.052249998 -0.06348822 0.008997625 -0.11424509 0.076702565 0.033632677 0.0441965 0.056614645 0.06751076 0.06049857
최고 0.12467156 -0.17576703 -0.078956775 -0.0442961 -0.13761166 -0.11193129 0.13545704 0.030279364 0.06649556 -0.11386647 0.009431135 -0.046601854 0.11813269 -0.066313215 0.08267281 0.026717307
주 0.008574667 -0.0025757363 -0.012250505 0.02356626 0.0061014183 -0.0073738196 0.034934897 -0.0034423503 -0.037727546 -0.00019603194 0.14100097 -0.026676875 0.011373155 0.048110675 0.034374367 0.016324269
내 0.041068234 0.08448507 -0.1436398 0.01519333 -0.01341488 0.078543484 0.07853556 0.057928983 -0.04587051 -0.03412786 0.050883215 0.018015018 -0.01225868 0.03617064 0.00904222 0.037796617
~ 0.08981321 0.009916154 0.028581355 0.0216821 -0.004123244 -0.046672486 0.035040457 -0.023966799 -0.016931554 -0.003196181 0.0104998695 -0.072669566 0.044247072 -0.012309755 -0.08013512 0.018637985
평점 0.040678132 -0.015978025 0.0052728453 0.03473552 0.039252967 -0.039873283 -0.064586 -0.01339703 -0.073503576 0.018150419 0.12147974 0.09121305 0.112816714 0.044057716 -0.02865029 -0.061440438
이런 -0.05622824 0.05890871 0.06401707 0.03894146 -0.009703697 0.056324452 0.015685482 0.024260588 0.058939964 0.06866914 0.0149748195 0.022714633 -0.0343197 -0.020529766 -0.027096193 0.08520689
어요 0.10744248 -0.07245119 0.11983272 0.119208366 -0.04386126 -0.03981975 -0.12091764 -0.07737049 -0.011611875 -0.081028216 0.11001263 0.023302294 0.042011935 -0.040093515 0.07550586 -0.02406156
던 -0.06709213 -0.09851216 0.13082473 -0.00054129894 -0.012433326 -0.02010825 0.052455444 -0.0465175 -0.040651627 0.01027279 0.07589822 0.019782044 -0.0024696996 -0.011606428 0.012256789 0.1046821
할 -0.049011774 -0.0595813 -0.12314386 -0.040605176 0.052584402 0.06972234 0.0604754 0.11850216 0.025686271 0.06390302 -0.035816748 -0.0228664 0.061790653 0.05515333 0.09846343 -0.11176686
왜 0.015345 -0.0691383 -0.09426636 0.15964481 0.045137227 0.11501697 0.014865172 -0.089351326 0.0058852364 -0.009085365 -0.029861791 -0.033829514 0.008037693 0.058403622 -0.059576303 -0.060894728
1 -0.053827394 -0.07562171 0.067615345 -0.0141396355 0.038214948 0.015863724 0.0787747 -0.13551173 0.07245284 0.07248788 -0.08602989 0.054208167 -0.071406074 0.11886982 -0.10060249 -0.09540715
겠 0.11686856 0.053505942 0.08754673 -0.101974435 0.09146383 0.03957303 0.023442468 -0.017555831 -0.003094059 -0.0070067723 -0.07189579 0.016408639 -0.07691918 0.089814745 -0.11112969 -0.07903271
해 0.025916584 -0.024409948 0.038715083 0.060341507 -0.06472889 -0.008210897 -0.028190352 -0.017646713 -0.023702694 -0.021620657 0.06501861 0.067253806 -0.08202944 -0.023231335 0.05423718 0.08659517
스토리 0.03462293 0.039553124 0.06385752 0.029829198 0.055714536 0.09380749 -0.042956404 -0.0015878142 -0.0027682104 -0.022453131 -0.073159 4.2236497e-06 -0.019748878 0.0136379 -0.028128255 0.042592112
습니다 0.0026949218 0.02968281 0.06023276 0.17884958 -0.12274487 0.02764581 -0.012691046 -0.16259198 0.046334293 0.0035278634 -0.014838632 -0.002735502 -0.015649868 -0.09649739 0.05789428 0.05912167
ㅋㅋㅋ 0.060112163 -0.03519096 -0.0037267343 -0.013689246 -0.004717258 -0.035683908 -0.028839974 -0.034262728 0.009475522 -0.03955736 0.016611595 0.035683468 -0.028189968 -0.04893992 -0.053206228 -0.049966294
... -0.054153606 0.08763368 0.03888162 0.002681925 0.013763948 0.0045076814 0.028419683 0.016514134 -0.007143569 0.044545297 -0.003786593 -0.034661923 -0.07702068 0.022552857 -0.02950526 0.0227941
드라마 -0.034655612 -0.013868513 0.029658446 0.08541201 0.024109082 -0.08393158 0.03505454 -0.0063624405 0.15499172 -0.043710478 0.087066814 -0.0017483021 -0.00492086 0.008886272 0.015110605 0.14341412
생각 0.055815216 0.10133565 -0.046558674 -0.11682248 0.05842245 -0.082877785 0.03236556 -0.18985678 0.016780466 -0.017009608 -0.11405043 0.013988872 -0.01905494 -0.05096822 0.15812746 0.07285011
아니 -0.06680712 0.1680269 0.11874487 -0.031319275 -0.013585514 0.009600418 0.0059321797 -0.02723653 0.00503452 0.12274578 -0.18044192 0.04305108 0.03516086 0.12346588 -0.067003526 -0.07027731
더 0.13697276 0.005963952 -0.020619221 0.028413184 -0.013339489 0.01497849 -0.00045621465 -0.0076046693 -0.029114557 -0.01908239 -0.04169615 0.04337126 0.06654011 0.059529908 0.07014972 -0.06636892
그 -0.01666158 -0.09035454 -0.047835585 0.0018389395 0.022257242 0.024239723 -0.052308403 -0.10402879 0.03378373 -0.04775277 -0.02522099 -0.024677085 0.0041622077 -0.004569982 0.051763713 0.07831808
싶 0.056525603 0.13102326 0.007183221 -0.0128126955 0.018089471 -0.13140696 -0.027859082 -0.067572415 0.04882869 -0.05092221 0.11276922 0.077742025 0.04386469 0.060990732 -0.059104163 0.022861306
사람 -0.020317156 -0.07200209 -0.054836754 -0.031513408 -0.017012302 -0.066671886 0.030021181 -0.13114104 0.012697259 0.036782987 -0.012852332 0.0007135367 0.04784546 -0.082784586 -0.0074343723 -0.049933862
듯 -0.041443836 0.048658777 0.014231787 0.012043973 0.024790406 0.075882964 -0.026957992 0.088222615 -0.06559273 -0.07603983 -0.0026539688 -0.09128314 -0.004273823 0.012504119 -0.087808594 0.043360155
감동 -0.043347772 -0.023852963 -0.06191811 -0.13485728 -0.06143655 -0.09966291 0.03558575 -0.0679418 -0.07971188 -0.10878531 0.079660684 -0.037000664 0.1527521 0.047472082 0.19335072 0.12596923
때 -0.101737045 -0.02775293 0.0021182173 0.056206048 -0.038710702 -0.044898678 0.015719773 -0.02863946 -0.04706087 -0.13874267 0.040418822 0.00047639763 -0.024658227 -0.010830333 0.034074932 -0.08291515
함 0.18147066 0.08706043 0.0294983 0.026647892 -0.04662135 -0.035733428 0.0051851016 0.018405097 0.027362522 0.0039341715 0.007167109 0.08425169 -0.017008418 -0.03945363 0.049301337 0.07070129
배우 -0.03613345 0.08363991 0.024372471 -0.05391232 -0.00028575305 0.05099403 -0.0058405027 -0.03974264 -0.051616542 -0.077611215 0.035569977 0.027210224 -0.03832795 0.06448695 0.034284852 0.065066434
본 0.0314256 -0.021825401 0.049725454 -0.071371675 -0.066172674 0.017705442 -0.048573215 -0.0845336 -0.08020055 -0.052855004 -0.03233567 -0.015644586 0.028806556 0.027257733 0.0070269294 0.07156176
까지 0.003099438 -0.12288656 -0.09194303 0.037749354 0.04989176 -0.05010654 0.017368484 -0.0012089018 -0.016017476 0.050258208 0.004625124 -0.03259688 -0.030101288 -0.009885907 0.0072724787 -0.056674086
뭐 0.043345317 -0.020452056 -0.013142804 0.05517468 0.016471073 -0.019830318 -0.0809424 -0.092924796 -0.07438226 -0.03108466 0.012968702 0.119473964 -0.056273468 0.048472524 -0.13446675 -0.06522257
볼 0.060397744 0.004214455 -0.18651141 0.110827886 0.022541126 -0.033409983 -0.033612337 -0.14929585 0.042110626 -0.058741715 -0.0022412778 -0.052432682 0.088632256 -0.03677307 -0.025934055 0.025099702
알 -0.073377214 0.063551284 -0.05401824 0.03687237 -0.055770025 -0.007470275 -0.023115534 -0.031579956 -0.01635076 0.017279712 0.041412756 0.103159174 0.0154167535 0.117388666 0.007287007 0.077479005
만들 -0.024546647 0.07257377 -0.04742032 -0.11101753 -0.014442317 0.016438993 -0.1952622 -0.17418972 0.042602144 -0.07970888 0.10890555 0.032135293 0.0395156 -0.055730745 0.038657553 0.048035454
내용 -0.09779673 0.22264625 -0.004659683 0.108347386 0.007694474 -0.01794523 -0.042636335 -0.026618104 -0.029656027 0.05195692 0.029053833 0.057030905 -0.074308954 0.01752839 -0.12334167 -0.0781911
감독 -0.022836197 0.13146845 0.16136825 0.020010503 0.0996411 0.056529406 -0.052213468 0.019682964 0.029371208 -0.027861614 -0.008209081 0.0155241685 -0.15211548 -0.022671906 -0.15762644 -0.016425826
보다 -0.0394695 0.07153993 -0.089030854 -0.002721534 -0.06271202 -0.065158136 0.084043846 0.043796774 -0.032444205 0.09318637 0.04408182 -0.0069354833 -0.12001131 0.011559308 0.06112738 0.00811969
라 -0.04853778 -0.03950643 -0.022452641 -0.025158444 -0.011667018 0.022853436 0.035442278 0.018905548 -0.030151684 -0.061243344 -0.0068543907 0.06486514 0.04841271 0.09110472 -0.05897796 -0.01973236
재미 -0.116419226 0.10454223 -0.08350197 -0.0755072 0.062269453 0.17383255 0.021277975 0.003675405 -0.03957292 0.035074845 0.13381062 -0.124347374 0.015770266 -0.07670424 -0.030201824 0.18964286
그냥 -0.0036619408 0.10039391 0.0591154 0.038058273 0.02181511 0.035893083 0.033320215 0.16744688 0.0007254344 -0.063399844 0.050746147 -0.0017609845 -0.02947027 0.012124537 0.025360364 0.18106125
지루 0.09054324 -0.0054326258 0.14144205 0.04439616 0.11983682 0.050993763 -0.14448375 -0.011573212 -0.079544045 0.16837066 -0.061553057 0.22187997 -0.14944604 0.19585966 -0.15325586 -0.029950798
시간 -0.018626718 0.036052752 0.08960335 -0.027744066 0.07351485 0.07961241 -0.035036936 0.014008759 0.004985977 0.024883438 0.02921128 0.09129142 -0.08532616 0.04082094 -0.015706068 0.044647124
재미있 -0.07714983 -0.023064077 -0.1902487 -0.05338725 -0.044453323 -0.1031538 0.036031365 -0.106713824 0.08080644 -0.039312158 0.00033246807 -0.091211274 0.15066913 -0.100001924 0.04461483 0.0050825137
중 0.07782623 -0.05309296 -0.015587997 -0.011189575 -0.05930342 -0.0173127 0.057889417 -0.10321021 -0.076288655 0.022533575 0.007454152 -0.064122476 0.057775382 0.050255638 0.053670622 0.1429841
년 -0.00989161 -0.04825391 -0.014020114 0.04329605 -0.03715223 -0.077251315 0.06929819 -0.15773857 0.06074908 0.018039491 0.12364281 -0.011189843 -0.012275847 0.040097464 0.0816924 0.09089331
잼 -0.063740216 0.020310018 -0.16687304 -0.04137784 -0.12291079 -0.061447944 0.0578567 0.027741473 0.07711312 -0.039786097 0.07309538 -0.09253155 0.14478585 -0.14917912 0.06413996 0.07275398
10 -0.072370626 -0.010022409 -0.07155392 -0.05675464 -0.124011986 0.11580789 0.044524983 -0.035843335 -0.12223844 -0.10209114 0.2298219 0.056197815 0.0076821796 -0.06489957 0.00726673 0.08541409
재미없 0.06900917 -0.07841136 0.23597713 0.040068224 0.06699915 0.026006019 -0.1374045 -0.054948583 -0.27515122 0.19622296 -0.07134969 0.17418917 -0.11305951 0.1091843 -0.20701641 -0.11625167
였 0.032130696 0.0500336 0.024508929 -0.015363344 -0.05150245 0.024590433 -0.022237558 -0.22198926 0.017609028 -0.038441956 0.049845602 -0.055953715 0.039430216 0.016436052 0.01889776 -0.095842175
쓰레기 0.085553534 0.11032765 0.16404639 0.17843556 0.18292102 0.014983434 -0.16402934 0.08828729 -0.099702604 0.3498942 -0.07656256 0.14136937 -0.054104164 0.15575586 -0.22047293 -0.104861796
사랑 -0.05804478 -0.1242604 -0.068095654 -0.113798834 -0.087578215 0.06896432 0.083313614 -0.022930393 0.019670393 -0.062966675 0.05594366 -0.018002683 0.015462555 -0.052721556 0.06607525 0.057077296
못 0.10283765 0.01833035 -0.030065414 0.023764864 0.009647655 -0.05726187 -0.014168982 -0.07307016 -0.17762564 0.05920273 -0.018136613 0.13115814 -0.081674926 0.156205 -0.037621275 -0.067548394
냐 -0.018910786 0.008851358 0.0747383 -0.06795536 -0.009574291 0.08164964 0.02127395 0.07495889 -0.025899636 0.0769583 -0.024862356 0.009356395 -0.042379893 -0.014285251 -0.027461987 -0.10525028
서 0.020374436 0.025103131 0.059351455 -0.019804733 -0.036286727 0.07710108 0.07344572 -0.0675411 -0.030478597 -0.009596154 0.07086759 -0.048645616 0.07902677 -0.05341541 -0.0028032772 -0.0005982797
2 -0.036676336 0.016210772 -0.05215227 0.11952507 0.003775273 0.022427883 0.04825666 0.04386279 -0.01814165 0.06630688 -0.18402176 0.0033882707 -0.095929526 0.0945921 0.05115771 -0.03454031
라고 -0.03860961 0.0798654 0.17314209 0.009003427 0.11540729 0.067972206 0.073785126 -0.08776317 0.0720255 0.1096837 0.006183973 -0.007828219 -0.08251868 -0.008911962 0.010730297 -0.085654415
야 0.02400406 -0.08019472 0.050003074 -0.010630552 -0.026003672 0.08680626 0.04517384 0.06943089 0.02956315 -0.009654149 -0.0534759 -0.11916616 -0.0008132845 -0.04715802 -0.09467713 0.040612355
니 -0.048398137 -0.017109385 0.0062699313 0.026925571 -0.0026826672 0.060045104 0.042344533 0.058595963 0.011027585 0.017837325 0.026142448 0.014580197 -0.00870325 0.040578604 0.0018020581 -0.02188228
면서 0.064520776 -0.041607987 0.03156635 -0.0478946 0.038884714 -0.03413492 0.03900849 0.04252562 0.062266406 0.03443058 -0.013357371 0.014434796 0.06537083 0.108317025 0.06873 0.0833995
번 -0.043074116 0.032523848 -0.0028713276 -0.011979636 -0.07815702 -0.0010968331 0.03879502 -0.1906514 -0.020798337 -0.0021075972 -0.03720364 -0.10569404 -0.018182697 -0.026135225 0.067860976 -0.10493006
다시 -0.001399031 0.039438598 0.030541506 0.07936918 -0.09043864 0.041416343 0.035452265 0.06515404 -0.009481693 -0.06538925 -0.035362616 -0.044577774 0.05693862 -0.098023936 0.027288765 -0.07594958
나오 0.026445847 0.1691972 0.054404702 -0.062338836 0.08709224 0.1567461 -0.015030153 0.03153452 0.022498088 -0.03668687 -0.07407307 -0.0040791067 0.07201494 0.044150107 0.016679378 0.006999504
작품 -0.070303775 0.041052066 0.05762928 0.01563603 -0.03820948 -0.04323471 0.037219662 -0.019188346 0.032067273 -0.02137911 -0.011215687 -0.14479433 -0.024669575 -0.06953925 -0.010089845 -0.07853756
이거 -0.03081742 0.027966794 0.039486825 0.01278221 -0.0035986516 0.06023757 -0.0048098788 -0.08280069 0.013127731 0.048142165 -0.045726046 -0.10234107 0.019986728 -0.006475578 -0.034081228 0.028227335
하나 0.008245326 0.109870866 -7.712748e-05 -0.011508666 0.13542369 -0.08474745 0.06636596 0.01819892 0.04805522 -0.035036936 -0.08375083 0.0001266172 -0.05420002 0.0052918256 -0.07013329 0.12461618
줄 -0.11254894 -0.033777248 0.07100411 -0.07224065 0.048260923 0.091333635 0.1293884 0.041039888 -0.034586504 -0.030949181 -0.014298137 0.010942583 -0.060872927 0.052195217 -0.023425793 -0.1480609
해서 -0.018357493 0.06832867 -0.02713331 -0.047199525 0.10514937 -0.028381769 0.00884001 -0.008941152 0.02878714 0.068450645 -0.040415052 -0.10039233 0.047416724 -0.14104645 0.041319877 0.045459162
개 0.02227312 -0.040403318 -0.012312106 0.06352295 0.046596695 -0.027823482 -0.062759615 0.20060213 -0.00013998064 -0.004740684 0.04468942 0.072148085 -0.01194089 0.034320686 -0.07287226 -0.03428451
남 0.11737478 0.045824967 -0.024854695 0.029269181 0.030392878 -0.02507171 -0.054121062 -0.05594749 0.046530254 -0.006695985 0.034064267 -0.009724344 -0.041090373 0.037479676 -0.10566401 0.18209176
정도 -0.023732882 0.012637344 0.03446333 0.074419394 0.017375957 0.0037030594 0.041171007 -0.06721389 0.07387252 0.071336396 -0.16050565 -0.035126038 0.09297467 0.022965092 0.013966956 -0.036535297
마지막 -4.0031795e-05 -0.0007037155 -0.0831491 -0.049452048 -0.0908292 -0.10130465 0.08749694 -0.059402138 0.023509227 0.014647873 0.02039127 0.0931936 0.06396879 -0.035684917 0.052733567 0.02324253
끝 0.06624609 0.089472964 0.081414744 -0.020291217 -0.019023532 -0.06532156 -0.036281805 -0.0017921882 -0.03030035 0.08660673 0.076714434 0.11645041 -0.20528513 0.15531355 -0.058053475 0.010402942
이건 -0.094840005 0.25434226 -0.020435259 0.009263434 0.12742993 0.14446327 -0.01401275 0.13034001 -0.082080595 0.06760358 -0.062342737 0.03050797 -0.1384308 -0.017372483 -0.023336386 0.15395926
임 0.024656104 -0.0022890004 -0.08719737 0.014095476 -0.08618436 0.02501989 -0.02401977 -0.015639469 -0.014446343 0.030258276 0.061131354 -0.00573935 -0.035849616 0.023920974 -0.030369442 0.06281541
액션 0.025856527 -0.009587415 0.029358497 0.03274516 -0.14690407 0.032583553 0.0142731 0.003858996 0.0025835945 -0.024763297 0.08917812 -0.015168774 -0.050717738 0.07350485 -0.01510972 0.025755
ㅋ 0.18454343 0.0043089776 0.11081801 0.13484314 -0.078304216 -0.06201431 -0.061180595 -0.08710609 0.04536633 0.07025637 0.07702405 0.06533829 -0.02395131 -0.03861267 -0.08562947 0.106096365
3 -0.021807378 0.08068452 -0.035016414 -0.051362604 -0.01968193 0.12280736 -0.061611302 -0.05495474 0.023558268 0.14272636 -0.1897418 -0.04763457 -0.029851722 0.047300007 -0.079574205 0.053592235
입니다 0.01700066 -0.061510794 0.11759049 0.066229686 -0.005882281 -0.0035422111 -0.100661725 -0.015191993 -0.026400074 -0.02475785 0.14767246 0.038037322 -0.10150607 -0.076956175 0.012221082 0.17333226
기대 0.057302546 0.17716777 0.026525365 0.13193718 0.07387965 0.07502166 -0.11805694 -0.1993325 -0.10394882 -0.05397316 -0.067358635 -0.07873619 -0.11387817 0.09515038 0.062960684 0.14676945
건 0.0120237 -0.08269563 -0.12351164 -0.10653745 0.0014362636 0.037014063 0.0534498 0.04842579 -0.08178111 0.13286336 -0.105617225 -0.051324103 0.050001375 0.20909618 -0.01328891 -0.0016060532
완전 0.0032445567 0.09517737 0.102236144 0.03918074 -0.06601195 0.14708787 0.14079781 0.12262278 0.08514664 -0.11469141 0.022507079 -0.0233007 -0.075781345 -0.02686477 0.037857078 0.1158284
라는 0.06321714 -0.021994283 0.09306001 0.035953123 0.035456765 -0.024324248 -0.05798609 0.11366215 0.005255638 0.043017827 -0.009451389 0.025585145 -0.009861027 0.05905952 -0.08721865 0.052079447
분 0.047250953 -0.03335416 0.0067798626 -0.11578921 -0.004581767 0.06216423 -0.073163345 -0.043774504 -0.0358862 0.13559073 -0.07424822 0.04142514 0.04100063 0.1499857 -0.05179789 0.0015884128
다는 0.0058747176 0.0905111 -0.02844816 -0.096953236 0.00987706 0.004122721 0.002717757 -0.070832126 -0.080811694 -0.005465126 -0.056343213 0.003559193 -0.07541411 0.13104492 0.07174758 -0.038200542
참 0.04401487 0.17749114 0.22278096 -0.061128214 -0.014317268 0.013853469 -0.030394759 -0.00051638955 0.04406173 0.13324834 -0.0003837117 -0.02562125 -0.11388105 0.007117787 -0.08694616 -0.019844381
많 -0.04727769 -0.053278897 0.03740164 0.17579356 -0.13430871 -0.15062729 0.06301584 -0.049567703 0.05167632 0.0008104075 -0.034219712 -0.018924627 0.00431727 0.042927973 0.0890937 0.015238768
아깝 -0.18421431 -0.15472208 0.3054625 -0.24002956 0.14041293 0.0144616 -0.033577014 0.10652088 -0.25593835 0.17854956 -0.084893584 -0.11404976 -0.19389279 0.13474882 -0.088245176 0.020406842
처음 -0.004036341 -0.06613267 -0.118278034 0.031797424 0.04363293 0.04820898 0.006573965 -0.05438309 0.021863539 -0.00095209945 -0.041120946 -0.021425204 -0.029864661 0.069148906 0.022697944 -0.098566905
장면 0.10453473 -0.011023119 -0.028211314 -0.016816169 0.01150552 0.042884782 0.025102673 0.02932196 0.018162306 -0.063163966 -0.027725577 -0.02470874 -0.034345422 -0.087163836 -0.001933122 -0.037364922
대 -0.11984096 -0.055189643 -0.091085434 0.1110695 -0.04605298 0.051822294 -0.04960431 -0.02154018 -0.06307188 0.008050464 0.09710384 0.022916963 0.006559465 -0.032856923 -0.03833279 0.020845989
다가 -0.065583095 0.042591766 0.032672483 -0.09166408 0.022406306 0.03344071 -0.05266809 -0.019353116 -0.03352391 0.037185375 -0.09345813 0.084573224 -0.09416613 0.014223953 -0.08503905 -0.065285094
으면 0.0025473966 0.03579399 -0.18378644 -0.10862676 -0.011697238 -0.02655952 -0.09944094 -0.017715948 -0.019204684 -0.010490262 0.008504107 0.046539467 0.03224727 -0.013857853 -0.046901163 -0.02740406
지금 0.014783239 0.003521285 0.07500761 0.031091306 -0.007027235 -0.10778862 0.026834605 -0.00660184 0.027102888 -0.046541017 -0.040448412 -0.13781673 0.040233154 0.085895404 0.10871838 -0.011850775
모르 -0.013893326 -0.011210627 -0.05185196 -0.09780567 -0.057591494 -0.10760047 0.08866377 0.043108646 0.12583745 -0.025109105 -0.0079386905 0.021107597 -0.10469566 -0.08932012 -0.011588613 0.040518984
이렇게 -0.13103704 0.21268786 0.038856275 -0.068488255 0.03951604 0.078909494 0.042061698 0.11489008 -0.04373813 0.026886497 -0.0010848946 0.07072119 -0.103130564 -0.018470021 -0.04584688 0.08530955
' -0.06194806 -0.00221303 -0.028148562 0.026258407 -0.005708403 0.074665256 0.020263353 -0.05080879 0.025858318 -0.07021967 0.014266385 0.068998076 0.01353751 0.033123042 -0.01056377 -0.08881912
편 -0.010769631 -0.011594546 -0.06952897 -0.12436156 0.06068408 -0.026156994 -0.030171216 -0.08680209 0.105240114 -0.019985916 0.10017519 -0.08194316 0.026992636 -0.04681888 0.057300195 0.012852653
일 -0.04761315 -0.08380889 0.11638519 -0.013812617 0.0015700406 -0.04073127 -0.03034287 -0.06310133 0.010238317 -0.02315155 -0.027650299 -0.066330284 -0.16201898 0.017070353 0.030496009 0.14018852
이게 0.122109935 -0.006229752 -0.18352172 -0.09743302 -0.0010091277 0.10281861 -0.042678475 -0.09131649 -0.060572356 0.1724533 -0.109045774 -0.06071287 -0.013296984 0.088789895 -0.06734268 0.10161264
돈 -0.009425966 0.032283522 0.07061766 -0.13424644 0.02188974 0.06206891 -0.09855815 0.054742996 -0.09325749 0.11039631 -0.12769337 0.1833181 0.0010982873 0.093032144 -0.12076669 -0.0033399826
최악 0.037561625 0.22422664 0.14530896 0.14727585 0.3051221 0.2572301 -0.33532488 0.11484796 -0.19543101 0.17994024 -0.12713811 -0.03424219 -0.257568 0.24237134 -0.17377542 -0.12548994
성 -0.015794415 0.08240939 0.02602578 0.109340094 0.03971345 0.037166573 0.016436856 0.03341531 0.030309604 -0.002552577 0.061140213 -0.048965655 -0.02125197 -0.016991265 -0.037101734 0.0063445666
느낌 -0.05104277 0.09703757 0.023801249 -0.07880761 0.040500224 0.11676695 -0.051942088 -0.08511682 0.07964099 0.08351803 -0.013882734 -0.035884805 -0.061944224 -0.08633201 0.013500536 0.08174147
시 0.17027143 0.03509963 0.05222753 -0.056590103 0.007365846 -0.09303889 0.010411472 -0.045162093 -0.036367726 0.03766338 -0.09727132 -0.041469704 -0.009190123 -0.049742352 0.02087392 -0.04503217
이야기 -0.008195812 -0.002508839 -0.12961148 -0.09492283 0.04325001 -0.034479663 -0.033169653 0.04081844 0.09346392 0.03905127 0.11686441 0.06345479 -0.03252157 0.070241265 0.034833457 0.06133681
별로 0.10332252 -0.018661745 0.12432862 0.13649377 0.034772877 0.064920485 0.047489174 -0.024671666 -0.14498575 0.1711749 -0.15799312 0.04924265 -0.115865946 0.09323906 -0.19156374 -0.2072963
된 0.019673113 -0.045531135 0.10802982 0.037468567 -0.10251203 -0.10753604 0.0488741 -0.021652276 -0.09866028 -0.031549692 0.08773156 0.053191934 0.0026899022 -0.06420159 0.026932193 0.10334307
봐도 0.065147154 0.039166156 -0.049275354 -0.027693087 -0.030883318 -0.21598358 0.003284243 -0.06749327 0.20310494 -0.0124223605 -0.030028673 0.002138275 0.19383481 -0.13515857 -0.02112345 0.048008077
님 0.14960524 -0.03864555 -0.12823799 -0.14715421 0.009399333 -0.014827338 0.026506031 -0.0435302 -0.0008867867 -0.01047626 0.073380776 -0.033100583 0.071561664 -0.07155472 0.0040565254 0.01836471
어서 -0.029298097 0.0120736705 0.1413101 -0.040106263 -0.0019773145 -0.11280054 -0.06372928 -0.033392295 0.03821327 0.00859735 -0.0065037855 0.04705598 -0.02194467 0.077791795 -0.046317056 0.033451084
애 0.07531995 0.068679094 -0.04453974 0.0051569343 0.16546008 0.032096677 -0.05683408 0.014586429 -0.00803491 0.0003889076 -0.0632717 0.016185205 -0.056865938 0.02943994 0.10741947 0.092808664
전 -0.068958476 0.03297394 -0.00086075615 -0.13563001 0.0076836087 0.07374894 0.04621729 -0.037209287 0.0032668754 -0.054097332 0.036948126 -0.072599255 0.06715623 0.007997934 0.010823524 0.05410838
ㅠㅠ 0.101742774 -0.09555252 0.05405043 -0.030629797 0.01717281 -0.016875321 -0.005895224 0.0026928177 -0.030644765 -0.016552603 0.14442012 0.0116277775 -0.065263145 0.040409725 -0.05773856 0.07104675
넘 -0.08525076 0.13733491 0.009573171 -0.05801476 0.05027542 -0.085514285 0.060730014 0.054579202 0.055603597 0.005494926 -0.037177775 -0.047651917 0.032730322 0.024865499 0.08341847 0.21022189
인데 -0.08929983 0.03260581 -0.022141486 0.052454174 -0.014817108 -0.008759813 0.006317975 -0.10145369 -0.10984519 -0.033129945 -0.067067266 0.075842 0.050471637 0.122353874 -0.012852605 -0.008826072
다고 -0.1756658 0.03256339 0.07024392 -0.18987608 -0.06006285 -0.0017125016 0.008367724 -0.13354285 -0.18282811 0.15150781 -0.06891722 0.07777892 0.004674221 0.06883815 0.018125558 -0.19215038
이해 0.0495622 -0.0041737463 0.028235147 0.021697033 0.06355175 -0.03638008 -0.022419853 -0.123971626 0.018771144 0.07489789 0.02318858 -0.020031532 0.038001098 -0.14495006 -0.056133766 -0.14183597
명작 -0.066463195 -0.07016604 -0.17050797 -0.02152295 -0.14624363 -0.16097969 0.155318 -0.09491079 0.08268006 -0.16016579 0.18197274 -0.050380893 0.24149 -0.080395505 0.18828374 0.08963811
^^ 0.100251205 -0.033195045 -0.040757913 -0.010938579 -0.08236608 0.06908865 0.19284047 -0.12221897 0.024696806 0.012683401 0.10933601 -0.030306658 -0.028831566 -0.15072156 0.013193036 0.009193697
그리고 0.12153538 -0.058271445 -0.03406449 -0.016736545 0.067480154 -0.16900913 0.074838236 0.0013497679 0.05068292 -0.0036348095 0.028490204 -0.0038422514 0.038538817 -0.058651887 0.15133205 0.04798002
역시 -0.057563808 -0.070740335 -0.043214165 -0.012330936 -0.050800804 -0.03976876 0.059500717 0.104659654 0.053497057 -0.08860609 0.002639763 -0.04412565 0.07928145 0.002661901 -0.008650949 0.02516997
난 -0.027968008 0.059902593 0.0040099253 0.12292607 -0.08867481 0.011843491 0.16682374 -0.03644163 -0.018224206 -0.05783463 0.025701206 -0.04848055 0.017389044 -0.09051418 0.081468284 0.18456346
여자 0.12296158 -0.072577454 -0.08376161 0.02388312 0.021968512 -0.03272737 -0.043240305 0.01655834 -0.08944566 0.06633793 0.049498927 -0.0059943176 -0.055647902 0.036648486 -0.14231305 0.013388918
또 0.039496742 -0.012371577 -0.11523389 0.031736977 -0.11377338 -0.19328935 -0.017933851 -0.096579306 0.14454897 -0.045341287 0.12198201 0.0012917211 0.00259107 0.0029058442 0.032279186 0.0035856469
이상 -0.02804732 0.02343066 -0.01731283 -0.008546659 -0.052771077 0.18529749 0.07812342 0.06776999 0.0202973 0.17619139 -0.05533796 -0.10698769 0.015524206 0.015533787 -0.0020150086 -0.06053263
걸 0.06648971 0.090271525 0.017027033 -0.01123486 0.06767707 -0.025500197 0.0436511 -0.017547138 0.044850025 0.010065944 0.0141869085 0.065061785 -0.035724774 0.10577151 -0.029811688 0.1037517
한국 -0.09379038 -0.01637773 -0.07269701 0.09649359 -0.0011966754 0.05997782 -0.05646483 -0.1513278 -0.03365543 0.10282901 -0.030583454 -0.1485401 0.018512135 -0.02251741 -0.03755013 -0.036253422
에게 0.11128094 -0.022785317 0.012367994 -0.12608482 -0.002855607 -0.0060361335 0.046330996 0.07394131 0.0278882 -0.106043346 -0.0011044081 -0.108672656 0.014587555 -0.163915 0.035384223 0.09636484
는지 -0.05027025 0.18539488 -0.033357542 -0.08851654 -0.008494385 0.031021805 0.07332613 -0.055348583 -0.115886934 0.068610705 0.058851592 0.07899291 -0.030185908 0.034360416 -0.10366271 -0.070629455
많이 0.08517419 -0.03163095 0.13724518 -0.011107135 -0.023254998 -0.08116154 0.07116512 -0.006044571 -0.015967298 -0.016537458 0.017394997 0.05545486 -0.07919413 -0.024746915 -0.040476527 0.07683627
부터 -0.0012012463 0.073220134 0.071098335 -0.1745479 -0.0018700007 0.0490943 -0.028589033 -0.035312608 -0.021898907 0.020909656 0.00569529 0.042998653 -0.018704558 -0.04177978 0.011890899 -0.028917242
만든 0.0074531515 0.06744039 -0.13638362 -0.0065423157 0.09653738 0.04210565 -0.09663234 0.012332898 0.06630801 -0.08431216 0.025905535 -0.052019794 -0.003941024 -0.07037348 0.018642623 0.16287148
주인공 -0.027388087 0.14438798 0.13528964 0.045890428 0.031365942 -0.038388867 -0.081273586 0.013066364 -0.013547756 0.034851905 0.012011336 0.05378695 0.060099766 -0.055621613 -0.06871801 0.03857631
받 0.031923823 -0.096835904 0.10751962 -0.05375913 -0.060313776 -0.14170356 -0.039346203 -0.011356972 -0.022622341 0.04740694 0.065472946 -0.08994407 -0.058328472 -0.05453719 0.026103701 -0.048182465
합니다 -0.026347956 0.00061183725 0.15545332 -0.12793317 -0.07695721 0.09711817 -0.086934246 -0.09137156 -0.096371196 -0.053634696 0.056982815 0.0088198325 -0.046468273 -0.06427404 0.058962237 -0.06846272
!! 0.018365681 0.029726041 0.21723257 -0.026462182 0.02451909 0.05337652 -0.13818592 0.0003959468 0.055080358 0.04713206 0.099360384 -0.1419455 -0.08170036 0.16429707 -0.16526774 0.13145135
두 0.14216936 0.13800052 0.012887287 -0.060087018 0.011771155 -0.007880245 0.07575749 -0.07243683 -0.07865983 0.07452483 -0.012938005 0.11515149 -0.02790492 -0.021295259 0.05582567 0.07872716
우리 0.091924585 -0.073260285 -0.0721019 -0.05282799 -0.0036795419 -0.08603274 0.07800758 -0.004164715 -0.006899259 -0.085773475 0.027914535 -0.012806052 0.13656363 0.09598709 0.16684237 -0.0687596
살 -0.19434404 -0.07317367 -0.023842404 -0.084476106 0.1044061 -0.059416868 0.035613213 -0.11810577 0.052507635 0.020102961 -0.01758241 -0.11326682 -0.054022677 0.008286373 0.051435318 -0.06438807
괜찮 0.010704753 -0.08394287 -0.044807404 -0.06289685 -0.017953692 -0.11107153 0.061647426 -0.012129778 0.06905284 -0.12665679 0.15937833 -0.009292074 0.09613949 -0.054266796 0.12331319 -0.028016545
길 0.13940166 0.056627706 0.1918141 0.019405082 0.09602316 -0.08567362 -0.05296398 -0.031232344 0.050398167 -0.037167102 0.08291538 -0.033462673 0.017159533 0.059305318 -0.14848453 0.06841011
엔 -0.030725267 -0.19303483 -0.063461386 0.06878497 0.037605286 -0.011226878 -0.082474604 0.013790073 -0.09834818 -0.036800675 0.060968492 0.062922224 -0.080798596 -0.042324897 0.009600109 -0.10286184
기억 0.002779831 0.05905861 -0.07571666 0.07229685 -0.1700042 0.018936299 0.07689283 -0.01346767 0.03543129 0.009653479 0.054301128 -0.10807558 0.046186753 -0.081978515 0.030684844 0.020655189
한다 0.06075991 -0.0405288 0.046000008 0.055711847 -0.024443485 -0.0060908673 -0.02066829 0.097256035 -0.017448453 -0.11047643 -0.020687394 -0.083099164 -0.025225071 0.055558987 0.036943357 -0.018445885
ㅎㅎ 0.17908391 -0.011401289 0.12582737 -0.102003075 -0.12618232 -0.14208679 0.11719925 -0.04151661 0.01901151 -0.1485989 0.18319929 0.04996123 0.00048157162 -0.123576984 0.012628268 0.12318438
연출 0.028430784 0.17891946 0.13626356 -0.019675665 0.09129407 -0.031633083 -0.008188349 0.073920816 -0.005412147 0.039819635 -0.05060391 -0.015632942 -0.032395992 -0.077424824 0.058055725 0.07636322
때문 0.016868679 0.027856924 -0.035302114 -0.014349426 0.04686119 0.1144163 0.027717954 -0.09377713 -0.0027136204 -0.055384092 0.11996116 -0.03425519 0.024799537 -0.014006963 0.00476465 0.12162478
이나 0.03449254 -0.085989565 -0.19332263 -0.114308305 0.21073711 0.087198585 -0.04374867 0.021045074 0.044104822 0.08317258 -0.099657625 0.13597417 0.0041101663 0.120899595 0.0235859 -0.06954267
요 0.1687644 -0.017889597 0.045199934 0.06567717 0.018915255 -0.11947123 0.050484754 0.028444905 0.045884926 -0.00074987084 0.08898892 -0.0048854533 -0.0039720577 -0.10486189 -0.043162845 0.07553453
저 -0.009557787 0.21118619 -0.046076987 0.066471666 -0.13213338 0.015588431 0.016152171 0.07446638 0.015088477 -0.099308714 -0.08394212 -0.07001357 -0.039213367 -0.04723387 0.079014845 0.10831926
재 -0.1170617 0.06378109 -0.08266322 0.06618218 -0.071268834 -0.22723123 0.033946477 -0.061942194 0.034453176 -0.10916792 -0.032308225 -0.059737742 0.043921527 -0.056193806 0.09243411 -0.030130124
꼭 -0.08246102 -0.0019236478 0.14667965 -0.052511826 -0.14977193 0.028710619 0.04271236 0.17258425 -0.040043365 0.06477237 0.14733021 -0.1295563 -0.0026974624 -0.035135783 -0.0058464105 -0.024857355
랑 0.056150276 0.15589222 0.14192893 -0.052482676 0.07651462 -0.046418667 0.040464748 -0.14547275 -0.07146731 -0.024700323 0.008279198 -0.09219277 -0.019932259 0.049135875 0.0902174 0.044747125
며 -0.0045503103 0.08082072 0.03319245 0.0029240833 -0.096490346 -0.028295493 -0.09870702 -0.018624775 -0.14805447 0.034178477 -0.020105243 -0.07693573 0.09611549 0.07271115 0.07077465 0.026293412
현실 0.11098233 -0.015635064 -0.024495082 -0.045097236 -0.07762465 0.026784102 0.06978016 -0.041941456 0.09209573 -0.046602268 -0.018817846 -0.029849779 0.07956695 -0.0067213275 0.11123577 0.054915074
ㅡㅡ 0.12227462 0.2373078 0.055887934 -0.011003084 0.06446342 0.0940427 -0.0030136725 0.017295716 -0.12602155 0.12490352 -0.12949347 0.07591649 0.010293215 0.07059325 -0.02381792 -0.051838476
긴 -0.012298367 -0.008524991 -0.15902178 -0.09933318 0.09621856 -0.02962563 -0.0051349215 -0.029263442 0.0445144 0.041766364 -0.16363527 0.11163469 -0.01766206 -0.04098903 -0.024696868 -0.16228153
무슨 -0.009571163 -0.033932056 0.053262558 0.090265416 0.08222449 0.21624064 -0.025343059 -0.17958418 -0.053130746 0.08650994 -0.042318907 -0.009130205 0.029954316 0.21937653 -0.14167656 -0.06469673
마음 -0.15470195 -0.15339305 -0.03780686 0.0031615912 -0.028824035 0.15309027 0.083883904 0.022489564 0.111780845 0.01739493 -0.009938592 -0.02587428 -0.01729333 -0.040654868 -0.012490645 0.064834155
내내 -0.02058087 0.1447713 0.06647539 -0.009714161 -0.024052547 -0.001007192 0.051911514 0.07066852 0.03339702 0.06297086 -0.011321094 -0.028603625 -0.0827504 0.035984248 -0.0067671193 -0.0527836
굿 0.09815989 -0.06604684 -0.14952452 0.15635917 -0.015440134 0.11261394 0.02846406 -0.01637457 -0.039212074 -0.07411629 0.06400236 -0.0640643 0.0634625 -0.19715062 0.19367963 0.08444774
결말 0.02224237 -0.07061557 -0.06879276 0.10340728 -0.012429573 -0.09878254 -0.051673163 -0.08548768 -0.04217802 -0.03613732 -0.046154752 0.10563679 0.0076451525 -0.019292187 -0.06469549 -0.016660394
죽 -0.039566096 -0.11822468 -0.0119403545 -0.052875295 0.023413828 0.04478174 0.029409777 0.06357467 -0.0900005 0.009656985 -0.0078658005 0.0036044393 0.018491978 0.12030503 0.080032684 0.03971495
남자 -0.14322111 0.21188946 0.06543972 -0.059373192 0.038144775 -0.05110804 0.034425158 -0.02915768 -0.020117661 0.10519777 0.08563157 0.012951631 0.041995358 -0.008670162 0.08407081 0.057506893
세요 -0.010406058 0.015217016 0.123219065 -0.063952714 -0.07445941 -0.00786152 -0.07201453 -0.042734873 -0.14156596 -0.03215807 -0.0010658192 -0.07642989 0.015618555 -0.050503895 0.049310222 0.04514356
전개 -0.07576307 0.0968509 0.27463198 0.009342998 0.12712304 -0.018031767 -0.12526533 0.04779356 0.052395836 -0.007795307 0.030761043 0.14541847 -0.17317328 0.09149681 0.0009151371 0.035913315
속 0.038523123 0.056637827 -0.0439308 -0.0013750612 0.047863215 -0.018544665 0.018924825 0.07642501 -0.010029514 -0.041278407 0.15465109 0.07128832 -0.04819921 -0.15132797 -0.028122487 -0.062297195
소재 0.040171213 0.10726154 0.06574556 -0.13345204 0.07032148 -0.028013607 -0.0011775033 0.08803185 -0.06440176 0.008201852 -0.123088546 0.14003715 -0.086223304 0.038344838 -0.04334181 -0.052133013
짱 -0.043467045 -0.04309852 -0.034084965 0.0212024 -0.07734614 -0.019774985 0.14658222 -0.10032304 0.094589144 -0.17415793 0.1371164 -0.08031551 0.16591634 -0.12739387 0.12421767 0.21846896
인생 0.014209283 -0.15886827 -0.131628 0.006460516 -0.07717161 -0.04141386 -0.08430817 -0.089778796 0.17865801 -0.104752414 -0.061576948 0.03483788 0.062833905 -0.11940287 -0.061740547 0.057518635
공포 -0.029660562 -0.007396382 0.14361426 -0.0061645606 0.0078033167 -0.04137515 -0.08437974 0.0071984804 -0.0011852364 -0.008599921 -0.05518384 -0.10878163 -0.073382705 0.028001858 -0.074866906 -0.00918222
다른 0.0983995 -0.009839586 0.014726701 -0.0165592 -0.09774016 -0.06894977 -0.04205381 0.012659651 0.026195638 0.069294706 -0.07354359 0.03588434 -0.036240708 0.09079417 0.006449057 -0.028580442
아서 0.0064765946 0.052183524 -0.03577159 -0.00033382414 -0.0058785845 0.03273273 -0.034965534 0.017975247 0.033583455 0.034782726 -0.06770302 0.010726343 0.04006306 -0.03610136 0.00075848476 0.13571592
씨 0.05030271 -0.012585146 0.07781109 0.031630803 0.012985689 -0.053696446 0.009465441 -0.008852703 0.02618059 0.095106 0.03365212 0.097248755 0.0017620312 -0.027518395 0.0145000275 -0.06804865
~~ 0.14396788 -0.051722426 0.080392346 0.027396185 0.05454944 0.123552926 0.017499238 0.12311557 0.003196088 0.0064289863 0.09808341 -0.08255784 -0.025853392 -0.037107844 0.1530994 0.005823474
짜증 -0.111013405 -0.0043981657 0.20067915 0.129433 0.05523538 -0.018355032 -0.14742139 0.10146439 0.0016187398 0.086597964 -0.0882366 0.13583286 -0.1496448 0.21375504 -0.08696624 -0.09191335
은데 0.08508776 -0.015416817 0.041967727 0.119580194 0.02552794 0.030490918 0.11146083 -0.07882711 0.004593361 -0.0058185286 0.09285966 -0.015428648 -0.06799047 -0.053630866 0.0034475152 0.15023762
아요 0.08550673 -0.020233817 0.0014450961 0.07013013 -0.08391484 -0.021344857 0.024170388 0.057625707 0.07106804 -0.109407775 0.042259768 0.061796594 0.015901519 -0.05426182 0.07770741 0.014203231
뿐 -0.021342576 -0.06506159 -0.14896974 0.0017866369 0.15137032 0.063500255 -0.0037217177 0.020615187 -0.09702399 0.07340231 -0.08818264 -0.014687767 0.027128443 0.07127118 -0.06239326 -0.031240253
필요 0.07017982 4.634432e-05 -0.110153615 0.14203322 -0.031979166 -0.03524439 -0.06077604 -0.26239294 -0.0030075354 -0.03729002 0.014544782 0.004499425 0.11299357 -0.10420397 0.116406836 0.08096785
별 -0.03855035 0.051712073 -0.005440214 0.0037076187 -0.009813723 0.20165074 0.038186703 0.22548278 0.019599048 0.08446953 0.009444744 0.048013106 -0.085994214 -0.005560742 -0.0371219 0.067692004
유치 0.21855152 0.16578008 0.2287563 0.01302279 0.1118717 0.031384602 -0.07668006 0.107370056 -0.1573294 0.13011935 -0.21106173 0.1423404 -0.061028738 0.14652964 -0.08407392 -0.0793545
가장 -0.030966444 0.08177619 0.102286644 0.04719724 0.048623394 -0.08487923 -0.08488206 0.056187592 0.06690551 -0.05741932 -0.18155555 -0.0027929912 0.050922144 -0.013975681 -0.0024394698 0.09544654
음악 0.096124336 -0.14269093 -0.01619754 -0.1314758 -0.040405966 -0.14206213 0.065354526 -0.05755288 0.083237775 -0.12224839 -0.029425526 0.0138570955 0.040360566 -0.08619767 0.00059010054 0.07714052
) 0.12378913 -0.025385499 -0.1392088 -0.02197398 -0.008811775 0.004077151 -0.07537915 0.0249409 -0.042920668 -0.08164305 -0.016025607 0.066999234 0.015458846 0.009617741 0.023179552 -0.0058421893
일본 0.06933189 0.11216903 -0.042349745 -0.06522298 0.040969696 -0.05348378 -0.086592324 -0.01960998 0.022167739 0.106305316 0.007111356 0.04095468 0.013352061 -0.009923135 -0.05539203 -0.044760227
낮 0.006262684 -0.07378088 -0.099806435 0.19992685 -0.17528601 -0.16189773 0.16127321 -0.022285853 0.050212216 -0.0249682 -0.020048546 -0.09541665 0.17357635 -0.060431015 0.2830827 0.17555687
아이 0.045895044 -0.009430115 0.019223943 -0.22351624 0.03035718 0.025480969 0.035228856 0.065864086 0.08214585 0.026226573 -0.023729995 0.059531756 0.057438105 0.015118364 -0.005844732 0.042196784
;; 0.21008696 -0.020174885 -0.06501729 0.022365283 0.076112494 0.009940303 0.026207628 0.09512137 -0.031999435 0.058450326 -0.018596787 0.02068286 -0.060409438 0.07022408 -0.04009302 -0.01762919
오 -0.031893443 -0.019357167 -0.06575852 -0.14279747 -0.07215523 -0.12451511 -0.030965395 -0.03028666 -0.057338603 0.058390018 0.04273457 0.034472816 -0.007191808 -0.04190859 -0.03453916 -0.026773956
반전 0.05772762 0.05637324 -0.044397507 -0.10201509 0.011773718 -0.09363932 0.050654747 0.052030604 0.06842266 -0.06306026 -0.003031521 -0.010081075 0.12474845 0.030399123 0.045097895 0.16709325
매력 -0.022970935 0.007862876 -0.1271716 -0.05399882 -0.0023114653 -0.2022337 0.0173561 0.074772075 0.100401685 -0.11582867 0.06537134 -0.083041124 0.03130366 -0.09333999 0.09465989 0.22301939
수준 0.10878237 0.10970165 0.113009326 0.08116012 0.024578055 0.12843059 -0.11059364 0.040823773 0.012063335 0.12985207 -0.032819137 0.0011179879 -0.06574497 0.1646121 -0.058474872 -0.1691518
다니 -0.12855941 0.07618339 -0.0018935861 0.059515875 0.0034154549 -0.09303153 0.0002778517 -0.0563211 0.04297734 -0.048150837 -0.055904377 -0.061687544 0.00856498 0.13038498 0.06109545 -0.15020241
밋 -0.11304617 -0.14760159 0.053029753 0.09099341 -0.041710358 0.16822536 0.1924865 -0.0143785095 0.010628065 -0.06368076 0.057688333 -0.11538488 -0.117912 -0.11100168 0.1149123 -0.049214765
웃 0.106033795 -0.112271205 0.009522561 0.03687799 0.06954658 -0.0060427305 0.052070417 -0.063327804 0.07015277 -0.07231493 -0.08145952 0.0031537663 0.060184583 -0.08957578 -0.0033292705 -0.033059906
맞 -0.07952812 0.1610511 -0.068361945 -0.0060135834 -0.013798951 -0.066395216 -0.043182485 0.10754223 0.10612684 0.010562169 0.013162905 0.113439366 -0.09386726 0.05083 -0.0025077406 0.089325674
인지 -0.018494116 -0.10480766 0.097268455 -0.11820181 0.10890127 0.023346705 -0.057293717 0.17258786 0.045297757 -0.027618697 0.019398319 -0.0037157407 -0.099450044 -0.08338032 -0.06367698 -0.11101972
가슴 0.04412092 -0.12814735 -0.03831918 -0.09893949 -0.17526855 -0.04742191 0.1331714 0.07724977 0.1439957 -0.08248929 0.079518266 -0.117688954 0.04906926 -0.08762243 0.14019178 0.14054517
없이 0.02163051 0.025186123 0.13261913 -0.023430247 -0.010419785 0.07357608 -0.05739552 0.12050649 -0.08969488 0.054334864 0.012538055 -0.014751268 -0.10772747 0.10783814 0.017776314 0.015183782
원작 0.009034162 0.09145009 0.025553672 -0.087025404 0.014977392 0.113520786 -0.15082763 -0.16731921 -0.101225935 0.09970345 0.041714884 0.11739496 -0.17458564 0.042940613 -0.09106633 -0.039511785
높 -0.052909195 0.110563725 -0.0031749012 0.04863752 0.10347629 0.19484381 -0.056989737 0.008519859 -0.0063651036 0.0818958 0.023674395 0.06768937 -0.114081785 0.18004926 -0.15459126 -0.010694657
ㄷ 0.09402175 0.01913729 -0.056699626 0.08106196 -0.059635505 -0.02730038 0.018014306 -0.18841448 0.035033315 -0.061211865 -0.0035493672 -0.011932598 0.04360217 0.054135352 0.05050998 -0.009377583
인간 -0.11985922 -0.09594622 -0.14041643 0.026437039 -0.039136875 -0.0862545 -0.12464424 0.039772283 0.044047825 -0.0016715016 -0.03175255 -0.026584 0.19391134 -0.078171626 0.06407507 0.029448124
데 -0.030028839 -0.052274212 -0.1020891 -0.0739082 0.0511221 -0.012842776 -0.11305515 -0.021864256 0.016143909 0.014489629 -0.11235582 -0.01211823 -0.036402192 -0.06613685 0.0021097604 0.15545183
ㅠ 0.09483868 0.012648284 -0.14208975 0.23348628 -0.066763595 -0.15280099 0.12608665 -0.040011115 -0.076064326 0.061158843 0.0013764678 -0.008507419 -0.0918188 -0.12579483 0.0018630871 -0.08750948
( -0.105885714 -0.16927259 -0.03415433 0.02699946 0.07659837 -0.049311087 -0.09140513 -0.10353005 -0.008972401 0.032104995 -0.015961733 0.05551392 -0.06497708 0.06283374 -0.015300824 -0.02737693
노 0.12565869 0.025851276 0.106492735 -0.06270415 0.18624786 0.059525415 -0.14186521 -0.034011245 -0.219821 0.0852899 -0.05946673 0.26985404 -0.25228834 0.21145035 -0.21429746 -0.1065023
만드 0.018058017 0.08444638 0.013958858 -0.1003623 -0.017633332 -0.018514374 0.14283547 -0.03058148 0.0074610496 -0.0934845 -0.026864383 -0.04294155 -0.043957736 -0.027958639 -0.06740595 0.08362011
급 -0.11199066 0.15751667 0.121323004 0.054920588 0.07033168 0.006567017 -0.041439608 0.014408936 -0.06412843 -0.02749704 -0.021828236 -0.1410318 0.020331081 0.057075556 -0.08678933 0.1142367
눈물 0.04932619 -0.14900035 -0.021786317 0.005797048 -0.057607967 0.064338714 0.11316922 0.145042 0.17748524 -0.1494911 0.047613677 0.06109535 0.12174417 -0.109736644 0.010803038 -0.106605776
준 0.089992225 -0.055463318 0.109167084 -0.070868835 -0.031856146 -0.042186033 -0.0772151 -0.30058557 -0.033890504 -0.070301555 -0.017189385 -0.13673115 0.2129434 0.04033918 -0.061106153 -0.08504892
보여 -0.05207778 -0.013503102 -0.038693514 -0.02213524 0.042335752 0.016033286 0.021300042 -0.07803506 -0.014862897 0.006065754 0.13157615 -0.0058615613 -0.04133988 0.06984858 0.005230669 -0.03522956
용 0.09825754 0.056415506 -0.07177786 -0.013938551 -0.013255464 0.11034113 -0.07228144 -0.10349435 -0.013945445 0.027842997 -0.011798629 -0.039503846 0.072344765 0.07819001 -0.09022132 -0.043161854
찍 -0.016303034 0.113523476 -0.017236618 -0.07549564 0.07092256 0.17008923 -0.08069786 0.12736142 -0.060464874 0.08071485 -0.06396242 0.055249527 0.03228253 -0.029155284 -0.055301163 0.044432387
인가 -0.031045195 -0.014818779 -0.0567549 0.017484158 0.09126065 0.07105638 0.021812316 0.045516614 0.06356735 -0.022544486 -0.05910017 -0.035789784 -0.1098912 -0.037916742 -0.020174587 -0.07591331
을까 0.010766014 -0.06878487 -0.11363184 -0.13487647 -0.09396462 0.06865547 -0.007701346 0.047218822 -0.14448754 -0.007680978 0.021612769 0.04092438 -0.025672441 -0.018838277 -0.0009651702 0.011904638
코미디 0.09856944 0.12790152 -0.015400161 0.0628843 -0.0025708636 -0.02109217 -0.009949782 -0.021733332 -0.026582124 -0.075982936 0.034060534 0.0845318 -0.018236982 -0.041228224 0.04347773 0.03878339
마 -0.097267665 0.09631319 0.13804388 0.20465267 0.02949311 0.09019253 0.0076193623 0.108632416 -0.03902886 0.003374227 -0.025570847 -0.045254823 0.097212635 0.06384619 -0.02646096 0.019015336
화 -0.082365766 -0.08053702 0.10291985 -0.088946566 0.19376414 0.024662176 -0.03853765 0.023729699 -0.021308197 0.06802519 0.016399635 0.033453375 0.035562538 0.08471232 -0.09703721 0.06944878
신 0.024932837 -0.068786286 -0.073893085 0.055990506 -0.02153746 -0.093831085 0.05128948 -0.06435011 -0.08019996 -0.058347918 0.06550928 0.00511558 -0.06256609 -0.072643295 0.07868353 -0.076667204
여 -0.030892747 0.031738613 -0.029191732 0.0103468895 0.09155407 0.09049746 -0.032512534 -0.034746803 0.06817154 0.069404125 -0.043990362 -0.03183282 0.02240989 -0.115894966 -0.014863242 -0.065437175
모든 0.050296362 0.016922532 -0.1493906 0.12742692 -0.043451793 0.011728223 0.060697705 -0.023645772 0.18629919 -0.029272648 0.05859262 -0.08050573 0.021431154 -0.1896367 0.062060233 0.01000399
쓰 0.07922517 0.12520218 0.022072813 -0.045919392 -0.019316653 0.066731445 -0.08661711 0.026607415 -0.04996403 -0.039169922 -0.03552907 -0.0054972027 -0.106740884 0.10188569 0.08760182 0.03071222
아직 -0.021167047 0.1032698 -0.15259571 0.05350617 -0.05805689 0.107981645 -0.036172386 -0.090998426 0.10546271 -0.06970397 0.06412443 -0.0953499 -0.007806076 0.09603162 0.038287826 0.027493443
5 0.059024952 -0.06853913 -0.104118 0.07437691 0.025918791 -0.007118301 -0.037928525 -0.04546161 0.032031137 0.027011216 0.08509026 0.02091036 0.03815038 -0.07440313 -0.053457856 0.08114541
추천 -0.023596695 -0.05105658 -0.14854872 -0.05904424 -0.08829791 0.013807141 0.078075185 -0.1824679 0.011198093 -0.108253606 0.06687268 -0.05949996 0.108912386 -0.03647952 0.14831126 0.09911315
처럼 -0.106276415 -0.029684572 -0.05718823 -0.046446387 -0.00070046255 -0.04808244 0.020202609 -0.013912959 0.10870083 0.0008481242 0.054963537 -0.05765616 0.022114523 0.050580148 0.004226641 -0.082826674
눈 0.06793594 0.038667746 -0.027196229 0.027328318 0.030650347 0.056150798 -0.02029756 -0.067470215 0.008771859 0.024457773 0.029794354 0.047620416 -0.06968838 0.056105953 -0.01673071 -0.096370265
아닌 -0.077077925 0.16568442 0.04682494 -0.079792984 0.06302222 0.051725253 0.03265458 0.06731744 -0.0884486 0.04815323 -0.12913622 0.038224936 -0.10085465 0.097227424 -0.0124612525 -0.04512705
자체 0.05082645 0.086384065 -0.030995224 -0.008687482 -0.03219094 -0.002348707 0.06515299 0.039251436 0.052406374 0.021539034 -0.0038995726 0.062441777 -0.08461885 -0.031580295 0.13338815 -0.090160534
4 -0.05561107 0.075585134 0.0127077475 0.19845274 0.062277783 -0.030506192 -0.11349198 -0.08121819 0.015665332 0.029371826 -0.0018191424 -0.03126682 0.008753465 0.10570586 0.026001321 0.026974073
울 -0.17940445 -0.08858641 -0.012586662 0.1763172 -0.029438425 0.06785321 0.08517496 -0.09147473 0.05078144 -0.048898216 0.111798935 -0.09392541 0.017031347 -0.03168729 0.111564785 -0.10322309
대박 0.14851011 -0.062651224 -0.049712438 -0.009124985 -0.10759417 -0.1854552 0.15522987 0.08998623 0.05100328 -0.08144045 0.13281202 0.039063938 0.10804871 -0.09378596 0.15846217 0.17404678
몰입 -0.08681783 0.14196685 -0.020113433 0.009100703 -0.07380737 -0.15808694 0.14819175 0.20482107 0.08524938 0.042836763 0.032286063 -0.20532495 0.16567646 -0.14402948 -0.02078644 0.057459034
몇 0.075125694 0.056497768 -0.11669312 0.096007906 -0.067492366 -0.14530455 0.045294136 -0.052627787 0.00946047 -0.049241457 0.0061202836 -0.024961296 0.15311076 -0.049962215 0.009898911 0.036505464
실망 0.1890217 0.06612833 0.1449143 0.043723784 0.11004657 0.011087997 -0.22778684 -0.03733289 -0.14014427 0.16666567 -0.15345411 0.15769649 -0.14560461 0.22359976 -0.06426923 -0.11006634
스럽 0.010438455 -0.035252523 0.18886492 0.051789787 -0.042787764 -0.027073672 -0.07828104 -0.05656644 0.19138725 0.019886559 0.053264648 0.044246376 -0.10332292 0.033764422 -0.09493497 0.08482089
는다 0.04481098 0.07619609 0.12937254 0.09776612 -0.14718297 -0.07258642 0.06271146 0.012363976 -0.015022335 -0.07842695 0.09020269 -0.024067136 0.061640166 -0.052816227 0.055515267 0.07248074
대한 -0.0682204 -0.044974376 -0.017532807 -0.07094209 -0.029166596 -0.10814398 0.011134144 0.051101405 -0.038858246 0.046373777 0.124702446 -0.02491873 -0.106461324 -0.212781 0.08335694 -0.09072834
죠 -0.06700555 -0.037525445 -0.043264344 -0.033793475 -0.0044389623 -0.030860066 0.16918431 -0.052775163 0.08609483 -0.016394697 0.088799745 -0.054189794 0.0003531438 -0.009227524 0.10611892 -0.005400541
란 0.021451801 0.059704322 0.008364922 0.030301234 -0.047698278 0.031241197 0.15358213 0.021179097 0.11004381 -0.03477176 -0.009409433 -0.0140242865 -0.17025407 0.012571025 0.042439174 0.052191805
그런 0.08211518 0.16678847 0.11959381 0.058775764 0.02813589 -0.07926289 -0.04270913 -0.009318196 0.19886577 -0.033875693 -0.11495337 -0.047501963 -0.078948095 -0.031847794 0.019100897 -0.06944432
솔직히 0.07501657 0.018432716 0.17753309 0.19328688 -0.0695399 -0.01998909 -0.0800058 0.01048666 -0.04338059 0.013667338 0.019325243 -0.037562404 0.075585805 -0.08455095 -0.046105314 -0.12900583
ㅎ -0.14902158 -0.0048991237 0.10546076 0.046216764 0.013763983 -0.12485809 0.052158643 0.0912528 -0.07375826 -0.021847297 0.092964604 0.09638429 0.06725827 -0.18914372 0.07108952 0.13563175
캐릭터 0.0481781 0.1996891 0.105296165 0.055803947 0.0001979327 0.0057031396 -0.029187486 -0.055297673 -0.019895513 -0.0041566994 0.042403437 -0.019281214 -0.0435139 0.044506267 -0.010258476 0.011174256
아주 0.036433652 -0.0045411843 0.082165 -0.013802907 -0.034112483 -0.034675356 -0.03333133 -0.014983703 0.080716126 -0.09839624 -0.01783337 -0.05259547 -0.045953453 -0.06301395 0.036266286 0.07698641
모두 -0.10628907 0.03442616 0.009451511 -0.06306195 -0.06699819 0.03929098 0.13466737 0.0718852 0.02091213 0.003315555 0.048681304 0.005826227 0.1054592 -0.09051693 0.030230315 0.07380905
- 0.1483165 -0.09054685 0.06528233 0.076631844 0.03410021 -0.17391908 -0.12735163 -0.19300216 -0.15532608 -0.0013187985 -0.0035345866 0.043717064 -0.10277416 0.04377836 0.023548437 -0.04728628
가족 0.070760325 -0.059872974 0.010171611 0.10129212 -0.12289988 -0.1099262 -0.027100196 -0.1487652 0.103750214 -0.029641997 0.1245037 0.07884959 0.02213624 -0.02757436 0.045396887 0.107402965
여운 -0.09868955 -0.22394033 0.03246266 -0.08033437 -0.186981 0.0034689321 0.12802754 0.27074668 0.15955977 0.037800252 0.27944288 -0.24350813 0.0491308 -0.22387655 0.16003256 0.035049953
건지 -0.061555456 0.13377714 -0.04668592 0.026782742 0.045503248 0.018117031 0.0034216729 0.059242062 -0.0058296565 -0.08042509 -0.030347643 0.042870242 -0.07187835 0.023846995 -0.01437022 0.062002216
전혀 0.02967253 0.082027696 0.03951493 -0.14140601 0.041723147 -0.09418451 -0.11415239 -0.12647955 -0.16768964 0.11934586 0.025839882 0.055729184 -0.09455792 0.092325196 -0.09184463 -0.10556894
연기력 0.10070857 0.08762612 0.10812416 -0.05967016 -0.029410658 -0.013274706 0.18600917 0.03281052 0.052636497 -0.05896584 -0.0056042196 -0.0056953635 0.11534707 0.025380896 0.13271059 0.024121562
나라 0.14648415 0.03473443 0.028161066 -0.13140191 -0.05850904 -0.00841583 0.058361046 -0.06678414 -0.06661427 -0.13911416 -0.022719495 0.088015266 -0.04668468 0.021558253 0.0129997665 -0.10370736
후 0.0469851 -0.047333267 0.036479015 0.05780641 0.03774643 0.15298945 -0.060918856 -0.07510289 -0.056692734 0.0082014585 -0.079028785 0.009506504 -0.035435032 -0.01052041 -0.04756841 0.07343225
다면 0.07547483 0.03406815 0.102411784 -0.056637146 -0.012249613 0.06222776 -0.08189606 -0.16781975 0.14004318 0.067521915 -0.1124609 0.039528824 -0.019556724 0.08557589 -0.059915043 0.029125895
될 0.041716494 0.114313036 0.11262667 0.07273953 -0.04348321 0.121386066 -0.006564554 0.04838564 -0.17964269 -0.00964328 0.0518087 0.10232272 -0.0021702992 -0.050823886 0.13360518 0.016625151
뭔가 0.011943697 -0.058296178 -0.025886748 0.068519704 0.014129771 0.058195144 0.0039594043 -0.03766745 0.0033819827 0.030503707 -0.02975326 0.07733349 0.079422034 -0.105331756 0.011104332 0.10362559
그래도 -0.06339093 -0.15317777 0.041515745 -0.035615657 0.019784411 0.0023336187 -0.085934415 0.17045538 0.097217865 0.001354457 0.025083277 -0.04151201 0.034246903 -0.0073098782 0.06576597 -0.04534454
; 0.08407872 -0.11635726 -0.00433603 0.11026485 0.0490451 0.066298805 0.060834587 -0.004937841 -0.018336615 -0.0060251616 -0.028019525 0.058106855 -0.18310744 0.15318926 -0.026580486 -0.026039764
시리즈 0.11011665 0.0685524 0.05691493 0.08458524 -0.043912925 -0.041551657 0.021092799 -0.013253248 0.04378321 -0.020158041 0.032698568 -0.15693805 0.14750415 0.07643016 -0.06575509 -0.109801024
근데 -0.03182687 0.01781089 0.010197265 0.17227079 -0.02688391 -0.03781166 0.10880132 -0.10683974 0.025241463 -0.19810282 -0.08375706 0.114220224 0.13362677 0.03847627 -0.02237248 0.09300355
작 0.24484609 -0.059757598 -0.005895935 0.24924543 -0.0024509497 -0.124420814 -0.06097472 -0.008197669 0.038123228 0.0050922935 -0.10813866 -0.022089293 -0.04304782 0.005777578 -0.020268945 -0.05103093
표현 -0.029893652 -0.0047131567 -0.071033224 0.06692462 -0.046067517 0.074359514 0.038673785 -0.12033006 0.013014973 -0.15086511 0.014184248 -0.033804793 0.06701337 -0.015473025 0.119077645 0.05420367
모습 0.059000384 0.04548258 -0.04458065 -0.020190274 -0.014946624 0.054209996 0.030211508 -0.00022683703 0.012726193 -0.039103273 -0.013252524 -0.027158586 0.04539182 -0.10181904 0.042328358 0.14993536
공감 -0.11906322 -0.07170783 -0.023863012 -0.050325032 0.03138278 -0.15138069 0.044695757 -0.033626035 -0.012054502 -0.010511818 0.030350817 -0.14121789 0.046135105 -0.020133272 0.00883285 0.008381269
계속 -5.897157e-05 -0.0365932 -0.081534185 -0.0049103126 -0.0010693525 0.022995763 0.054484215 0.10228178 0.13017744 -0.10559233 0.043741696 -0.046340402 0.07146662 -0.0299019 -0.009787257 0.0032924884
먹 0.116398945 -0.028068585 -0.006255942 0.10388238 0.04347554 -0.04548904 -0.079827815 -0.002113109 -0.098396435 0.059509065 -0.071773484 -0.036048032 -0.07467937 0.13018669 -0.0250816 0.050481316
"" -0.17487033 0.0094227325 -0.097384065 -0.0149922455 0.0070067854 -0.1542026 -0.020793699 0.013984385 0.012714246 0.023110822 0.0025322074 0.014052254 -0.03544753 0.046594713 0.072560534 -0.16682132
제목 0.01983406 -0.019579025 0.09045488 0.041756604 -0.011517436 0.13028468 -0.042733423 -0.031938087 0.02316974 -0.058656286 0.11309742 0.054294184 -0.081765555 -0.062855765 -0.0029775535 -0.045645792
7 -0.038185623 -0.012856323 -0.075473785 -0.038822487 -0.040448744 -0.08359875 0.038503174 -0.036300395 0.048075978 -0.03084435 0.09186669 0.021353468 -0.08605261 -0.07679978 0.065021895 0.10072794
이랑 -0.037683774 0.11011269 0.022513077 0.019829005 -0.006482631 0.09234772 -0.003743094 0.016557753 -0.022622092 0.14004989 -0.014155271 0.03670253 -0.094155304 0.04615898 -0.1113126 0.0653139
극장 -0.045115683 -0.099964246 -0.033999525 -0.19308856 0.0011270685 0.05476587 0.007906492 -0.05631161 -0.14196818 0.087514296 -0.081257865 0.05416708 -0.08168492 -0.025828829 -0.021542868 0.08646245
치 0.020925011 -0.0079470165 -0.08458212 0.15608346 0.03333746 0.11657419 -0.00056862994 -0.054519217 0.024592163 0.04105787 -0.07187051 0.047673248 -0.004125884 0.031115921 0.04796629 -0.049001426
비 0.10871716 0.010449484 0.18723294 -0.0045006424 -0.038694825 -0.035234645 -0.04125699 -0.14537105 -0.06300161 -0.032239664 -0.06346362 0.079966 0.016896242 0.04296985 -0.07442048 -0.1185754
이걸 0.008538648 0.19652039 -0.017518913 -0.011583411 0.031512477 0.10907464 -0.017732946 -0.08908323 -0.0923882 -0.026230391 -0.011627042 -0.0006388334 -0.2142382 0.037942007 -0.053298313 -0.0103241
진 0.030526632 -0.09098978 -0.03361029 -0.090025544 -0.013820467 0.01201127 0.06675114 0.098114155 -0.02986848 -0.034011338 -0.008001831 -0.11699852 0.016393306 0.024433391 0.08747521 0.01484517
바 0.074683174 0.05433556 0.30378062 0.044932898 0.07313673 -0.028044721 -0.14676085 0.11729101 -0.055353243 0.17592303 -0.077656835 0.067554615 -0.15885808 0.26293075 -0.14011505 -0.07929616
0 -0.16555859 0.024072062 0.085674256 -0.10809424 0.1718022 0.16836934 -0.29831672 -0.26547682 -0.03847776 0.1767215 -0.033357613 0.060350277 -0.22309788 0.14586626 -0.043809544 -0.022434657
OO 0.031718995 0.12839192 0.10851965 0.017909074 -0.03320875 -0.013197953 -0.034836892 0.020092051 0.048494816 0.04610496 0.030793209 0.097750485 -0.15797177 -0.03281071 -0.03771654 -0.13933097
그렇 0.063286096 -0.005484435 0.07589491 -0.051244143 -0.04933546 -0.09072968 -0.11554328 0.025946759 -0.07970137 0.17493697 -0.07972442 0.11154768 -0.05593047 0.08689364 -0.06682515 0.08540584
대사 0.051352505 -0.06821125 0.02810529 0.0108824195 0.068495385 -0.1212087 0.0058619953 -0.006090202 -0.024322642 0.061294854 0.07544666 0.093677856 -0.053113982 -0.13256599 0.047810726 0.03255526
부분 0.112273924 0.028127253 0.01295513 -0.14700931 0.018979117 0.018184252 0.014697686 -0.12199956 -0.041805364 -0.10818603 0.027261332 -0.020739054 -0.026229324 0.07942224 -0.013067837 0.046405908
개봉 0.061723676 -0.056649763 0.012579294 0.006978169 0.057252515 -0.0759944 0.055884734 0.07401436 -0.02325484 0.099512205 -0.07199613 0.09201031 -0.13261919 0.029195251 -0.06376059 -0.06687404
대단 0.031356778 -0.014145479 -0.11977591 0.052434064 -0.059115462 -0.25596297 0.06355262 -0.15251571 -0.02295498 -0.060059253 0.04657572 -0.04003157 0.048700534 -0.058361717 0.040186033 0.10573339
어디 0.10990867 -0.016278375 0.053552505 0.088540256 0.043288108 0.08634697 0.06418246 -0.16263445 0.050885346 0.07594918 -0.12455098 -0.020207003 -0.079173565 0.08526567 -0.0026129012 -0.0859204
된다 0.035808913 -0.052496437 0.087684415 -0.069400966 -0.12319927 -0.020485744 0.041294817 0.028755093 0.12986436 -0.0054090153 -0.06387838 -0.05200099 0.11358518 -0.110408224 0.13918898 -0.07144934
작가 0.14935538 0.14338446 0.0781568 -0.09439928 0.14719926 0.058022853 -0.053715058 -0.017426006 -0.14246851 0.009773694 -0.08670129 0.029318355 -0.07064754 -0.06771275 -0.058792394 -0.09621607
기분 0.03593135 0.07064403 -0.1286169 -0.04712018 -0.06263657 0.022056159 0.028751139 0.18300138 -0.071834676 0.011214733 0.006916358 0.048338603 -0.029925538 -0.009608697 -0.091600776 0.031660903
아쉽 -0.09254503 -0.16933455 0.08934995 0.15657617 -0.05405631 -0.15082638 0.004047561 -0.121744454 0.062894166 -0.07437522 -0.042932328 -0.038086977 -0.024262395 -0.057158686 -0.119319245 0.06889022
제 0.16300014 -0.006381467 0.024649031 0.076100424 0.013150941 0.1354689 0.054599952 -0.11641377 -0.06283225 0.032448947 -0.030045386 0.051160347 -0.100623086 0.0005668171 -0.10559957 -0.0074228104
진심 0.022668783 -0.041693255 0.038227055 -0.017383954 -0.12617949 0.05654378 0.025854383 0.061986055 -0.031440992 0.10164931 -0.07770559 -0.011040409 -0.0045364345 -0.0068827863 -0.0066371276 0.17360418
타임 0.036626704 0.069834754 -0.099349394 0.065863505 -0.07028958 0.03411855 -0.068470836 -0.03842452 0.13242424 -0.082780436 0.028589936 0.00030021998 -0.0913566 -0.10582212 0.09926529 0.029636722
/ 0.0413932 -0.065414675 -0.042033356 0.015316835 0.023926692 -0.024238467 0.059261464 0.11116632 -0.11534001 0.045847308 0.08593384 -0.0052884817 0.022455378 0.16884412 -0.07756188 -0.061579637
놓 0.024374817 -0.053705852 0.065333 0.042975765 -0.02550636 0.008772353 -0.063202254 0.021464944 -0.049921382 0.057677813 -0.07582095 0.100486115 0.116942085 0.11536667 0.05120912 -0.15531796
웃기 0.2460773 0.11817301 -0.06023566 -0.03992193 -0.10682054 -0.02442393 0.028407495 -0.10666694 -0.07594982 0.025082136 0.069958255 -0.0125438245 0.08510058 -0.107990086 0.02042837 0.04254106
보이 -0.024796717 -0.028873565 -0.052776825 -0.09058623 0.14330094 -0.042738907 -0.0007606732 -0.03552928 -0.0699747 -0.034411214 0.009547057 -0.08845139 -0.03617669 0.044518746 0.052255798 0.005672644
해도 -0.08129927 0.13127275 0.07991247 -0.09230065 0.06560779 -0.017084593 -0.024462612 -0.064548805 0.020085761 0.055684343 0.029301114 0.06421588 -0.19288677 -0.035331886 0.047342982 0.12428873
이제 -0.027073188 -0.083333105 0.07097097 0.09865992 -0.094159104 -0.01658614 -0.07324585 -0.006895352 -0.04930401 0.01159256 0.061990365 0.068629295 -0.06949793 0.16499476 -0.11655113 -0.10034327
물 0.019335926 0.09701542 0.00058890966 0.00062139437 0.006628957 -0.11783218 0.010167166 -0.05357699 -0.076926924 0.012792813 -0.07604237 0.042474907 -0.10183064 -0.006034838 -0.08754172 0.103462406
봐야 -0.030834878 -0.030909846 -0.06657033 0.113912754 -0.023362705 -0.03469985 -0.003021324 -0.11571879 0.03166615 -0.10173431 -0.12798168 -0.03954007 -0.019833049 0.023794739 0.03051073 -0.029026728
막장 0.011435484 0.15037051 0.16852957 0.090895526 -0.065115385 0.08017627 -0.16374393 0.0012888327 -0.04076996 0.059489395 -0.011567921 0.19809474 0.0047793174 0.16223651 -0.14710383 -0.045776196
삶 0.021611098 -0.10221947 0.15193364 0.0705606 -0.14742869 -0.26293716 0.07523579 0.016152354 0.045083832 -0.025189966 0.04550165 -0.18521523 -0.025295839 -0.11884573 0.046431046 0.096820205
친구 -0.11847666 -0.14959185 0.025240587 0.03725855 -0.019337514 -0.07981073 -0.17075227 0.008148069 -0.05868857 -0.026868928 0.13574164 -0.0020777117 0.0768844 0.12780116 0.06131778 -0.051435675
잔잔 -0.013321039 -0.064909525 0.051202416 0.010717946 -0.06654713 0.105581224 0.13213049 0.011946742 0.044194873 -0.055707056 -0.056528743 -0.10827011 -0.0014683971 -0.03959852 0.13256122 -0.113443404
씬 -0.09333032 0.1364814 -0.042028386 0.08674746 -0.04250089 0.0060172994 -0.055854894 -0.11276751 0.10757865 0.018066501 -0.028125064 0.06981606 -0.046656467 0.031603936 0.09748485 0.117704175
조금 -0.052332792 -0.068394355 -0.054502416 -0.05020033 -0.069440946 0.05558647 -0.044293474 -0.18119672 -0.018963594 -0.1168437 -0.06573115 0.005959353 -0.022142148 0.03273338 0.02404215 -0.118284546
딱 0.15112166 0.14461677 -0.069477655 0.031496637 0.14322972 -0.04108554 -0.18280433 0.10528896 0.067051515 0.010095239 0.069250494 0.10604761 -0.07904939 -0.02692734 -0.061793286 0.16961183
억지 0.20156807 0.04994737 0.15139283 0.034101985 0.10317883 0.01119608 -0.13042799 -0.11276882 -0.16583905 0.08550981 -0.12580714 0.18654853 -0.12756231 0.12909551 -0.20979749 -0.1201269
영상 0.11762617 -0.012498152 -0.05415941 -0.06599951 -0.076607704 -0.1859468 -0.04145307 -0.009764646 -0.07051935 -0.062358186 -0.13394754 0.024956137 -0.0019277232 -0.18290988 -0.1175301 0.04674455
찾 0.008214708 0.027652606 -0.19266021 -0.13848709 -0.04473012 0.052501734 -0.054990035 -0.05339605 -0.04166471 0.014274171 -0.08612623 0.056983043 0.015092198 0.107602336 -0.0038479457 -0.010933722
요즘 0.0106403055 0.003628799 -0.12974758 0.014209419 -0.042190816 -0.11165329 -0.015587069 0.05931773 0.15980117 -0.09165598 -0.048868045 0.1147918 0.10872837 -0.055016205 0.051334456 0.16467242
같이 -0.07305927 0.17120142 -0.098510005 -0.0791859 -0.09300979 -0.08560689 -0.08167562 -0.029029546 -0.02222252 -0.08560488 0.008386589 -0.045883022 -0.03083202 0.04855884 0.058470808 -0.012083585
" 0.003906255 0.083486766 -0.0008663052 -0.1325785 -0.016996423 -0.092374414 -0.07753819 -0.07740811 0.0068497476 0.12352661 0.06356914 0.09158487 0.004606424 0.0217116 -0.07990891 0.07682877
중간 0.014393333 -0.09808653 0.032536216 -0.1021774 0.048647583 0.049396396 -0.07142892 -0.0044889585 0.0254609 -0.014384217 0.032527108 0.13226667 -0.10247797 -0.0024295088 -0.0683924 -0.094687805
구 -0.0051434836 -0.18428744 0.0035667955 -0.050629415 0.007995477 0.099147655 -0.03229256 -0.027360866 -0.036546096 -0.08966577 0.04297343 0.09386714 -0.033253856 0.038800284 0.01654964 0.029999053
스릴러 0.06872891 -0.047239922 0.084301606 -0.028663503 -0.054773208 -0.064045295 -0.042596377 0.05211545 0.003047615 -0.04151121 0.09253137 0.08706212 0.010266244 -0.008627318 -0.0293249 0.12600772
라도 -0.014690298 0.046723325 -0.06415415 -0.09253579 0.021122288 0.18252935 -0.02776204 -0.007010889 -0.022742547 -0.023073418 -0.048924997 0.024616303 -0.008967679 0.08061368 -0.015559981 -0.18017547
.... -0.025182782 0.1826792 0.073957875 0.061413687 0.019280482 0.0010129638 -0.067359395 0.09083596 0.036478374 0.11561642 0.0035139325 -0.0011479291 -0.17466523 0.011188603 -0.03689577 0.066248514
가지 -0.009517638 -0.01664305 -0.01939215 -0.031129532 -0.051563762 0.11194235 0.09584976 -0.039298166 -0.093191534 0.053376675 0.15739068 -0.13695873 -0.056942876 0.06270303 -0.031653218 0.067637324
8 -0.039371826 -0.08283697 -0.046861447 0.030998474 -0.112733155 0.040242232 0.10670759 -0.11956993 0.043530498 -0.12195166 0.022043737 -0.065495715 0.06277605 0.0525806 0.098462984 0.09965316
믿 0.15064165 -0.043852814 0.121452406 -0.053851135 -0.060398683 0.0031654953 0.04992989 -0.122041136 0.05248749 -0.0019044376 -0.02702355 -0.056551907 -0.052824236 0.00036477478 0.09100615 0.14397135
싫 -0.067857146 -0.28690442 -0.019846873 0.104083404 0.029268267 0.04705942 -0.0006625741 0.13222185 -0.11213208 0.13136394 -0.08473123 0.0037208905 -0.05433905 -0.029209403 -0.07603006 0.006590581
아까운 -0.021028401 0.055328544 0.0069571296 -0.029523866 0.106537 0.0059177508 -0.09336687 0.14531091 0.026639214 0.08281016 -0.15383527 -0.029293364 -0.14390802 -0.0038241274 -0.08473767 -0.001169514
나왔 0.122499324 0.05685815 0.10461223 -0.023757061 0.039118726 -0.100090384 -0.061335817 0.040035073 0.021261375 0.09281092 0.05317112 -0.043424957 -0.09703618 -0.12067953 0.06403295 0.24223128
점수 -5.195233e-05 0.11838086 0.033079952 0.102074124 0.010079698 0.1461187 0.038524203 -0.041662518 -0.07645537 0.00067063514 -0.12024266 0.042485263 -0.15938881 -0.02202689 -0.042609412 0.051712528
긴장감 -0.196136 -0.08635535 0.10032977 -0.25817972 -0.09304681 -0.10664117 -0.028473824 0.17073277 0.07513725 -0.045859113 0.044632904 -0.23890354 0.01904191 -0.15026632 0.09607669 0.10928786
부족 -0.013047557 -0.045440488 0.04286915 -0.04672256 0.0996166 0.027920049 0.010373768 0.076786056 -0.14286157 0.11948954 -0.042088777 0.060870726 -0.024507893 0.12591635 -0.090880774 -0.079320304
개인 -0.10831547 0.040723756 0.0903284 -0.03159281 -0.09627728 -0.012556467 -0.006891613 -0.022179246 -0.06378706 -0.039425626 0.00992263 -0.002290595 0.01954669 0.054011706 -0.065221354 0.06909458
제대로 0.10541299 0.007931822 0.069534026 -0.13082373 -0.06320152 -0.032397896 -0.036532596 -0.01269827 -0.041912735 0.08497288 0.049329076 -0.045503736 0.11096509 -0.044162083 0.06248453 0.02121628
노래 0.077317916 -0.027571127 -0.055665206 -0.025474364 0.024961364 -0.12566397 0.09033541 -0.028068654 0.02510744 -0.046152126 0.020109713 0.10583164 -0.083549194 -0.006712658 -0.0290486 -0.06605489
이유 0.0064235525 0.015468278 0.1640735 -0.20502803 -0.0060091377 0.061043374 -0.0017579091 -0.1134249 0.0888574 0.049123354 -0.07390803 0.049820416 -0.06199666 0.03153618 0.025083994 0.033665605
만큼 -0.019498516 0.09128407 -0.108191244 0.15242156 0.02074561 0.0855913 0.04533796 -0.09735734 0.039346986 -0.0755815 -0.07816317 -0.20336522 -0.04710807 0.090903506 -0.067054 0.097230226
라면 0.079462826 0.005606819 -0.0014332248 -0.033123076 -0.059511393 0.05638444 0.04372617 0.037356593 0.08413087 -0.030128466 -0.0052115596 0.013956238 -0.018624436 -0.04214221 -0.040029455 -0.024046885
시작 0.12839071 0.0076677613 -0.009584652 -0.08724463 0.12326131 -0.147334 0.024075843 -0.021858174 0.054873765 -0.010649919 -0.0042896946 0.058670532 -0.15417805 -0.15434581 -0.03549024 0.09205091
구나 -0.04560959 -0.038323704 0.01360147 0.0063889497 0.1279325 -0.034306217 -0.09634156 0.09485804 -0.037389398 0.025035832 -0.02861655 0.0583115 -0.027074479 -0.032165322 0.01800184 0.0061861575
잇 0.07724175 -0.057678778 -0.04097578 -0.015305704 -0.00883634 -0.053747945 -0.023612445 0.012282669 -0.05739273 -0.11487112 0.036661416 0.06706809 0.0068766163 -0.0064955815 0.060066853 -0.07656056
특히 0.02986004 -0.08959222 -0.08455554 0.21912122 -0.16595171 -0.104934916 0.0877631 0.037745282 0.0019334434 -0.07390513 0.099477515 0.019408328 0.07735588 -0.08305719 0.100928985 -0.0288616
한테 0.016412698 0.09360963 -0.005038293 -0.0776899 0.03165768 0.017300945 -0.08392451 0.11388483 0.0008006962 0.035866395 -0.01963503 0.003803744 -0.15211017 -0.033504598 0.054145124 0.022720223
날 0.021026716 -0.053699244 -0.122535594 0.06562348 -0.048042808 0.020538604 -0.059179846 -0.06499629 0.003946456 -0.049784195 -0.13169894 0.098326586 0.043769825 -0.034120925 0.05402589 -0.027130893
아름다운 -0.12538093 -0.011778279 -0.13029441 -0.12577097 -0.066407695 0.08435739 0.0058632917 0.028847806 0.05351236 -0.10043699 0.1703028 -0.024547344 0.20042887 -0.11705926 0.08109822 0.14849578
려고 0.12088405 0.10514873 0.045764606 0.023155257 -0.010625164 0.17106216 0.054033417 -0.035052028 -0.20692757 0.16106762 0.004158079 0.09464643 -0.103785925 0.09147113 -0.001170696 -0.08079348
제일 0.07136828 -0.0026441994 0.14064436 -0.014567805 0.09255052 0.0070101884 0.04199304 0.14995669 -0.0057616667 0.056003757 0.22064212 0.08496138 -0.054305386 -0.03159581 0.012544705 0.056935485
시대 0.022986047 0.1734949 -0.022678688 0.07714251 -0.009967258 -0.0621743 0.10245161 0.01617453 0.11043083 0.014575654 -0.07336613 -0.084884584 -0.00096241897 0.050245173 -0.06853118 0.032132335
ㅜㅜ 0.07089895 0.008574144 0.12863725 0.024986042 -0.011271259 -0.005790967 0.033836942 0.025461694 0.022030432 -0.047046673 0.08312509 -0.16264705 -0.084567904 -0.0059526525 0.115512356 0.03632459
어떻게 0.003371234 -0.21922566 0.07924516 -0.024559136 -0.017656352 0.16156314 -0.044669926 0.0077209403 -0.10427971 0.09843047 0.07841087 -0.033238675 0.027826944 0.1188394 0.098462984 -0.1317059
엔딩 -0.024461905 -0.048938487 -0.00536687 -0.07910864 -0.06667992 -0.11394895 -0.007546167 -0.09141172 0.034052297 -0.029320283 0.01846356 0.1427264 -0.07361338 0.030927354 0.00792076 -0.17214118
당시 -0.1069333 0.114800975 -0.011199477 0.0022498341 -0.0040302244 -0.027346898 -0.052702747 0.020809174 0.065529466 0.047419388 0.056996472 -0.017644446 0.031852677 -0.061214756 -0.025925938 0.1381664
봐 -0.06145861 0.037942465 0.0024031496 0.008286534 0.00063882675 -0.10096086 -0.09017128 -0.07609633 0.042112753 0.0010888908 0.13156843 -0.055297073 -0.03394312 -0.021930223 -0.047354776 -0.1887523
하지만 -0.04717623 0.051515445 0.073494524 -0.03301387 -0.012655913 -0.01857896 -0.010564014 0.07245897 -0.04032932 -0.024380082 0.035289392 -0.13006346 -0.031067569 -0.118899606 0.00080267614 0.0026883213
나름 -0.012928142 -0.039251953 -0.17785019 0.09245359 -0.07334073 0.08574221 -0.059636217 -0.008394866 0.12538075 0.022418229 -0.0053886254 -0.02702395 0.0035072837 0.024928514 -0.11152497 -0.09767766
무섭 -0.09118418 0.08022855 -0.009166602 0.073673844 -0.01086573 0.072090626 -0.038021628 0.036261197 0.07952468 -0.021769373 0.13731207 0.076526634 -0.034645163 -0.1129048 -0.06171418 -0.05749625
명 0.08116909 0.12715316 0.010113571 -0.09399397 -0.062257893 -0.05358675 0.010995569 0.033907175 -0.06753174 0.111205295 -0.05670221 0.10975733 -0.06382196 0.09695043 0.012418438 -0.02759561
나온 0.06538145 0.08503837 0.10554242 0.016553389 -0.037679598 -0.11582405 -0.07311217 -0.09764177 0.005340556 0.05400437 -0.06858036 0.05284177 0.018475352 0.020243846 0.05870906 0.085832626
해요 -0.03972583 0.02069723 0.04489589 0.08675589 -0.06963035 -0.071005955 -0.018701272 -0.09312319 0.0855999 -0.051568303 0.06839611 -0.070400015 -0.017729783 -0.06811815 -0.094897084 0.02464067
이것 -0.115526 -0.035576034 -0.0102741355 0.043479927 0.0071228705 0.06828071 -0.10271224 -0.13560857 -0.053539444 0.065766364 -0.013472252 -0.06915976 -0.10957436 0.001237967 -0.07662055 0.112064615
사 -0.15598884 0.04123621 -0.11372714 0.0055593285 -0.051829275 -0.16839592 0.050143674 0.027395584 0.026874913 -0.13502452 0.08471594 -0.07004683 0.037473705 -0.10007705 0.041971188 0.034325913
오랜만 0.07141495 -0.107609935 0.0910783 0.12088616 -0.11014524 -0.02742237 0.17949963 -0.04273601 0.097227685 -0.0953644 0.061404314 -0.08226962 0.0880559 -0.091378644 0.07485706 0.068602756
9 0.1691216 -0.11969376 -0.027400233 -0.20729534 -0.019379942 -0.05409035 -0.026273675 -0.14080171 0.03728761 -0.18681772 0.16363929 -0.10803397 -0.043625828 -0.11015995 -0.011947646 0.32874852
니까 -0.076258436 -0.07255215 -0.048653264 0.0056343586 -0.0024404444 -0.1165934 -0.023734026 0.074965455 0.0058675124 -0.13168816 0.08949252 -0.034646533 0.052137658 -0.07355463 -0.018081283 -0.019460771
팬 -0.016195694 0.016657889 0.037739128 -0.09947224 0.018860271 -0.034071 -0.06347895 0.070315465 0.040766068 -0.033224043 0.100559264 -0.023102874 0.06086681 -0.022096781 0.015755448 0.030056037
차라리 0.31916392 -0.1379588 -0.13860531 -0.085892536 0.13490817 0.12983602 -0.16427402 -0.031181866 -0.16252466 0.30853945 -0.103462525 0.07475839 -0.16943213 0.09675901 -0.12376109 -0.12960337
절대 0.03561687 0.033599123 -0.052174952 -0.067926906 -0.02685051 0.033213407 -0.002594891 -0.065458894 0.025287868 -0.13198747 -0.026995678 -0.031887833 0.027206527 0.15002128 -0.21141 -0.014695454
세상 0.053233925 -0.03484608 0.0848966 0.03111755 0.03133596 0.09915403 -0.029433645 -0.1580342 0.0954706 0.041543014 -0.10047643 0.03511999 0.14284547 -0.015909066 0.019502351 0.04092764
세 -0.14602205 0.072404966 -0.0363948 -0.031730384 -0.039871566 -0.011412047 0.022412892 -0.056245886 0.02457965 0.07646373 0.09274544 -0.0020330101 -0.026724644 0.038414788 0.027800772 -0.001943937
던데 0.037342925 0.013693624 -0.044283636 0.16647339 0.07431539 -0.03250475 -0.02656366 -0.17189227 0.13000426 -0.0370432 0.12423653 0.016306948 0.14943044 -0.15658319 -0.07189769 -0.0070253704
의미 -0.07631481 0.0034873567 0.066917226 0.07629344 0.0594294 0.20128863 -0.036592796 0.00842597 -0.037612163 0.09379808 -0.034622725 -0.11260971 0.06215616 0.085662134 -0.020290036 0.051525015
못하 -0.073249616 -0.13138874 0.06634957 -0.15054381 0.019950824 -0.05427435 0.05876744 -0.04546351 0.004743811 0.011821294 -0.15927565 0.0022216428 -0.06805377 0.10939358 -0.10795674 -0.038212642
따뜻 0.05080102 -0.062218875 0.012023985 0.038702644 -0.1706374 0.11005789 0.11086636 -0.04162827 -0.052848097 -0.12281068 0.09301815 -0.18608522 0.015742514 -0.025701543 0.16842887 0.18029043
봄 0.026533246 -0.11017147 -0.021602623 -0.0653139 -0.027768003 -0.07736308 -0.034612454 0.00031311339 0.040327217 0.01943152 0.04492364 0.0398218 0.14261962 -0.038765673 -0.004835651 0.08509625
욕 -0.096768856 0.055502992 0.0042416146 -0.05858119 0.07183073 0.16833164 -0.04089611 0.044803232 0.084657125 -0.022615336 -0.022129763 0.17859545 -0.11844417 0.030073654 -0.09859742 -0.11128838
강추 0.07582396 -0.07129135 -0.07046817 -0.11015567 -0.16264978 -0.1462752 0.10556398 0.13269448 0.06528507 -0.18311815 0.10633343 -0.1338908 0.072055444 -0.08251057 -0.028293127 0.1629958
훌륭 -0.123961635 -0.09693346 -0.20197581 0.20988956 -0.085206255 -0.008208746 0.037305262 -0.18012299 -0.070931 -0.15359837 0.038766753 -0.07971138 0.13509057 -0.10729575 0.09132966 0.07419094
너무나 -0.059048913 -0.06615465 0.09445023 -0.057950232 0.0020060348 0.13420437 0.004870917 0.1905112 -0.036190547 0.07268373 -0.005500662 0.06826472 0.0603844 -0.0939564 0.026498277 0.18275437
ㅡ 0.04887872 0.069249876 0.10905669 -0.08845462 0.037530404 -0.06996435 0.049294848 0.083673224 0.018440451 0.1326098 0.017339958 -0.005073385 -0.09762008 0.034418937 0.043618012 -0.0033044927
감 -0.016591562 0.033515263 0.047993273 -0.030446135 -0.06104778 -0.06789569 0.09004982 0.14087206 -0.015461209 0.057729553 0.018093612 0.024751235 0.014440383 -0.018188035 -0.06333076 -0.0028906215
됨 -0.072168976 -0.1439863 0.1546257 0.03386026 0.04469063 -0.061419513 0.03391594 0.040200997 0.04540529 0.017292881 -0.066355556 -0.16534345 -0.005064702 -0.062420763 0.011339307 0.017629374
느끼 -0.039371032 0.011939878 0.012043233 0.1515515 -0.21217948 -0.04620622 -0.038694613 -0.14618438 -0.14928894 -0.058999576 -0.027633362 0.03078631 -0.030198788 0.09992672 0.11181061 0.033614255
해야 -0.028941715 -0.0308708 0.031112928 -0.072055995 -0.07828888 -0.016930562 -0.06869558 0.11189373 0.12534298 0.11125935 0.13514389 -0.0061318693 -0.091295764 0.07946355 0.0062021576 -0.05544183
빼 -0.0026412117 0.12784268 0.045975275 0.010713789 0.021959683 0.10055932 -0.08262776 -0.103060566 0.0053692623 0.016941128 -0.01504408 0.11423816 -0.03923738 0.08901808 -0.07549629 -0.17079559
드 -0.035677385 0.06452002 -0.16665798 0.00702183 0.049738877 0.12564628 -0.14670046 -0.10810209 -0.067459695 -0.06359181 0.08428508 0.1281114 -0.004411656 0.011242337 0.015276816 -0.08121624
도대체 -0.10627636 0.094874606 0.11652056 0.19618818 0.029343003 0.14980157 -0.13198586 0.046007138 0.040034976 -0.043463405 -0.013989223 -0.0051261266 -0.1450905 0.15965609 -0.021664739 -0.029531954
어야 0.04484397 0.29332423 -0.21871422 0.038887978 0.060294937 -0.12696834 -0.08946503 -0.14950049 -0.10233095 -0.040655572 -0.056401115 0.057499856 -0.041374918 0.01877835 -0.042458974 -0.050981563
답답 0.094751425 0.014838513 0.060061663 0.07655091 0.17466609 0.015836073 -0.053296383 -0.06046686 -0.09086085 -0.060731232 -0.017462822 -0.04950119 -0.048453707 0.061749276 -0.13349672 -0.07588457
마다 -0.05240491 -0.03254414 -0.051986065 -0.073793486 0.07592221 -0.14711252 0.096273474 -0.017119605 -0.17947726 -0.09476783 -0.0013079781 0.0073667844 0.1828206 -0.05428176 0.09583467 0.08735088
준다 -0.029185388 -0.011880039 -0.024136402 -0.026316453 -0.005244961 0.12976588 -0.07665467 -0.32513103 0.07443091 -0.010471982 0.07234093 -0.09993654 -0.004408377 -0.0038569244 -0.105508015 -0.11850451
놈 0.059180528 -0.16039665 -0.10511273 0.028688744 0.058743488 0.014383307 -0.08259397 -0.09138603 0.013956133 0.023683794 -0.0320937 -0.07541925 -0.06624334 -0.014209453 -0.05326638 -0.09804196
글 0.117861666 0.115552604 0.039361596 0.01801921 -0.025602097 0.016868923 0.0024370153 0.03456388 -0.054197557 -0.013061054 0.010272926 0.09340858 0.118502125 0.1894017 -0.08705699 -0.038515903
전쟁 -0.12496533 0.054640133 -0.08112954 0.022900641 -0.038342364 0.17411235 -0.037411954 0.03198108 -0.10356981 -0.0669542 0.026589127 0.03075269 0.090410806 -0.04589749 -0.0071148644 -0.07291627
수작 0.0057413517 -0.29834905 -0.18486366 0.10416431 -0.09579255 -0.09052628 0.15029879 -0.063393146 0.15815574 -0.1902321 0.14112885 -0.14923678 0.16953985 -0.3116225 0.060604334 0.048410553
설정 0.1255691 0.17132992 0.034338504 -0.05489933 0.082023926 0.023941565 -0.11924862 -0.036042195 -0.11669777 0.101403356 -0.041351322 0.063868985 -0.06499273 0.10700335 -0.07296713 -0.10739079
무엇 0.07141434 -0.07502024 0.07782241 0.082329914 -0.038316697 0.047537573 -0.015908577 -0.14257607 0.011099095 -0.1289715 0.076432936 -0.13541648 0.06046443 0.043847356 -0.006084892 0.008161251
흥미 -0.08058347 0.21366303 0.10832153 -0.15169343 -0.01730475 -0.07512684 0.06426867 -0.05373381 -0.060255256 0.01232621 0.018568737 -0.10295371 -0.04895026 -0.1283623 0.08344689 0.12524517
그저 -0.008597366 0.2255333 -0.0087003885 0.11755559 0.041557092 0.15610972 -0.014500961 0.020641461 0.12141404 0.08065234 -0.15081698 0.10152937 -0.019085037 0.13356791 0.042721093 -0.044049125
만화 0.06583063 0.032420352 -0.08940351 -0.12594952 0.07537886 -0.12521708 -0.12608708 -0.012133529 0.059742015 -0.035460528 -0.03689125 0.063152686 -0.04305022 0.049753647 -0.13547367 -0.118426315
감정 -0.07269022 0.027872186 -0.079638176 0.02400044 0.025527066 -0.011443531 0.1203463 0.057964705 0.060667023 -0.069641985 0.03632523 -0.1734159 0.033509314 -0.086207725 0.077465944 0.018266529
미국 -0.017603306 0.0028343746 0.041674208 -0.023909558 -0.042861473 0.0040425444 0.015831094 -0.1919573 -0.01664035 -0.029290274 0.0014046362 -0.009827143 -0.029420294 0.012660322 0.06668347 -0.10374418
행복 -0.18222588 -0.04167828 0.08516137 -0.013572303 -0.066882454 -0.09412451 0.100696445 -0.12360611 0.057117693 -0.093906015 0.15165201 -0.017650796 0.10437205 -0.1350284 0.1150715 0.025747318
신선 0.028019533 -0.05849524 -0.14321545 -0.052528832 -0.07794954 -0.0961218 0.1509141 -0.24470119 0.030911513 -0.084664814 -0.017290374 -0.13659564 0.010402777 -0.08029314 0.06102814 0.013841096
뻔 -0.05858548 0.0106132785 -0.0894555 0.09763025 0.01384016 0.071367174 0.02421847 0.09465614 0.06909231 0.05914062 -0.049290203 0.10818771 -0.15738699 0.07518316 0.04091788 -0.030711507
군 0.0048408443 -0.064070955 -0.045521207 -0.10526907 0.054834913 -0.11737219 0.06335094 0.12493182 0.046103638 0.020854227 -0.034501024 0.014855066 0.016200408 0.038881175 -0.07884901 -0.16864246
허접 0.105431154 0.0960555 -0.034549415 0.10124268 0.27000228 0.09000809 -0.25557467 0.020684808 -0.12153806 0.12356602 -0.16515067 -0.017957265 -0.119131 0.0727771 -0.111753136 -0.13186902
형 0.12218456 0.009196884 0.054664467 0.0034326373 -0.012903836 0.014136809 0.10108 0.03539314 0.008201356 -0.004305382 0.12851256 -0.057315536 0.030910894 -0.1254893 0.02750989 0.038895655
앞 0.010812444 0.21111558 0.018394103 0.025785375 -0.11752234 -0.35443908 0.04223876 -0.09474463 -0.035331786 -0.021347554 0.15425785 -0.06694606 0.13761543 -0.044385377 0.03391269 -0.03544455
어도 -0.009728209 0.05448711 -0.060725257 -0.030989805 -0.052470636 0.056798838 0.07988394 -0.07564263 -0.03507106 0.018870404 0.074574694 -0.04249167 0.010697291 0.0565862 -0.0032530855 0.07824573
관객 0.17665587 0.09616241 0.1735394 0.14235887 0.08989712 0.061787352 -0.07965789 0.08929304 -0.012742977 0.017801926 -0.013052194 0.034958687 -0.1986726 0.058536537 -0.033241834 -0.074398056
배경 -0.014401151 -0.06577032 0.054859895 0.003138762 0.029717226 0.06817004 0.13383166 0.044748057 -0.05706081 -0.08250429 0.012950446 -0.012790663 -0.00946586 -0.050713193 0.012135007 0.005373361
시절 0.0025946803 -0.08917738 0.047456592 -0.07283305 -0.13827291 0.029303813 -0.035919778 -0.031480353 0.06447583 -0.007022982 0.008362365 -0.08186145 -0.056478724 -0.08295656 0.037785817 0.097847514
6 -0.09482494 -0.08334281 -0.07403582 0.18011849 -0.00496156 -0.050499856 -0.066124015 0.11853623 -0.025413582 -0.045216434 0.052485418 0.016618641 -0.073793724 0.016323747 0.0602985 -0.027599366
초반 -0.04107497 -0.06737915 -0.09690056 -0.005741387 0.002631446 -0.045391988 -0.008867154 -0.17690064 0.0205665 0.06628803 -0.13682193 0.031143755 -0.12976961 -0.044782538 -0.00011021405 -0.09011314
사실 -0.0005059153 -0.0743881 -0.09998208 -0.15569597 -0.093220055 -0.093828775 0.08332786 -0.05770709 0.09938919 -0.07186485 0.13737932 -0.10683531 0.0035430281 0.043884814 0.10234553 0.05632416
웃음 -0.01301213 0.047833696 0.13191064 -0.081875734 -0.04238002 -0.066955745 0.07437169 0.001980151 0.09028568 0.031012608 0.10257313 -0.081008896 0.11430441 -0.038676586 -0.027045993 -0.024327017
OOO 0.17846207 0.03287621 0.053497247 -0.022060758 0.09225727 -0.05926147 -0.09846549 0.16966103 0.010429223 0.08698885 -0.06322688 0.14586434 -0.080756396 0.20021698 -0.06306689 -0.13961609
엄청 -0.0031795239 0.18208987 0.05209168 0.09465973 -0.120587945 0.1330262 -0.056028012 0.17982805 -0.08256423 -0.020613205 -0.025164852 -0.013889476 0.07957126 -0.032421745 0.058042094 -0.015088765
답 -0.11750956 -0.08478098 -0.06777625 -0.1434824 0.18608823 0.14824046 0.004165419 -0.108720936 0.06809133 -0.02189582 -0.017726913 -0.00696911 -0.03972864 -0.008117545 -0.01753125 -0.007921885
더라 0.07129854 0.015150705 -0.1235407 0.06404003 -0.0042107315 0.027792137 0.04937196 0.19738972 0.07431665 0.04623701 -0.041866347 -0.09191181 0.059586044 -0.0016647317 -0.08989777 0.025483325
추억 0.06283529 -0.091048464 0.0058167865 -0.036549415 -0.046089977 -0.047112897 0.13490704 -0.08739733 0.07618922 -0.12893349 0.12833676 -0.045021974 0.100187026 0.0094143925 0.07152546 0.2240084
라니 -0.21099427 -0.030585364 0.014268189 0.11453329 -0.060353104 -0.06058125 0.03322485 0.15270562 0.010717263 0.036016177 -0.007982582 0.04585656 0.035547767 0.028275305 0.011148259 -0.13051471
질 -0.01575463 0.060617965 -0.0955615 -0.08257669 0.058321495 0.07921661 0.041799042 -0.041160766 -0.019905468 0.053390257 0.015486051 0.06047516 -0.11126533 0.00950217 -0.08000159 -0.14663501
자신 0.034838133 -0.051060863 -0.13444546 -0.05253825 -0.03642985 -0.045969788 0.09905551 -0.06857077 -0.11682346 -0.0068563037 0.1128329 0.018673904 0.094873525 0.01026759 -0.0059162257 -0.10058183
캐스팅 -0.028045567 0.20713793 -0.011827847 -0.006427644 0.11284433 -0.09106463 -0.08752849 0.0064436835 -0.12164591 0.051645186 -0.012873292 0.026693422 0.007718008 -0.028960446 -0.047451697 -0.06970718
류 0.09313387 0.14232786 0.009469021 0.16321082 0.01317028 -0.108622804 -0.07415446 0.09869614 -0.0702843 -0.0052318675 0.04853662 0.07308829 0.05057881 0.065615945 -0.10537239 0.041544765
첨 -0.11588264 -0.03893396 0.20524405 -0.09209714 -0.03223966 0.119633414 -0.0039007561 -0.09790438 0.019128185 0.00657524 0.024630971 0.037989594 -0.13371107 0.036006127 0.017848793 -0.01046204
멋있 -0.041688733 -0.15103772 0.018246928 -0.026545282 -0.19590846 -0.085370935 0.045633644 0.059744027 0.052752674 -0.03454282 0.057655636 -0.018457584 0.16158037 -0.10287237 0.1409456 0.121421255
어색 0.102411956 0.011285995 0.12928665 0.07039989 0.12184426 0.03654303 -0.03341061 0.09925614 -0.19503754 0.20601647 -0.023229286 0.010196667 -0.0042081224 0.11884211 -0.17756829 0.014425943
시나리오 0.010263627 0.029479928 0.118757844 0.09492387 0.019848127 0.014359707 -0.14119473 0.15302444 -0.12560548 0.028137254 -0.1475951 0.013694993 -0.029215261 -0.11203749 -0.15891849 0.058133785
슬프 -0.14773734 -0.11568602 -0.1129825 -0.09122947 -0.040990837 0.023805939 0.107089125 -0.038201857 0.08479671 -0.010363763 -0.09728437 -0.07516235 0.064335875 -0.03705321 0.07521562 -0.024470873
머 0.062070623 0.055174246 0.06787955 0.087119885 0.047207955 -0.0874072 -0.1266071 0.0052586207 -0.03532334 0.050581794 -0.064057946 -0.00010635342 0.015963875 -0.0006963494 -0.116359 -0.14141463
소름 0.12829927 -0.14082539 -0.15486962 0.16092345 -0.09809624 -0.2073667 0.12979203 -0.12905549 0.10438051 -0.092254855 0.116687045 -0.098302454 0.054540507 -0.0042624352 0.03224334 0.00653294
밖에 0.035102956 -0.088752426 0.04444731 0.053693008 0.06364321 -0.14305004 0.0017351212 -0.039880894 -0.083439104 0.13427159 0.0069601955 -0.06939076 0.05302503 -0.019842949 0.14263803 -0.05409603
정신 -0.08340841 0.0817991 0.019413363 -0.049233653 0.22747086 -0.035951223 -0.013971578 -0.038669314 -0.0063763326 0.113353975 0.015664732 0.023541953 -0.07664693 -0.06324856 -0.10150338 -0.04283542
분위기 0.070299804 -0.10595716 -0.07564747 -0.04580212 0.04197564 -0.07311705 0.085599154 -0.06983425 0.026534708 0.08719859 0.0340333 -0.01755483 0.037843067 -0.06513373 0.02667317 -0.0035331103
멋진 -0.017284926 -0.06546189 -0.10903589 0.14190356 -0.045288224 -0.11720688 -0.034352753 -0.002712167 -0.0921459 -0.17788653 0.016034082 -0.14057095 0.07820485 -0.0744447 0.13099676 0.00434271
힘들 0.21555036 -0.015752949 -0.1674479 -0.045796715 0.041904848 0.09007423 0.024614409 0.008681724 0.01896119 0.039033238 -0.065965675 0.14241709 -0.28851634 0.03933509 -0.029605983 -0.12518643
오늘 0.14885983 -0.10131396 0.06342815 0.025710963 -0.06910936 -0.040886752 0.02765901 0.005284328 -0.06634777 -0.02631697 0.06797349 0.033852242 0.028045073 0.027600182 0.01777006 0.13463934
졸작 0.14401281 0.30721775 0.041818924 0.04331641 0.11415206 0.08610866 -0.1200541 0.024702232 -0.099042185 0.03822082 -0.1955487 0.27123484 -0.21889365 0.1562221 -0.12998815 -0.17853628
어이없 0.008155709 0.24183205 -0.036382344 0.14897346 0.03519672 -0.014051073 -0.15512909 0.030141339 -0.08651878 0.1468503 -0.14956094 0.089588486 -0.20963205 0.03615518 -0.12243527 -0.04765589
잡 -0.06445425 0.025578 0.11915071 0.033336606 -0.04036991 -0.081109494 0.01612557 0.06904081 -0.0917424 0.0048761787 0.0498828 -0.007174838 -0.04637061 0.099333994 -0.048409414 -0.020081736
봐서 -0.05592136 0.009319779 0.07762654 0.0030503303 0.07834153 0.09001977 0.028605714 -0.008095436 -0.0090363175 0.03791526 0.018857524 -0.027014973 0.0139411315 0.043807305 -0.0012836072 -0.106865
킬링 0.11054265 0.016096862 -0.007440698 0.12610476 0.0035042982 -0.012454592 -0.09531307 0.0014748864 -0.015355143 -0.09861172 -0.025119966 0.011304829 0.005837144 -0.06527892 0.028519446 0.10482438
위해 -0.16158228 -0.0019380106 -0.07178747 -0.047330692 0.12782902 0.104256615 0.048357025 0.040114284 -0.16325481 0.18788642 0.08457169 0.023149507 0.09221759 -0.06957663 0.0007908691 0.039370038
문제 -0.003303152 0.14821407 -0.08864668 0.01255232 0.06587691 0.0728228 -0.014048945 0.10406165 -0.08615043 0.036802366 -0.11412616 -0.046779715 -0.1603158 -0.1309547 -0.068371154 -0.016588315
구성 0.052837502 0.07178366 -0.061519105 0.043786373 0.029939316 0.045443825 0.09848797 0.059929464 0.03240826 -0.07031435 -0.060144234 -0.029718922 0.008462051 -0.056455687 -0.0014830773 -0.06272858
엄마 -0.042177986 0.000686239 -0.016769283 -0.15683496 -0.10319139 -0.056911528 0.031575702 -0.11842349 -0.074705824 0.0546112 0.05947019 0.0039330497 -0.0018883955 0.046906214 0.07254727 -0.08187399
함께 0.039370578 0.0040095467 0.06059593 0.11926375 -0.08618778 0.05411539 0.12679526 0.0036914796 -0.02325298 0.0320991 0.091262355 -0.087073974 0.03773129 -0.14763461 0.08425105 0.10546802
이딴 -0.047592167 0.005381643 0.20966363 -0.07489259 0.2557547 0.20188846 -0.13504688 -0.02981598 -0.17982548 0.25057513 -0.12648962 0.042571537 -0.057129893 0.09228502 -0.07715102 -0.093431406
잊 -0.005798689 -0.07231886 -0.009843834 -0.005137125 -0.15193653 -0.0047018896 0.11389291 -0.00967736 0.03670382 0.072251126 0.1441515 -0.109641954 -0.09428146 0.0029206353 -0.038876496 0.1406226
등 -0.13553254 0.042942718 -0.0387485 -0.0647845 -0.028323425 -0.021990782 0.091716796 -0.12822466 0.018805098 0.03566541 0.019091293 -0.036345243 -0.090359814 0.029858673 0.064276904 -0.07343559
집 -0.042968426 0.08731681 0.05709342 -0.20707418 -0.06738406 -0.052048422 0.10093814 -0.015014905 0.056330264 0.0076151956 0.14625129 0.0523833 -0.014779309 -0.08363353 -0.0358606 0.083013274
유쾌 0.11109728 0.038426906 -0.026705837 -0.050172657 -0.0042119734 -0.13771401 0.08065654 -0.029072665 0.08735439 -0.14797463 -0.034966074 -0.17578276 0.104497775 -0.1551733 0.16653559 -0.040019512
뻔한 0.004782299 -0.041756712 0.021163072 0.18656681 0.06390448 -0.094650306 -0.17201774 0.15815683 -0.027831115 -0.00558827 -0.088264816 0.03249661 -0.09220728 0.1030359 -0.23576444 -0.08041702
스러운 0.16927749 -0.020012032 0.00040321556 0.024694117 0.005559484 -0.024983462 -0.022821482 0.050871417 0.1071021 -0.058381397 0.12491741 -0.0494246 0.08330252 -0.047572393 -0.119695015 0.094586335
결국 -0.03493604 0.078639194 -0.051002324 -0.09163404 0.022486651 -0.03800571 0.0025785225 -0.072802514 0.030915458 -0.04455855 -0.008739792 0.079680875 0.03449299 0.050974447 -0.03311108 0.09248002
낫 0.043479297 0.0135057485 0.026094634 -0.14396341 -0.02027447 -0.02583773 0.074349746 -0.06667449 -0.02845575 0.09441208 -0.060713585 0.072221875 -0.00518269 -0.044897623 -0.091232985 -0.007842422
뭘 0.043720126 0.13267264 0.16845754 -0.07035871 0.1518735 -0.08304035 -0.06289311 -0.21813516 0.022286315 0.11286091 -0.0012591778 0.02888203 -0.08640726 0.1935582 -0.12295199 -0.0764394
어떤 0.034098394 -0.03514939 0.18869703 -0.012036274 -0.05835751 0.15951331 0.052840326 0.05968613 0.015324143 0.079804756 -0.054753903 -0.037863113 -0.042564645 -0.061326627 0.054389123 0.13579997
한데 -0.166168 0.19717818 -0.06955316 0.021872973 0.106543355 0.01922079 0.03244096 -0.044600528 -0.0855777 -0.018891877 -0.045288753 -0.03798857 -0.04836904 0.023808483 -0.0202977 0.20451751
나요 0.0021533805 0.0128029995 -0.009686164 0.088770546 0.04245891 0.057236012 0.0325579 -0.04220338 -0.0071777627 0.06160106 0.067291535 -0.11360195 0.036380067 -0.17244886 0.03142084 0.034373224
소리 0.17334422 0.09091128 0.13720451 0.1635791 0.027485985 -0.1651648 -0.0726594 0.0632093 -0.042081837 -0.08179073 0.034589857 0.028493484 -0.0647849 -0.002593917 -9.193548e-05 -0.014767989
간 0.0072053894 0.053038858 -0.044275526 0.23171394 0.07759615 -0.055323508 -0.008648912 0.031783797 0.0017203753 0.06325126 -0.091788955 -0.09687685 -0.04932447 0.08175932 0.05631049 -0.024842022
