9996 16
. -0.07777445 -0.03655831 -0.062178 0.020717958 -0.045465305 0.01624826 -0.0034394905 -0.11250897 -0.0655579 -0.016603215 -0.029157232 -0.040817436 0.044806585 -0.015172364 -0.00044425362 0.022763684
영화 -0.10887628 0.009770154 -0.068694435 0.15151602 -0.049582828 0.08033824 0.0400685 0.04380161 -0.14042014 0.0016102067 0.048113797 -0.0034019125 0.21454592 0.0483597 0.068393625 0.008021631
다 -0.08630243 -0.031263486 -0.13125706 0.006535732 0.0038330352 -0.052652642 -0.012822732 -0.0029082499 -0.115237124 0.05460368 -0.047114074 0.0029951215 0.030316483 -0.00705339 0.0626874 0.04732408
고 -0.02671347 0.042141642 0.0138633195 0.13041803 0.011733665 -0.012768057 0.005777628 -0.06393335 -0.04465678 -0.032870784 0.055782028 0.059967328 0.036773928 0.02132876 0.010546886 -0.011204538
하 -0.059101492 -0.0029153624 -0.0040311 0.03805508 -0.029511632 0.036459625 0.009662889 -0.021535117 0.016099012 0.010502325 -0.052110605 -0.031797774 0.032603856 0.021275327 0.005022333 -0.011020501
을 -0.033846863 -0.0036509945 -0.023325305 0.12980917 -0.015403638 -0.01182191 0.05291417 -0.0059162215 -0.034332562 0.028309623 0.03064655 -0.016857643 -0.03307625 -0.014737828 0.041712243 -0.042653576
보 -0.0038841525 0.049929217 -0.0057855383 0.029027643 0.018604355 0.075992465 -0.0011688019 -0.06583831 -0.07854368 0.03908496 0.012302668 0.017045911 0.027475802 -0.047414728 -0.00020064994 0.03682524
.. -0.014319453 -0.08835011 -0.047789235 0.008382036 -0.01728381 -0.04549867 -0.045264147 -0.112725355 -0.022960527 0.008096223 -0.038769558 0.008551126 0.030395437 -0.051764686 0.016378015 0.033346012
게 -0.0636467 0.034602877 -0.112122975 0.13697714 0.014586829 0.04365929 0.025213776 0.020012682 -0.07488027 -0.003170272 0.08221822 0.108590595 0.09693567 -0.043581676 0.064631864 0.026651965
, -0.022019934 -0.026751433 -0.03666265 0.038326852 0.018306589 0.0497018 -0.036724776 -0.026262935 -0.05162718 0.028309546 0.028212259 0.048000704 0.053612564 0.07898778 0.027791569 -0.004766591
! -0.081047215 0.09293787 -0.049501188 0.0021646656 0.00042772476 0.08383772 0.067396015 -0.01181927 -0.03282066 0.027754748 0.047243703 0.03603627 0.22610825 -0.024799138 -0.065203555 0.010773569
지 -0.0022279287 -0.0504756 0.028076403 0.09206686 -0.04500047 0.12528826 0.008999226 -0.038429074 0.039307866 0.017544793 0.055091154 0.0715975 -0.022190528 -0.07029041 -0.056199647 -0.034843344
있 0.016698485 0.036521666 -0.021357292 0.016094815 0.035491303 0.116163276 0.00066000246 0.060976963 -0.08415996 -0.07627617 0.0347604 0.10846361 -0.05349973 0.018631725 0.042566888 0.04660878
없 -0.010479955 -0.15589602 0.12049818 0.07168354 -0.09059409 -0.08102807 0.06852145 -0.2021451 0.15412274 0.09945737 -0.10594025 -0.1405181 -0.11982573 -0.33131582 -0.074363284 -0.14749564
? -0.02852339 -0.06686323 0.011805162 0.034399956 -0.037572414 -0.0085106315 0.0073905895 -0.04446446 -0.0128898835 0.08102507 -0.06542929 -0.11568029 -0.089900434 -0.109451644 -0.038998228 -0.0432194
좋 -0.10805704 0.034380462 -0.024115115 0.042256117 0.11719279 0.03433603 -0.012372155 0.1104101 -0.15983331 -0.1150427 0.09493803 0.2539434 0.09874173 0.24895132 0.009049829 0.15877333
나 0.033471305 -0.05772314 -0.061477263 -0.034725066 -0.04065846 0.04975085 -0.01733304 -0.082844816 0.011340809 -0.025574742 -0.02231039 0.0046366984 -0.12840506 -0.10481701 -0.008907367 0.010812401
었 0.019108804 0.0412322 -0.066977546 0.04744843 -0.013464567 0.04272034 -0.013709925 0.02408748 -0.047902476 0.002073322 0.06492282 0.048970297 0.096813045 0.07783514 -0.03688518 0.017935844
만 -0.0058702677 -0.015963597 -0.03869736 0.1611273 -0.11186673 0.013832863 0.089551084 0.013063077 -0.14267789 0.04698499 -0.06836916 -0.16570874 0.11610073 -0.023599524 0.02016421 -0.062234692
는데 0.101728365 -0.04183433 0.043407038 0.014082181 0.039315727 0.061064858 -0.07186154 -0.07584392 0.026392326 -0.052634597 0.08804269 0.0816321 -0.20605528 -0.022141077 -0.060113452 -0.05021061
너무 -0.04451033 -0.0769584 0.0018239876 -0.09181085 0.051821496 -0.18431035 -0.028642373 -0.08160246 0.15629072 0.028460978 -0.0349868 0.19982821 0.04524932 0.15983912 0.07138167 0.075490795
봤 -0.10568934 -0.030319372 -0.03298201 0.01940459 0.0032009447 -0.015082703 0.004996356 -0.047692172 0.024743563 -0.069384456 0.014440149 0.117265634 0.06699311 0.06353951 -0.02325763 0.021104397
적 -0.017236963 0.05703363 -0.031224018 0.03092049 -0.041209806 -0.0027574885 -0.035776403 -0.014940361 -0.034962732 -0.04929573 0.01262103 -0.037042182 0.09820317 0.029275414 0.0071312743 0.004333568
안 0.104497574 -0.016810937 -0.05117285 0.163699 -0.11062162 -0.0023223825 0.08387274 -0.04146021 0.023014406 0.120812416 -0.12900706 -0.28015745 -0.045431152 -0.1500645 0.079660624 -0.13379624
정말 -0.040889207 -0.03185711 -0.05666493 -0.059573367 0.044376086 -0.106854714 -0.06681918 -0.021366388 0.012782211 -0.08361814 0.045671195 0.10514156 0.006201161 0.13482341 -0.021072688 0.044354804
로 -0.014302604 -0.012045333 0.015505175 0.03945025 -0.01758897 0.016743705 0.057683177 -0.035975873 0.0021724806 -0.027651003 -0.04214771 -0.06894 0.028142925 0.03353951 0.052259956 -0.052654374
음 -0.15042047 0.034146693 -0.116450176 0.08009746 0.0014000428 -0.019172203 0.011942842 0.016589597 -0.10483245 0.07381597 0.03867874 -0.07954831 0.25443754 -0.014577842 0.0063114096 0.012588432
것 -0.047443617 0.0422451 0.014275158 0.051167622 -0.00063658186 -0.04316912 0.007911273 0.0040366035 -0.011139591 -0.043803718 0.030389758 0.004717696 0.06032932 0.036620222 0.0011214544 0.025210848
아 0.016157825 -0.0066083316 -0.040915027 0.011118529 0.018027563 0.00043819257 0.052260246 -0.001033177 -0.06427037 0.0116529735 0.01593213 -0.027715182 -0.026963776 -0.079607084 0.01954932 -0.00028658134
네요 -0.10082522 0.041500654 0.0159513 0.038269065 -0.009478788 0.02656575 -0.02407761 0.0053219674 -0.08014009 0.053890906 0.04452906 -0.02290926 0.19056241 0.01888254 -0.0013117736 0.045053817
재밌 -0.18875146 0.17569628 -0.18927562 -0.0065938863 0.122144245 0.23128556 -0.050913535 0.21393283 -0.2948741 -0.16931447 0.16898076 0.23518054 0.057610113 0.0662416 -0.13954288 0.15590194
어 -0.006286378 0.059822544 -0.019938758 -0.018243654 0.0176275 -0.02678947 -0.017207915 -0.055727717 -0.021547401 -0.03278755 -0.010631056 0.009410177 -0.015998268 0.08944778 0.043777056 -0.017439684
점 -0.03612776 0.04291423 -0.14585659 0.10620034 -0.023994453 -0.020519689 0.09893964 0.010580417 -0.20317629 0.071071506 -0.012374446 -0.16899009 0.27938598 -0.026144465 0.07385814 0.056541063
같 -0.032812424 -0.04058477 -0.030883588 0.082815066 0.016243752 0.017602654 0.030480528 0.019740595 -0.0002516852 -0.039549466 -0.032993652 0.001299254 0.0051610447 0.027923698 0.06055578 0.02691313
지만 0.14626566 -0.011732066 0.08563538 -0.00017811335 -0.027878137 0.06317036 -0.11349898 -0.14019918 0.25714707 -0.031148486 0.10057327 0.2375594 -0.3798017 0.0034513462 -0.004013719 -0.13420157
진짜 -0.03437441 -0.02866925 -0.08574953 -0.10217126 0.025352174 -0.07604501 -0.11649962 -0.008108947 0.012046643 -0.06700039 0.072039105 0.12878451 -0.014688493 0.11273044 -0.0020692535 -0.027662726
했 -0.034712862 0.037517935 0.010547079 0.0071461108 -0.0021911531 -0.0105234 0.036008853 0.07440879 -0.01904835 0.059018344 -0.012915893 0.020850427 0.08779426 -0.013485564 -0.07568186 -0.022235777
에서 0.015234004 0.014293427 -0.025537144 -0.0061967266 0.02069479 0.030383913 -0.035189573 -0.015773756 0.018885214 -0.052098222 0.010363946 0.027358657 0.0004400208 -0.07860248 0.027821569 0.018932521
기 -0.09491333 -0.03759653 -0.06772972 0.04007817 -0.047469366 -0.010787169 0.04720882 -0.07824693 -0.082817145 0.0049373107 -0.07245444 -0.08002013 0.043317344 0.019009192 0.028193148 -0.02155727
네 0.0042509194 -0.021146907 -0.032053486 0.029592326 0.0028711476 -0.04006742 0.013380468 -0.021950671 -0.047657657 0.07726312 -0.020360364 -0.112878926 -0.02061174 0.0104139 0.031184407 0.032413557
않 0.1465289 -0.08514851 0.06117192 0.008231807 -0.04445881 0.048158254 -0.069178514 -0.1551332 0.14862616 -0.04533284 0.015919121 0.08944325 -0.32574588 -0.18908514 0.019678265 -0.119651124
거 -0.0484548 -0.046379607 0.06646977 0.06540086 -0.035553858 0.025845313 0.030956812 -0.007441563 -0.009048344 0.02979295 -0.032813177 -0.0050520874 0.047929473 0.024149014 -0.049764484 -0.0067347307
았 0.083426125 -0.009392812 0.00311759 -0.04056306 -0.025046254 0.016134733 -0.03729935 -0.07586123 -0.036567744 -0.06834784 -0.030555042 0.06811265 -0.09398088 -0.06260147 0.029829027 -0.0008241286
수 -0.08311763 0.062384427 -0.049028236 0.053510547 -0.036025304 0.075396806 -0.04522588 0.09020574 -0.12578498 -0.067501016 0.0814093 -0.12107275 0.083299674 -0.041622173 0.018739145 -0.02551824
되 -0.070983075 -0.030494323 -0.017022954 0.031979688 0.008749965 -0.0284383 -0.040333975 -0.0060198586 -0.02065435 -0.0022744986 -0.0044951634 0.08066149 -0.0039173113 0.03503711 -0.014856195 0.046416324
면 0.084645644 0.0033934477 -0.028093044 0.037352186 -0.04846036 0.073657654 0.06054598 0.023327667 -0.042505093 0.04316271 0.052412882 -0.121756494 0.015476967 -0.040698502 -0.023534056 -0.049669314
ㅋㅋ -0.060613003 0.09092207 -0.055439074 0.0024436577 0.031010002 -0.006365266 0.114843644 0.056317117 -0.03060183 0.011313497 -0.027669318 -0.013378357 0.09555454 -0.063864395 -0.060482595 -0.005199602
말 0.050892472 0.044410095 -0.004690096 0.00817289 -0.028784238 -0.0027294245 -0.03952546 0.018812733 0.011947785 0.020466553 -0.0765433 0.035095755 -0.09178077 0.101772 0.0125663215 -0.05400135
연기 -0.12779084 0.00883615 -0.008502149 -0.021884834 0.03477912 0.023057124 0.037998326 0.07928882 -0.054131508 0.0057579065 0.050108477 0.06373077 0.0635638 0.0066923234 0.0024816194 0.05883352
인 -0.02820091 0.011553728 -0.018272072 -0.017589977 -0.012101321 0.025698101 0.002443013 0.012275988 -0.012521474 -0.034615178 -0.011898221 0.063383274 0.06161323 -0.0019952944 -0.008931112 0.04566061
최고 -0.27091974 0.19184057 -0.23265357 -0.16616611 0.24745396 0.18825747 -0.117336065 0.22583775 -0.17435768 -0.17486356 0.16981351 0.36001086 -0.0037756371 0.25543135 -0.16406426 0.23614839
주 -0.07260254 -0.02612561 0.032576498 -0.02711508 0.0027324369 0.010906162 0.0842987 0.06313163 -0.041994814 0.027232999 0.014379622 0.04117022 0.070844136 -0.0112541 -0.05823764 0.0598448
내 -0.027942777 0.013119458 -0.04823408 -0.006911953 -0.0305569 -0.057888374 0.017607693 -0.10554472 0.00037240007 -0.0044868565 -0.00951301 0.014113222 -0.0144933835 0.020477198 0.0033059434 0.024469966
~ -0.02670148 0.028757662 0.10482759 -0.00701672 0.016032718 0.015094327 0.04161182 -0.024374088 -0.06232314 -0.054543316 0.021953452 -0.020126678 0.1406822 0.03073693 0.02406031 0.03192378
평점 -0.07110902 0.027907202 0.049789444 0.07604157 -0.030469723 0.06662892 0.10417046 0.09698822 -0.076967195 0.047810808 0.02034543 -0.036021832 0.01398621 -0.08995928 -0.059350494 0.03385162
이런 0.021848284 -0.017289247 -0.012255598 0.04716715 0.0040599755 -0.061755423 -0.022072675 -0.04618737 0.011840793 0.04720384 -0.002503847 -0.10062973 -0.015076077 0.084133014 0.048971068 0.017908363
어요 -0.16908713 0.122112304 -0.06827836 0.08827608 0.044829905 -0.029334625 0.062312886 0.012064158 -0.19495301 0.06582443 0.040603258 -0.1484113 0.3625544 0.03143725 -0.07164974 0.13965692
던 0.045889284 0.021025369 -0.0042131995 0.0069093164 0.02083766 0.0032775763 0.021778276 -0.0118223615 -0.018562365 -0.014802497 0.07297433 0.080306776 -0.021523243 0.11901084 0.04495629 0.0098269805
할 -0.056481406 0.03690428 0.028469998 -0.022197345 0.0017238148 -0.02484536 0.013012379 -0.0680592 0.0017472154 0.015459963 0.057740085 -0.07616071 -0.060265645 -0.008121686 -0.054829903 -0.034310926
왜 0.01444443 0.051581327 -0.0431251 0.010960855 -0.026508207 0.038503777 -0.0034417189 0.061486706 -0.06400502 0.08507213 -0.020261463 -0.15668292 0.030689133 -0.04248859 -0.0024551512 -0.039987437
1 0.2356906 -0.15975893 -0.023057753 -0.061812304 -0.094614804 0.0065324996 0.10928187 -0.069281116 0.05044853 0.046896767 -0.121306285 0.026559627 0.062233485 -0.19752777 0.090349674 -0.13113588
겠 0.045983143 -0.09320045 0.110230096 0.07356981 -0.030979574 0.0016141981 0.058598325 -0.0625191 0.047981374 0.027587233 -0.09572884 -0.07213496 0.014269731 0.025049353 0.0572568 -0.04499557
해 0.010898662 0.038237914 0.018352866 -0.031990815 -0.022960993 -0.023322275 -0.01967603 0.010700747 -0.057810307 -0.024158195 -0.007172775 0.019525219 0.050072372 0.051236045 0.0509123 0.03249309
스토리 -0.011447008 -0.044864364 0.012849215 0.0056273355 -0.057898942 -0.011281729 -0.013511375 -0.039442685 0.023206156 0.069284216 0.0003332761 -0.010843903 0.059075605 0.029760469 0.08896131 -0.018426934
습니다 -0.062398177 0.10229604 -0.095951386 0.06746112 0.05646469 0.059969973 -0.034194656 0.06829156 -0.10181288 -0.011066591 0.034514226 -0.017258039 0.16411561 0.086785465 0.026177948 0.064473495
ㅋㅋㅋ -0.014265124 0.029851569 0.03157505 -0.0073103956 0.04386641 -0.017682822 0.061044544 0.048456214 -0.012053334 -0.011100036 0.01701308 -0.0002143763 0.09326504 -0.04738979 -0.0011249322 -0.028687445
... -0.053312175 -0.0639271 -0.058961153 -0.060813755 -0.00649133 0.028182255 0.0012187739 -0.012176319 -0.013407316 0.057440594 -0.03260037 -0.008264637 -0.052499637 -0.0676627 0.030081736 -0.055367313
드라마 -0.17024182 0.05118168 -0.050712932 0.015497562 0.027917752 -0.0358068 0.032358214 0.097127005 -0.1268602 0.0039609927 0.02201945 -0.120940045 0.18546025 -0.0015534096 -0.04230952 0.05894145
생각 0.0010162689 0.048634436 -0.12229739 -0.008774842 0.054458015 0.0020705215 -0.08527032 0.01923967 -0.062476177 -0.050139245 0.05577856 -0.010905092 0.041174155 0.035041973 0.0031772081 0.0018622229
아니 0.16187018 -0.14015031 0.0038998013 -0.068080395 -0.06805002 0.011958369 -0.068843804 -0.15857683 0.16277628 0.021814883 -0.086239375 -0.012159585 -0.19555935 -0.18804424 0.026557485 -0.07247216
더 0.024797391 0.06507591 -0.06944806 0.11175263 -0.005121792 -0.041749924 0.088381164 -0.0393294 -0.081386246 0.102828614 0.004750098 -0.16533819 0.030516056 -0.015585271 0.017263373 -0.046288397
그 0.00012400102 0.013234726 -0.05916656 -0.0035156293 0.09152195 0.005587246 -0.02571477 0.006032414 -0.07297597 -0.03347362 0.027111385 0.015176537 -0.033927064 0.09595344 -0.03402742 0.033303287
싶 -0.059503675 0.008938766 0.03279596 0.080643296 0.014717052 0.0049326364 0.049338765 0.06745167 -0.06772033 0.059408866 0.019713497 -0.04561118 0.17273785 0.03670195 -0.055168904 0.028347861
사람 0.022633828 0.0020170666 0.015826153 -0.010245038 0.04258482 0.097652406 0.002961084 0.037833557 -0.120726675 -0.02297279 -0.0024500566 -0.055024005 0.0026915604 -0.088052176 -0.08367879 -0.01842961
듯 0.046461146 -0.07900443 -0.024634497 0.021871798 0.051684927 0.031369295 -0.084979616 -0.05602864 -0.034618735 -0.00016583421 -0.034040175 0.06902529 -0.13578077 0.050053008 -0.009346309 -0.006418482
감동 -0.17819124 0.10005099 -0.03409397 -0.05747952 0.12867655 0.13888867 -0.021198625 0.124500036 -0.06499866 -0.14865643 0.113153145 0.36583674 0.13038987 0.10233309 -0.13693263 0.20390773
때 -0.02297542 0.041800044 -0.038582977 0.04818422 -0.022800641 0.006998619 -0.06741453 0.078664795 -0.059737764 -0.037946988 0.062759265 0.004647914 0.052520584 -0.030615812 0.005948235 0.04146743
함 -0.07094651 -0.025330495 0.00012107589 0.030803755 -0.01587294 0.05967482 -0.036278117 -0.04893434 -0.05783311 -0.012142282 -0.01202661 0.015192679 0.07141245 -0.03249925 -0.031170962 -0.0047082114
배우 0.08298805 -0.014321037 0.041642576 -0.005672331 -0.0075017647 0.022278199 -0.008478964 -0.060713556 0.037351944 0.03276783 0.0565411 0.098191544 -0.020646743 -0.044259254 -0.030575486 -0.067594685
본 -0.07112674 0.04438087 0.0043483176 0.011571157 -0.057026405 0.078957565 -0.02755182 -0.010566037 -0.07424854 -0.0417836 0.040606394 0.101834744 0.005928581 -0.014225815 -0.0024068847 -0.025743445
까지 -0.058586154 -0.06736641 0.042129744 0.018681414 -0.0101566035 0.009937967 -0.00047744272 0.015933432 -0.021509623 -0.021190774 0.0007996665 -0.07850467 -0.012507032 -0.04302639 0.0070695826 0.03903229
뭐 0.0131074255 -0.046875868 0.055373892 0.058407005 -0.04285226 -0.047271397 0.082126096 -0.027491018 -0.046189204 0.07575606 -0.02345429 -0.083301865 0.15640958 -0.16276687 -0.054612424 -0.06865727
볼 -0.06503695 0.05560592 0.10303231 -0.06763542 0.023491671 0.13753471 0.019143077 0.0381371 -0.17562835 -0.069588125 0.100616574 -0.00097180996 -0.1160997 0.06698874 -0.09718922 0.05453855
알 0.030505173 -0.050985042 -0.015853394 0.080837116 -0.006859212 -0.020081993 -0.0057889754 -0.028915117 0.05853663 0.06549801 -0.017056907 0.04091597 -0.036948018 0.043482915 0.06869039 -0.053439494
만들 -0.07749063 -0.088923834 0.018746987 -0.019359408 -0.01685562 -0.046099138 0.034884546 -0.06848528 -0.036919765 -0.004847227 -0.022471674 0.05699922 0.088119045 -0.061324306 0.0052590994 -0.025701798
내용 0.0030852724 -0.09901327 0.05543557 -0.040440533 -0.08391373 -0.06978164 -0.056513518 -0.20054638 0.10304578 -0.0038452875 0.007993539 -0.002283085 -0.06465546 -0.03678201 0.053190757 -0.08825814
감독 -0.0173355 -0.034078598 0.062097233 0.115803905 -0.021801757 -0.0011761113 0.113441594 -0.010936047 0.029286873 0.10284741 -0.018006803 -0.034243375 0.14627707 -0.102554984 0.012439337 -0.017909227
보다 0.048074894 0.009178959 -0.046034258 -0.038728677 0.018149443 0.0035481371 -0.003675193 -0.062729925 0.035069 0.018461572 0.030070031 0.04603619 -0.054100394 0.07373254 -0.020805227 -0.009635476
라 0.052769825 -0.04860157 -0.032521877 -0.004031425 -0.025750408 0.0027194824 -0.05683517 0.012775712 0.00033155797 -0.05762051 0.036471896 0.018543383 -0.056619246 0.04157836 -0.019560274 -0.006843609
재미 -0.07874216 -0.042527627 -0.07630871 -0.12846932 -0.0061620665 -0.049890462 -0.015862819 -0.16875479 0.1317082 -0.006943114 0.04926396 0.26240903 0.026625419 0.013661631 -0.04628984 0.09010064
그냥 0.085103236 -0.13061143 0.049722016 -0.013947211 -0.061016392 -0.04815408 0.016250603 -0.08345647 0.07251092 0.07383714 -0.08245531 0.06277285 -0.023865588 0.09094626 0.0528143 0.045929164
지루 0.18018547 -0.092256114 -0.017477669 0.23683266 -0.15429665 -0.19487481 0.13736275 -0.05347544 0.18560229 0.20484382 -0.16136546 -0.30745184 0.1536028 -0.11915269 0.22909121 -0.20708975
시간 -0.009775239 -0.022585567 -0.09548277 0.07918717 -0.07996363 -0.061687514 -0.0022423 -0.05579386 0.02839638 0.11365761 -0.015104194 -0.20087235 0.13075817 0.010631416 0.13506857 -0.03672318
재미있 -0.12977965 0.14461926 -0.019493626 -0.08640024 0.23127659 0.11697647 -0.02568578 0.15942487 -0.12293215 -0.09344361 0.119494595 0.22079855 -0.13111457 0.14831041 -0.13464436 0.17176296
중 -0.06355722 -0.0053953067 -0.03096357 0.081220984 0.052189197 -0.002072397 -0.08820116 -0.0647575 -0.043016504 -0.014512099 0.0795644 0.011325856 -0.04094337 0.07212383 0.009943981 -0.000113979804
년 -0.02419056 0.020013776 0.010820258 -0.040428936 0.019452363 -0.018338855 0.000445439 -0.03244891 -0.03373053 -0.00039568273 0.0014879045 -0.07839403 -0.013637519 0.020973418 -0.018885503 0.06345209
잼 -0.22239408 0.026072735 -0.13964306 -0.07141695 0.023034574 -0.03276325 -0.1705455 0.030393217 -0.10689307 -0.058284406 0.06541223 0.2275771 0.16537578 0.18535002 -0.003050843 0.14210828
10 -0.12712564 0.13064405 0.0718089 -0.053783663 0.16652922 0.3053609 -0.030950088 0.18827945 -0.120454915 -0.24135587 0.23690653 0.30169073 -0.20563988 0.07261996 -0.20287345 0.18561593
재미없 0.22911379 -0.17774904 0.19095673 0.25544947 -0.16594538 -0.19771254 0.24749966 -0.22323555 0.23779164 0.21024081 -0.19714764 -0.43654886 0.112091735 -0.38427603 0.035448167 -0.3145415
였 -0.029551225 0.013816336 -0.027078018 -0.07585546 0.028013112 0.03920829 -0.06509394 0.011566364 -0.10683856 0.013457662 0.036259603 0.013200579 0.099529915 -0.046142593 -0.07108504 0.045442183
쓰레기 0.21950781 -0.13346688 0.13934979 0.2916957 -0.1793402 -0.19251591 0.2372111 -0.233439 0.19080134 0.21040921 -0.2445836 -0.38262263 0.15762249 -0.14495492 0.1440075 -0.23833475
사랑 -0.08676859 0.12883796 -0.09225875 -0.04309559 0.10205991 0.11111327 -0.065100215 0.13022685 -0.11034584 -0.13237323 0.10779226 0.18674128 0.016439019 0.11393381 -0.10914338 0.13508604
못 0.080904126 -0.028622383 0.11238808 0.12784609 -0.074093394 -0.039455146 0.08056182 -0.072096914 0.07793082 0.06349786 -0.016773568 -0.15063696 -0.106996454 -0.14868586 -0.038809888 -0.14594704
냐 0.11878295 -0.03591115 -0.008431107 -0.006619484 -0.103698336 -0.04510519 0.053985663 -0.034043062 0.08872854 0.05544712 -0.09004842 -0.07901595 0.021030448 -0.16616783 0.043535445 -0.050461657
서 0.04811687 -0.050048776 -0.0013253073 -0.06601049 0.014133316 0.070930585 0.047198765 0.041438323 -0.064681426 -0.009028016 0.020444103 0.053763136 -0.05910872 0.02236184 -0.02501455 0.042746283
2 0.0760804 0.00872166 -0.0776709 0.08701129 -0.10117432 -0.09358477 -0.05811765 -0.10970017 0.05033576 0.033607125 -0.011036689 -0.105278626 0.0061630015 0.085653916 0.10792008 -0.0847582
라고 0.04339923 -0.10166153 0.057790067 -0.007929183 -0.048543043 0.022844091 0.014538185 -0.06559662 0.044481855 0.0024478391 -0.0031929556 -0.018494634 -0.014301788 -0.09311932 0.0014539968 -0.025593666
야 -0.02091683 -0.029137168 -0.07307703 -0.02639877 -0.0128859505 -0.021865765 0.015939856 -0.01624373 -0.01861409 0.045043014 -0.05391437 -0.019835565 -0.069670826 0.006409093 0.020122949 -0.03965585
니 0.028109074 -0.0015794681 -0.06021392 -0.060889497 -0.029577022 -0.11670197 0.025835508 -0.0067118146 -0.0039619408 0.042551417 -0.02955385 -0.09766317 0.04700961 -0.015850132 -0.013221892 0.02556734
면서 -0.091603555 0.060640935 0.006392865 -0.066974394 -0.012490513 0.06260452 0.068946995 0.045337856 -0.106615774 -0.06518354 0.021654049 0.054023236 0.0067938413 -0.0061536753 -0.020538384 0.06243582
번 0.0025580048 0.04481047 0.055342462 0.022937283 0.058638137 0.028231673 -0.017813131 -0.015770866 -0.055325266 -0.06396417 0.025205232 -0.020782335 -0.101207346 -0.04045475 -0.012904916 0.027055673
다시 -0.021782666 0.057297084 -0.10848871 -0.08855394 0.10104233 0.17310199 -0.14123064 0.09448747 -0.08946187 -0.12879226 0.09816458 0.22755559 -0.1335072 0.062403996 -0.08941822 0.040568773
나오 -0.06275329 -0.03985217 0.022679605 0.03019178 -0.0105453385 0.012558552 -0.039474174 -0.012648094 -0.025669152 -0.010832065 0.022881392 -0.06501952 0.007979619 -0.11546338 -0.033343624 0.00021882268
작품 -0.037800957 0.0585423 -0.036844585 0.07997453 0.024279818 0.06425285 -0.059716713 0.036582325 -0.0706172 -0.030997105 0.103666194 0.07357537 0.05222212 0.07115563 -0.026863974 0.018246021
이거 -0.041176174 0.043283526 0.018038359 0.0379335 0.02702534 0.013446301 0.050786737 0.0566237 -0.025771461 0.03889227 -0.013229015 -0.13921605 0.06967331 -0.07006493 -0.035765704 0.0072320155
하나 -0.029303567 -0.010244026 -0.029129934 0.054808516 -0.009335568 0.049065366 0.032922942 -0.085342504 0.021404624 -0.008045248 -0.05344234 0.01662587 -0.014236707 -0.013375983 0.025696654 -0.02387853
줄 0.09254169 -0.028041521 0.026779171 0.052413456 0.0011625001 0.026225338 0.078014426 -0.04250208 -0.0035175285 0.0039832583 -0.015324786 0.01752606 -0.09160028 -0.028754633 -0.0046917377 -0.0032559584
해서 0.00574588 -0.047208264 0.008890595 -0.04153157 -0.05421738 0.039586294 -0.019460464 -0.019947743 0.04019616 -0.019895852 -0.008655724 0.11391938 0.024451068 -0.010416814 -0.07743144 -0.0039017051
개 0.047850773 0.039159533 -0.05148158 -0.06568298 -0.047275733 -0.06724385 -0.010853556 -0.009915098 0.015999788 0.043695502 -0.05348536 -0.10858696 0.036723245 0.022858232 0.042586997 0.039550312
남 -0.059607897 -0.011768519 -0.046324894 0.03897569 -0.026023949 -0.049892224 0.025746297 -0.08764381 -0.032196593 -0.06083087 -0.035092104 0.047218967 0.22417855 0.090502016 0.087758265 0.034887623
정도 0.06131003 0.007932775 -0.045890406 -0.043386605 0.012577532 -0.08695146 -0.029614227 -0.045383535 0.050646547 0.07546608 -0.027945224 -0.17665617 -0.14067073 -0.05012532 0.025233835 -0.0323711
마지막 -0.08912802 0.061503347 -0.09636494 0.01630128 -0.012427487 0.03423088 -0.019092644 0.07842883 -0.12908964 -0.048479576 0.07866865 0.00660056 0.0648511 0.07081091 -0.056932837 0.049538903
끝 -0.011673393 0.0014547843 -0.023042077 0.009973702 -0.08121415 -0.06571167 0.002212003 -0.12412074 -0.012662866 0.0010612176 -0.0072226184 -0.061600324 0.071710154 -0.011100971 0.08182839 -0.028681409
이건 0.1077413 -0.17967537 0.011094043 -0.038155165 -0.021810092 -0.17115377 -0.03628835 -0.18935074 0.16891223 -0.016916977 0.009655619 0.18531983 0.001784033 0.07898463 0.17269641 -0.051161785
임 -0.07601679 -0.0030025975 -0.03402493 -0.052407052 0.018914867 0.0034442486 0.003646705 -0.018253239 -0.0693991 0.045000218 -0.029856903 -0.031478085 0.041255895 0.024314228 -0.020794282 0.02002257
액션 -0.0053359033 0.038760394 0.00057852396 0.02815356 0.03152658 0.071619496 -0.0012290623 0.02024754 -0.060256224 -0.04044871 0.086679235 -0.030747585 -0.10040645 0.10149035 0.030563058 -0.011707868
ㅋ -0.027316777 0.0012290387 0.050822705 -0.008686181 0.039608944 -0.030564105 -0.0021538867 0.011346607 0.008797551 -0.020555483 0.010983231 -0.038685594 0.050071433 0.010986004 -0.01764504 0.055323076
3 0.048874352 -0.03264458 0.023022981 -0.007281332 -0.12472175 -0.011059055 0.00060739217 -0.05072539 0.029642984 0.03905293 -0.059357867 -0.120273374 0.0070541734 -0.11164047 0.081935875 -0.06376953
입니다 -0.16527355 0.05345728 -0.0072741397 0.07923023 0.09457879 -0.06083616 0.012664303 -0.04424762 -0.05155517 -0.02428753 0.08494503 0.0077334177 0.15589514 0.16729257 0.02443984 0.071846604
기대 -0.06336715 -0.076700985 0.16319126 0.03511215 0.04033221 0.056913216 0.05937116 -0.041569084 0.09993588 -0.040399328 0.03762354 0.284966 -0.06308327 0.0058123767 -0.005881437 0.08597899
건 0.084369116 -0.011761386 0.06772626 0.02231604 -0.058933277 0.042291254 0.078812495 -0.0766533 0.080765754 0.0583046 -0.042037513 -0.028988425 -0.053830925 -0.12525651 0.024530249 -0.07406156
완전 -0.08628751 -0.10581626 -0.08488629 -0.12733066 -0.010734677 -0.23872219 -0.15986882 -0.05990482 0.15388961 -0.042773232 0.016800625 0.1835946 0.023914743 0.113529086 0.073640905 0.06885129
라는 -0.06550285 0.054197893 -0.028976897 0.06084187 -0.057057157 -0.022350084 0.023097716 -0.013896278 -0.018462235 0.052177075 0.0050873286 -0.05513781 0.00909528 -0.027686281 0.046978466 -0.019003665
분 0.1126748 -0.034126226 0.1452895 0.03617333 0.01712923 -0.018384542 0.04000677 -0.040596366 0.12182599 0.04251443 -0.00024251864 0.059737902 -0.0053192335 -0.14738148 -0.045022532 -0.035017632
다는 0.10584038 -0.022566564 0.010195865 0.07405667 0.06387374 0.041603893 0.08533391 0.15390562 0.014702156 -0.00089526334 -0.04362354 0.030061314 0.030780151 0.04401893 0.02371047 0.005475673
참 -0.016950855 -0.03716147 0.05115323 0.06301545 -0.04356447 -0.083974 -0.038851924 -0.083680265 0.0055322773 -0.015203627 -0.0039376677 -0.07078511 0.030097688 -0.008559992 0.012470995 -0.004380984
많 -0.007747395 0.055693243 -0.15660048 0.0029576984 0.0028296195 -0.047272917 -0.08247757 0.039017912 -0.08787966 0.027503606 0.0370913 -0.13887149 -0.04086261 0.0035313158 -0.055204 0.013251247
아깝 0.0140851755 0.009917985 -0.042058367 0.25783575 -0.067001976 -0.21324055 -0.020535816 -0.22703889 -0.016618434 0.14910659 -0.10237529 -0.41508946 0.10200047 0.0013918937 0.20271789 -0.120564915
처음 0.00022521315 0.027828356 -0.08779203 0.0058606085 -0.029830335 -0.021451104 0.0367676 -0.05433998 -0.07537801 0.031415865 0.027357439 -0.06670597 0.06155189 -0.05354241 0.02888655 -0.0034075808
장면 0.021262176 -0.042536743 0.040729214 0.06842814 0.001996975 0.0039189677 -0.0066559915 -0.05580013 -0.01772706 0.011706806 -0.053759504 0.064900294 -0.05397881 0.06127146 -0.004198159 -0.026311772
대 0.10236138 0.047176808 0.044848386 -0.030950125 -0.0492991 0.06050908 0.07570056 -0.0047969273 -8.614466e-05 -0.028494786 0.035156064 0.056450803 -0.05099065 -0.07680799 -0.018375015 -0.027013233
다가 0.078194655 -0.115804136 0.059565283 0.06676299 0.00034334935 -0.07693545 -0.016629301 -0.16275734 0.19035706 -0.0010502388 -0.04756941 0.044842556 -0.041974485 0.08520565 0.194276 -0.05398553
으면 -0.015121022 0.009698546 -0.042947948 0.032990985 -0.06737485 0.022064557 0.108305775 0.07062867 -0.0923547 0.084669985 0.036671735 -0.12565187 0.12141994 -0.13895331 -0.07123822 0.0061506517
지금 -0.07564872 0.0549515 -0.015328714 -0.0237391 0.04619289 0.045223877 -0.05204074 0.07256455 -0.012604107 -0.106883734 0.08496508 0.04921473 -0.112731874 0.05379678 -0.02683261 0.02734725
모르 0.040402815 -0.04041594 -0.037836198 0.008485729 0.016837392 0.02386775 -0.054712493 -0.01572413 0.037449256 -0.049354076 0.03395531 0.06545046 -0.10881481 -0.06709005 -0.06059207 -0.02862012
이렇게 -0.05821071 -0.039916456 0.027271848 -0.08743439 0.009271016 -0.12777959 0.03805844 -0.017235609 0.13348767 -0.036287464 -0.01672081 0.09657315 -0.10312586 0.13891332 -0.0067756674 0.058208957
' -0.047242854 0.018124053 0.00981685 -0.03188352 -0.00948839 -0.058353066 -0.0024314078 -0.016143262 0.060110506 -0.0002221651 -0.010107045 0.024069848 0.021021029 -0.043852862 -0.063325144 -0.0624509
편 -0.0997329 0.008805545 0.0065634665 0.014602144 0.019073404 0.102213174 0.04347583 0.052540876 -0.1009419 -0.029322531 0.06283242 0.079636656 -0.04253904 -0.055062857 -0.065627426 0.041630767
일 0.046106707 -0.0051614027 -0.06729955 -0.07066412 -0.05254477 -0.021917088 -0.029906882 -0.007963741 0.04151641 -0.0027703298 0.03491843 0.030505795 -0.06627132 0.00075034925 0.05183045 0.017962586
이게 -0.043321677 -0.045521133 0.021541758 0.0882728 -0.0651888 0.01623531 0.1318945 0.0031467236 -0.10012793 -3.2755022e-05 -0.007796165 -0.02559423 0.041415036 -0.12010174 -0.036218673 -0.01256461
돈 0.09347892 -0.09512698 0.1193999 0.15210404 -0.08845003 -0.112339884 0.20143165 -0.09202101 0.09540994 0.14567298 -0.138739 -0.16507705 0.05341919 -0.1563283 0.04521573 -0.18050168
최악 -0.014050767 -0.41626942 0.4981582 0.3300479 -0.34218925 -0.44056252 0.55636334 -0.37159202 0.50571376 0.39295465 -0.3139516 -0.39827204 0.4992879 -0.19027935 0.15165114 -0.32353705
성 -0.062056344 0.006838386 0.025108779 0.027442748 -0.024384197 -0.018067688 -0.01794077 -0.039995495 0.09102771 0.056214515 0.011226654 0.018441608 -0.07396129 0.016740153 0.060084596 0.023607127
느낌 -0.07164593 -0.06268753 -0.071387716 0.13889264 -0.0036832695 -0.0126370685 -0.049739674 0.0055432413 -0.05685053 0.013137271 -0.060457747 0.009334666 0.0906278 0.072184704 0.13905084 -0.02252548
시 0.057270218 0.036237355 0.0027666658 -0.004367236 0.019253828 -0.009362169 0.012943748 -0.05723096 0.020201901 -0.024810696 0.00043155777 -0.031462856 -0.05114757 -0.088771105 -0.0042694714 -0.015214432
이야기 -0.10208336 0.032999814 0.04027924 0.05927563 -0.013682315 0.047687203 0.019161386 -0.015691135 -0.015421716 0.017471023 0.013603659 0.03036715 0.0676068 -0.0050918767 -0.010069938 -0.011418957
별로 0.14703071 -0.17495055 -0.06496732 0.3881339 -0.21648125 -0.17903239 0.1114611 -0.1821907 0.12923203 0.15817738 -0.13110736 -0.36196107 0.20519437 -0.20946847 0.27714998 -0.20290144
된 -0.09994774 0.0069734873 0.02137483 0.05986605 -0.002233391 0.011748211 0.017971464 0.022040535 -0.0892496 0.013323312 0.013781026 0.04310316 0.061427403 -0.023567587 0.017555596 0.03896039
봐도 -0.17224595 0.08473686 -0.15759788 0.013462582 0.031415284 -0.06979542 -0.10404825 0.06615294 -0.06420594 -0.017344803 0.06379554 -0.13773222 0.14606328 0.15719646 0.033998698 0.10405547
님 -0.039270263 0.087168634 0.031236822 -0.0925795 0.01519123 0.124929294 0.064657226 0.13831219 -0.06883756 -0.0030716104 0.053822175 0.1130026 0.099086694 0.0018201517 -0.043201204 0.034618437
어서 -0.015532787 0.041603297 -0.08085566 -0.008142956 -0.04182427 -0.009429428 -0.053282842 0.003531384 -0.039434936 -0.019276552 0.043435965 -0.008086235 0.003456551 -0.021127094 -0.002836816 0.0038557106
애 0.034691524 -0.0069393525 0.04860629 0.09910867 0.0063841483 -0.02372351 0.15964249 0.044946697 -0.0037854768 0.044697274 -0.022135124 -0.13403833 0.07717537 -0.03137596 -0.070330255 -0.018056003
전 0.033448253 -0.03891625 0.0035778093 -0.0973763 -0.0022186262 0.024988148 -0.04493187 -0.019944662 0.02367566 0.035245065 -0.0052369325 0.053471316 0.056409374 -0.08197145 -0.03897753 0.028420545
ㅠㅠ -0.08440586 0.070431486 -0.02449291 -0.041420177 0.107672825 0.001559876 -0.0170146 0.066896886 -0.07951976 -0.08731278 0.008352242 -0.02401889 -0.028033009 0.15182929 -0.06404396 0.08617796
넘 -0.11597908 -0.101885885 -0.0108594075 -0.12062372 -0.032404833 -0.0076908013 -0.03470561 -0.002374602 0.05718587 -0.016320273 -0.009190615 0.2548386 0.10829085 0.08096889 -0.034962624 0.15392101
인데 0.028533453 0.016045274 -0.0038187332 0.10597028 0.03927114 -0.022634778 0.013110455 -0.019401755 0.0971548 0.006888037 0.022278389 -0.055225343 -0.11964191 0.0045384304 0.0092143575 -0.09426844
다고 0.19041473 -0.035266984 0.11778519 0.069166616 0.02685964 0.16888049 0.108979456 0.07683038 0.10388346 -0.031386033 -0.014157379 0.20902967 -0.11457308 -0.048126765 -0.10121292 -0.08813369
이해 0.020010876 -1.6071543e-05 0.11273362 0.013213018 0.021780264 0.041023385 0.13986585 0.05728799 0.05643425 0.0057072486 -0.039755 0.0522952 -0.073856875 -0.058094505 -0.07031571 0.04732266
명작 -0.2351533 0.22124372 -0.12899446 -0.12507221 0.23211376 0.20117263 -0.012821741 0.24776776 -0.21310355 -0.17232801 0.18732356 0.23225501 0.120791875 0.08441227 -0.25189266 0.2521935
^^ -0.025352914 0.053225253 0.025917882 -0.08497976 0.14171232 0.094723836 -0.04138318 -0.026673283 -0.038184494 -0.081504054 0.07456975 0.0062081493 -0.08618848 0.18464465 -0.003453734 0.0987434
그리고 -0.039737087 -0.002342835 -0.0153254485 -0.05775086 0.07010206 0.00501509 -0.044182956 0.05722229 -0.05371066 -0.038827457 0.069538765 0.042909898 0.0365469 0.0689292 0.030231087 0.07254027
역시 -0.14643182 0.008554466 0.007887124 -0.04669929 0.09621528 0.02749561 -0.06837379 0.06935657 -0.027948014 -0.049142536 0.07530077 0.14947145 -0.028707132 0.07582971 -0.06972677 0.08958463
난 -0.023982462 0.043938514 -0.1110426 -0.15451933 0.08112263 0.031456858 -0.11522115 0.056236103 0.061380047 -0.09282437 0.010393986 0.27909246 -0.12557942 0.09123789 0.033569213 0.038892042
여자 0.064078756 -0.06157682 0.086517885 0.10474536 -0.011502475 0.011768809 0.1063777 -0.022919366 -0.0006277767 -0.0141247725 -0.08775156 0.008747682 0.011082967 -0.043700572 0.023018485 -0.06630557
또 -0.034353323 0.08307043 -0.10165632 -0.052314408 0.049265224 0.047965102 -0.08438628 0.040946808 -0.06575027 -0.07851618 0.028091788 0.042228844 -0.025464391 0.07718684 0.060355708 0.044852015
이상 0.014791109 0.035966493 -0.009926119 -0.019860996 0.018508015 -0.09968152 -0.056481842 -0.14664815 0.028579425 0.041822914 -0.089597285 -6.3868676e-05 -0.005491393 0.17917627 0.121072635 -0.03351414
걸 0.039277595 -0.06557454 0.04700895 0.0032175952 -0.01585873 -0.027774144 -0.007598416 -0.077757046 0.011331313 -0.011503687 0.039774794 -0.026476555 -0.019581381 0.017001651 -0.006099728 -0.017798841
한국 0.015650468 -0.007049098 0.055185843 0.035914127 0.033859137 0.06760728 0.050779972 0.03823551 -0.080283344 -0.0376936 -0.050591014 -0.08668236 -0.029610567 -0.086150065 -0.07176002 0.02218021
에게 -0.048027575 -0.02116837 -0.1346964 -0.0008481372 -0.026093885 0.07008342 0.008592776 0.011390147 -0.08614393 0.0028967413 0.07731926 0.053541858 0.16716994 0.0018672141 -0.075434215 -0.005500453
는지 -0.07272613 -0.10420536 0.04399925 0.025847672 -0.090213634 -0.027366092 0.07721865 -0.05955594 0.05405766 0.07166275 -0.011843888 -0.12213956 0.090801515 -0.05220824 0.0006469566 -0.015298985
많이 0.07885523 -0.041354354 0.06796218 0.028256226 0.027200915 0.008076078 0.021984067 -0.038712475 0.03115027 0.051493023 -0.059433352 0.00061043206 -0.10530686 0.0017408717 0.024187746 -0.019987559
부터 -0.052665047 -0.037162516 -0.035573956 0.021375591 -0.054348174 -0.029216688 -0.0057199057 0.020519556 -0.014014244 -0.023346715 -0.0067760767 -0.0073573734 0.039990008 0.0010317878 -0.019557577 -0.015335514
만든 -0.10669825 -0.042243443 -0.03410037 -0.04780358 0.03485255 0.019929519 0.04227892 0.010125715 0.0008882853 0.040592264 0.058306985 0.035518296 -0.0060485243 -0.07262936 0.0072893286 -0.018109398
주인공 0.0020674027 -0.010736134 -0.02929172 0.03793855 -0.09821499 -0.04525878 0.050359987 -0.08465817 -0.011291847 0.00097270834 0.0236322 -0.08420098 0.078071654 -0.07549141 -0.022688711 0.005534238
받 -0.014628333 0.0011875371 -0.01106752 0.021818453 0.021688256 -0.07342999 -0.047583453 -0.08952165 -0.011719243 0.03524981 0.024723697 -0.16407901 -0.0022303753 0.045848656 0.030192908 0.03248201
합니다 -0.035711166 -0.011309269 -0.062371127 0.111684054 0.0023326827 0.12762013 0.0032749248 0.058680087 -0.10620492 -0.053178668 0.028216582 0.029301226 0.07891886 -0.008550979 -0.036211353 0.04802706
!! -0.08123152 -0.010543245 0.034809425 0.025524082 -0.005667221 -0.08844047 0.061936 -0.120139994 0.025266418 0.0067464444 0.017178971 0.004194991 0.002328929 0.041589275 0.018020423 0.07089869
두 -0.020005597 0.028796429 -0.021304876 -0.018492982 1.818873e-06 0.030661415 -0.012062247 -0.07894581 0.024564663 -0.028800039 2.1223386e-05 0.09429636 -0.030185767 0.012335359 -0.02647657 0.051018447
우리 -0.028658485 0.06151067 -0.10529853 -0.025786424 0.10323134 0.056360546 -0.099296704 0.074265495 -0.05323064 -0.11515313 0.048146747 0.18520516 -0.012851592 0.12451029 0.01064336 0.10544257
살 -0.08194095 0.03304453 -0.009550527 0.016733337 0.020801885 -0.019212874 0.032464933 -0.039439004 -0.056648362 0.014107909 -0.02994368 -0.1422768 0.023875289 -0.007088732 0.00611924 0.053091843
괜찮 -0.061675232 0.12420032 0.0067129745 -0.058251984 0.13811481 0.14137645 0.010286986 0.1622282 -0.24180862 -0.06097724 0.13234316 -0.028593887 -0.13419321 0.07318157 -0.20873019 0.13118258
길 -0.066240124 0.011023069 0.04714282 0.008695531 -0.032562822 0.001768344 -0.019975945 -0.05974967 -0.032608934 0.024442673 -0.022419458 -0.10023003 0.026362795 -0.13750689 -0.07911589 -0.023905713
엔 0.070297085 0.017845714 0.028885232 0.03443716 -0.024861898 0.019083079 0.092531435 0.0016026567 -0.06267346 0.02108605 -0.053389993 -0.17202148 -0.031184051 -0.16531302 -0.10225614 -0.10721459
기억 -0.11040129 0.06912401 -0.0662832 -0.03721105 0.008775552 0.08043318 -0.012483576 0.10895179 -0.12556854 -0.09357404 0.018601831 0.16957954 0.10332453 0.16981268 -0.032547332 0.08996795
한다 -0.015270675 -0.041134648 -0.08788724 -0.035940845 0.017515138 0.045171145 -0.0818414 0.041504197 -0.031105421 -0.022054257 0.059024405 -0.00018220616 -0.023564497 0.032854255 -0.004109076 -0.0054659615
ㅎㅎ -0.11444735 0.13965262 -0.16716269 0.009167526 -0.0015195017 0.14390786 -0.014857756 0.11326253 -0.1529996 -0.095198825 0.09056791 0.06754494 0.24093851 0.044598754 -0.06810653 0.06735208
연출 -0.0115907695 -0.08357965 -0.03416602 -0.05223934 0.0024078866 -0.037040435 0.014719627 -0.08414623 -0.019431457 -0.026893325 -0.08093693 0.06595429 0.08729923 0.10957929 0.13620004 -0.009365107
때문 -0.03286289 -0.022235667 0.075751536 -0.061293475 0.039959095 0.055066977 0.107937135 -0.01548035 0.04086387 0.0393687 -0.058856625 0.118605494 -0.02786408 0.030748703 0.008530399 0.03757257
이나 0.038253117 -0.035086274 -0.0004887307 -0.0548605 -0.07739245 -0.079172134 0.076392815 -0.031833388 0.027855117 0.022030758 -0.05738424 -0.031820595 0.107229754 -0.11935703 0.07216407 -0.027713086
요 -0.0987671 0.029941868 -0.044031195 0.030328402 0.069775596 0.1191003 0.05216921 0.14492185 -0.09100252 0.021316856 0.07991789 -0.04908993 0.16660857 -0.05349025 -0.088121556 0.017016942
저 -0.029981023 -0.012585995 -0.10252663 -0.15755634 -0.02552969 -0.023150248 -0.007847755 -0.072127186 -0.007822483 0.037621092 0.078234725 0.043361593 -0.09686638 -0.022817548 -0.032670055 -0.06628092
재 -0.016709583 0.01672722 -0.09501803 -0.09263624 0.11566941 0.035818435 -0.06690646 0.11380188 -0.07754325 -0.031355985 0.10960444 0.09838175 0.049657207 0.07359956 -0.09993417 0.09737317
꼭 -0.08150178 0.13533346 -0.09778157 -0.1506099 0.022041151 0.13746282 -0.20028576 0.020137297 -0.15395054 -0.19139464 0.14099713 0.11499377 -0.12526508 0.124459475 -0.100625284 0.083747886
랑 -0.010950512 -0.013491163 0.077328295 0.04264138 -0.0042098425 0.036688346 0.07027942 -0.04777535 0.06386498 0.012421949 -0.035780903 0.056285657 -0.004868864 -0.00013643019 -0.011138412 0.007809274
며 -0.01196919 0.050381437 0.04981187 -0.0620546 0.05019692 0.07532565 0.03634019 0.012553334 -0.03927871 0.042673133 0.010517783 0.0474745 -0.009820362 -0.08866674 -0.06543236 0.007996837
현실 0.030108746 0.09369059 -0.12955312 -0.14890072 0.09185567 0.111459956 -0.075262494 0.14333904 -0.08110465 -0.122763045 0.12324689 0.13866128 -0.16542691 0.012706206 -0.101855986 -0.0018568169
ㅡㅡ 0.033495743 -0.0037223068 -0.005241231 0.17691967 -0.083002575 -0.10199511 0.052532174 -0.084357925 -0.004797388 0.13621564 -0.09915668 -0.22749287 0.029729953 -0.19180228 0.009892453 -0.08351261
긴 0.1976884 -0.03578559 0.06886498 0.06453317 -0.016137999 0.00484263 -0.02575729 -0.041967563 0.12773627 -0.039495274 -0.046290915 0.121365696 -0.17220156 -0.013232594 0.08818066 -0.12949409
무슨 -0.0093599465 -0.13554363 0.027924925 0.013905718 -0.11115176 -0.09888618 0.08515967 -0.04540763 0.060550466 0.062089536 -0.11572962 -0.13759619 0.122511506 -0.13316001 -0.0259408 -0.022301765
마음 -0.106046475 0.07167321 -0.106574826 -0.066154286 0.08763554 0.026389051 -0.094613075 0.009413383 -0.09855547 -0.04345463 0.09272513 -0.07096228 -0.12654111 0.15723942 -0.09027149 0.0033355867
내내 0.00052001583 -0.06647564 -0.03556449 -0.06699911 0.023123518 -0.04660921 -0.07516488 -0.095149934 -0.010107407 0.040430557 0.032520298 0.028420433 -0.029809862 0.039563954 0.037691534 -0.008925184
굿 -0.2429619 0.20506105 -0.10109219 -0.30000848 0.25226143 0.03428035 -0.11758165 0.19022508 -0.09098419 -0.12931089 0.12927938 0.18402137 -0.14996155 0.15068007 -0.1552108 0.16680242
결말 -0.086240076 0.014327371 -0.11199607 0.056733772 -0.0883339 0.020223405 0.022070087 0.06022722 -0.09961396 0.0121351 0.0038349344 -0.054644216 0.08796669 -0.077343926 -0.05802503 0.06260783
죽 0.0037670129 0.027546791 0.064830944 0.016297711 -0.019330448 0.0012519839 0.064695045 -0.081578225 -0.059307504 0.0040435297 0.014147749 -0.08231062 0.058473103 -0.12578243 -0.056890648 -0.008714995
남자 -0.02721385 0.013400571 0.020223642 -0.09183732 -0.023297088 0.032845635 0.017196601 -0.002907311 -0.08511876 -0.022185536 0.064517714 -0.06266976 0.010659586 -0.07387312 -0.04283908 0.0472038
세요 0.05955654 0.08866839 -0.014149263 -0.024108235 -0.019563532 0.0380406 0.02603347 -0.052838475 -0.0076568816 -0.011515789 0.052517887 0.012828865 -0.0074816076 0.02308105 -0.0096640745 0.01391877
전개 0.034963973 -0.07940599 0.0033703893 0.012009509 -0.10367686 -0.061577313 0.052540578 -0.08579462 0.018923996 0.052802596 0.0017589941 0.1081161 0.031555362 -0.057752945 0.10579146 0.00589289
속 -0.105079934 0.0043331864 -0.021232208 0.0011029603 -0.031842563 0.0033346922 0.0074290247 0.04836281 0.073665515 0.017517397 0.030213475 0.050997306 0.08029971 -0.020569121 0.037845716 0.009438727
소재 0.1880499 -0.016498694 0.14019173 0.18564 0.06246566 0.03524043 0.12567088 0.01993563 0.086501926 -0.017776132 -0.026990332 0.08068086 -0.049123615 -0.022058515 0.10902305 -0.14987676
짱 -0.21928842 0.06228879 0.011213317 -0.17083627 0.1413084 0.097058766 -0.011950071 0.15319294 -0.17614548 -0.16425064 0.10996005 0.2271214 0.12211591 0.20807354 -0.069087245 0.23430325
인생 -0.013586999 0.15942873 -0.09584605 -0.03888007 0.04749586 0.21285263 -0.113973804 0.07622421 -0.013022524 -0.07295687 0.10249957 0.08725202 -0.2902676 -0.10421126 -0.16289808 -0.034029644
공포 -0.011557762 -0.08005742 0.06563829 0.027363615 0.0042642066 -0.07111406 0.03623796 -0.08444092 0.042836994 -0.0013774073 -0.02302161 0.00788106 0.044414457 -0.025238961 0.071448974 -0.022730509
다른 0.03832231 0.0407147 -0.01491891 7.562638e-05 -0.0051769232 -0.010640001 -0.005953831 0.020324366 -0.080650695 0.021202454 -0.0053914837 -0.21976939 0.033393532 -0.0013043464 -0.054196835 -0.04597217
아서 0.049302246 -0.045743495 0.020239422 0.035429474 -0.023015743 -0.12506904 -0.051316086 -0.12232035 0.050151158 -0.061049204 0.06175576 0.01753397 -0.059543498 0.18672611 0.05470001 -0.052655958
씨 -0.052861277 -0.0059034964 -0.049200147 0.06901611 0.0016214419 -0.030121824 -0.032685485 0.048472796 0.0046282406 0.077525675 0.0016217231 -0.16088343 0.09460133 0.00023802914 0.009503562 -0.008358036
~~ -0.084635794 0.061039045 0.05001805 0.07672614 -0.004549481 0.0049283984 0.03898787 0.04505745 -0.17481175 0.022183591 0.051483013 -0.058248088 0.22515562 -0.03194648 -0.019200856 0.04735595
짜증 0.22303922 -0.18604302 0.202588 0.1686443 -0.08784423 -0.1777964 0.17979197 -0.23616022 0.21165963 0.17780589 -0.29927367 -0.27609882 0.11388627 -0.104701385 0.13480605 -0.1564618
은데 0.08047675 0.007184299 0.04607787 -0.06152835 0.037512574 0.12181204 -0.019782223 0.034508865 -0.0053625647 -0.09832772 0.029045787 0.096334845 -0.1821995 0.038171086 -0.0043969657 0.013020826
아요 -0.043683253 0.06936931 -0.08276247 0.049675554 0.010272518 0.06704147 -0.067741655 0.12645784 -0.08782831 -0.09955052 0.017873254 0.04548312 0.12445978 0.089442894 -0.018418139 0.02139174
뿐 0.08828266 -0.11830283 0.08302944 0.0493899 -0.014611665 -0.029494831 0.056154337 -0.11762761 0.086150564 0.021471176 -0.06304537 -0.029703591 -0.030841231 -0.11698857 0.08067928 -0.025674893
필요 -0.015431479 0.23648903 -0.057265274 0.08320772 0.065071255 0.16679655 -0.06838688 0.114008695 -0.2329615 -0.04259102 0.075333156 -0.4113578 -0.15870434 -0.03821348 -0.119041435 -0.0057409317
별 0.04737759 -0.054135762 -0.13186109 -0.05930434 0.0050719697 -0.09490445 -0.069819175 -0.052789208 0.056074116 0.059591353 -0.059444346 -0.007854682 0.06268979 0.08697391 0.0931867 -0.0006668434
유치 0.24450946 -0.092222676 0.03347341 0.13886797 -0.20284608 -0.16220988 0.0387342 -0.20783752 0.15296154 0.11735781 -0.14000182 -0.092649326 0.07960818 0.018628556 0.32061324 -0.15989631
가장 -0.058628798 -0.02064199 -0.13022505 -0.019765057 -0.015119 -0.08829234 -0.03633244 -0.020994673 0.07256082 -0.035024464 0.048607636 -0.028716592 0.054470785 0.07496827 0.07569487 0.03278699
음악 0.015516426 0.089069836 -0.08200914 0.024826856 0.06762503 0.10336377 -0.09661438 0.078749746 -0.025446672 -0.10125749 0.071615465 0.020498432 -0.14926204 0.024963383 -0.049034152 -0.044761736
) -0.02997137 0.03294762 0.04481033 -0.07044797 0.047733575 0.025938109 -0.0063188034 -0.044830035 0.008374582 0.026497124 -0.023971366 -0.027313026 -0.019445019 -0.024028625 0.025709832 -0.01526007
일본 0.09305928 0.039691877 0.054936565 0.05271505 -0.076160476 0.023812978 0.019067196 -0.051032905 0.01759772 0.06313408 -0.05004789 -0.11839426 -0.009740977 -0.015512551 0.055875544 0.01759355
낮 -0.17206542 0.18558964 -0.35311455 -0.08513758 0.11680643 -0.0067003327 -0.18114434 0.19630237 -0.24737954 -0.092005275 0.1513272 0.15675332 0.13856465 0.21425852 -0.086168975 0.1603413
아이 -0.032909565 -0.02714685 -0.01524174 0.007501793 0.0052641924 0.065910645 -0.060607895 0.0041608703 -0.039467588 0.011521113 0.07805152 0.0308078 0.029073382 0.014025166 0.0026779987 0.020452527
;; -0.012222091 -0.043444537 0.03648918 0.0054850047 -0.03687864 -0.13070215 0.100660436 -0.08263283 -0.021190207 0.062283613 -0.057544235 -0.13536541 -0.081025966 -0.31352377 0.0023750062 -0.016005179
오 -0.04407118 0.006120606 -0.008884955 0.038468387 0.034923624 -0.04233403 -0.040483702 0.005536478 -0.026262246 -0.044418816 -0.023934647 -0.042692054 0.04346495 0.0346299 -0.0087948805 0.03796453
반전 0.016283024 0.004619809 -0.029711334 0.0030176262 0.0866631 0.01394754 -0.124398656 -0.021503367 0.046008233 -0.073241524 0.051360138 0.071989596 -0.14063175 0.06927647 0.02324667 -0.01499111
매력 0.067297526 0.0069401325 0.07246856 -0.08878285 0.13122037 0.023018839 -0.06015149 0.05905727 0.054845132 -0.034613814 0.04511626 0.33118916 -0.2911176 0.13629955 -0.05153629 0.111593835
수준 0.13050877 -0.10931403 0.10779094 0.16247529 -0.102056384 -0.08228596 0.11452649 -0.075290546 0.06962441 0.09741305 -0.0916973 -0.21707702 0.018731538 -0.1483736 0.031282738 -0.09926114
다니 0.06849407 0.05193496 0.0043212436 0.08850548 -0.04286904 0.031785842 -0.011532212 0.029153384 -0.04430216 -0.01952334 0.031732276 -0.020659668 -0.1687816 -0.053267512 0.0032582302 -0.0371511
밋 -0.03279255 0.09172851 -0.053705342 -0.036085203 0.16608267 0.003831305 -0.08007821 0.13667724 -0.12733512 -0.04561937 0.095592335 -0.056146514 -0.1665769 0.04574424 -0.092892654 0.0031385364
웃 -0.017801363 0.0725702 -0.11571587 -0.033522546 0.040371835 0.04353742 0.029217247 0.06585296 -0.08032986 -0.0075600897 0.016259203 0.06485744 0.056311894 -0.056398485 -0.028438695 0.015710227
맞 0.0010506269 -0.047420535 0.05486087 0.027739082 0.015591005 -0.02594521 0.12592183 -0.025400206 0.057425536 0.05853066 -0.07341144 0.049014382 -0.01596885 0.061317578 0.02056582 0.018662691
인지 0.0010693006 0.011355968 -0.0052466937 0.041455355 -0.030885132 -0.0077391993 0.05998678 -0.09145746 -0.030417994 0.03746549 -0.028947903 -0.123863995 0.05242729 -0.16075566 0.0016233278 -0.021423323
가슴 -0.19130224 0.15416153 -0.059330445 -0.12785581 0.07574196 0.21435094 -0.08724331 0.13278878 -0.20202875 -0.06467729 0.13511096 0.11784511 0.009345075 -0.0047562765 -0.19268128 0.10384391
없이 0.09621467 -0.0749127 -0.03127268 -0.058948215 -0.060658254 -0.0225372 -0.107741 -0.16810797 0.13100894 0.011076849 -0.055306204 -0.0044724806 -0.17312698 0.02880342 0.11575646 -0.06315257
원작 0.02369463 -0.084008485 0.022784106 0.045381173 -0.12674648 0.049153093 0.12726872 -0.08765018 -0.045154378 0.048840433 -0.052072987 -0.09457406 0.08279286 -0.19870982 0.021342339 -0.036622304
높 0.1339061 -0.16442335 0.14721602 0.015333836 -0.08384521 -0.07856079 0.029486736 -0.19929163 0.17561606 0.058028445 -0.012397961 -0.033905707 -0.09351571 -0.11076235 -0.019316634 -0.13688509
ㄷ -0.00985554 0.029782286 -0.0042127254 0.10284693 0.015749974 0.039568875 -0.035824228 0.029297644 -0.04106806 -0.04433821 0.02212103 -0.006866803 -0.011556468 0.079182446 0.020345407 0.027994467
인간 0.052856527 0.08727795 -0.105908334 -0.08548695 0.010297713 0.08847923 -0.10765813 0.032699786 -0.0521856 -0.017675115 0.032687556 -0.039301068 -0.11606551 0.06366272 -0.07505267 0.038070913
데 -0.015933393 0.006676535 -0.042488076 -0.018478122 -0.041994777 0.011097804 -0.031317636 -0.082564786 -0.016226657 -0.06982162 0.035747226 -0.04653801 0.04720327 0.031547982 -0.03352307 0.055652656
ㅠ -0.009459509 0.09095105 -0.09451313 -0.045118786 0.044784285 0.059992842 0.0513347 0.081051424 -0.039476093 0.0035886576 -0.012651976 -0.03833403 -0.044074934 -0.021100838 -0.0615025 0.04703815
( -0.06144316 -0.013319475 -0.051568665 -0.05887337 -0.03666058 0.05037432 0.0131352525 0.06989482 -0.0872603 -0.0043822476 -0.0151335355 0.052275002 0.07709866 -0.024831196 0.033492796 0.039420184
노 0.16004829 -0.17012273 0.22947977 0.1644977 -0.22614306 -0.16851106 0.42022327 -0.021289952 0.2707216 0.23065582 -0.27446407 -0.19378665 0.25090986 -0.33338207 0.17901525 -0.25574654
만드 -0.02861939 -0.0706141 -0.018097006 0.02086922 0.019985707 -0.0043017375 -0.0061505847 0.0022253438 0.07223954 0.006134112 0.014361398 0.0692566 -0.0015939111 -0.010400591 -0.0037301427 -0.034151297
급 -0.08812291 0.004072894 -0.0018170291 -0.017444847 0.0011949661 -0.026536763 -0.021691361 -0.048629776 0.07249348 0.042733546 -0.030571178 0.044647444 0.049176544 0.035070967 -0.060882136 0.0370335
눈물 -0.22301425 0.12596999 -0.02083661 -0.049803693 0.17754546 0.101134665 -0.09837964 0.029615758 -0.19306898 -0.042223185 0.16099547 0.07349262 -0.007623504 0.07990194 -0.22762224 0.2297156
준 0.008224755 0.020772334 -0.016456332 0.07647957 0.0030188677 0.10281035 0.050390653 0.07727831 -0.060280748 -0.09205677 0.058204576 0.11611204 0.04008869 0.038542323 -0.016003346 -0.058803067
보여 -0.051501583 -0.023551846 -0.023212042 0.07983802 0.008069834 -0.036851004 0.04920473 -0.06996838 -0.022751702 0.0126095 0.03577275 -0.14294863 -0.0033687695 -0.06278029 -0.031244546 -0.04122067
용 -0.04412217 -0.028269034 -0.02634577 -0.03022311 -0.047037024 -0.017026331 0.033513416 -0.04383461 0.020360032 -0.006052607 0.009305196 -0.0096849445 0.05722019 -0.06627597 0.010371121 -0.04078804
찍 -0.042250134 -0.0311515 0.08807366 -0.009762428 -0.030549 -0.047338873 0.06866622 -0.013582107 0.0009404945 0.06234497 -0.06189842 -0.050917793 0.16361767 -0.05175632 -0.036403395 -0.012471394
인가 -0.011403301 -0.038399126 0.07261374 0.103470996 -0.035158828 -0.08893715 0.054250393 -0.053379603 -0.035917934 0.0758244 -0.07003639 -0.18124251 0.0046597756 -0.06478809 -0.030686269 0.00672251
을까 -0.012453137 -0.045730513 -0.030271117 -0.00047144387 -0.04552291 0.045393154 0.013806599 -0.019810082 -0.048068292 0.00323236 -0.038257454 0.014007987 0.015313811 0.0014948304 0.012860246 -0.023936309
코미디 -0.01846232 -0.005222497 0.06975011 -0.0052108695 -0.018996242 -0.04622884 -0.004089742 -0.092771105 0.012033664 0.04122686 0.008890856 -0.050353445 0.05523583 0.04192793 0.030690951 -0.015579309
마 -0.007490051 -0.05476099 -0.030269803 -0.020543126 -0.06458946 -0.030821314 0.002251776 -0.12957816 -0.001157593 0.0781755 -0.034207392 -0.14671898 -0.05120734 -0.0882412 0.03524977 -0.096744016
화 -0.044479877 0.0073881173 -0.038474374 0.15158072 -0.056592796 -0.02719344 0.060782116 -0.10427817 0.042119257 0.099400304 -0.009526715 -0.09260911 0.06405797 -0.063800775 0.03788297 -0.018236985
신 -0.14718704 -0.0085046375 0.010764635 0.05500232 -0.04745203 0.05173986 0.028265243 0.08686219 -0.11934918 0.02812006 0.047895104 -0.032174926 0.106072664 -0.06541544 -0.10781529 0.029097294
여 -0.037893254 0.040302087 -0.09743245 -0.01707608 -0.06266266 0.047378633 -0.051718146 -0.08609037 0.009910252 -0.03257794 0.06522524 0.0425773 0.09653496 0.047528464 0.06397764 -0.0044152415
모든 -0.088494845 0.016274773 -0.0900183 -0.019319212 0.06164436 -0.009819444 0.0034867497 0.017066807 0.0016791227 -0.035219315 0.008405022 0.057653006 -0.0089032445 -0.004646515 -0.024116343 0.06383412
쓰 0.03082105 -0.070227504 0.07585447 -0.04578395 0.015319197 -0.095640086 0.046287112 -0.05078593 0.026108539 0.047338367 -0.102353774 -0.06401602 0.001493837 0.015870972 0.06222549 0.0064641694
아직 -0.054664727 0.01043717 0.021776825 -0.08826648 0.07895444 0.0993562 -0.016123965 0.008815678 0.023490528 -0.07117938 0.078421146 0.36059642 -0.078339875 0.07714273 -0.056499273 0.124714516
5 -0.0647923 0.04743175 0.042627893 -0.06577713 -0.020934533 0.09346297 0.04571713 0.07685355 -0.039693892 -0.05884111 0.0043242155 0.135574 0.06528253 -0.034235775 -0.14083165 0.060099646
추천 -0.03745788 0.049681667 -0.069548935 -0.031659916 0.03716004 0.21382189 -0.068958774 0.13772248 -0.13277061 -0.12074264 0.13615607 0.12664843 0.041377287 0.10389183 -0.056393605 0.08456441
처럼 -0.015168226 0.019893713 0.019578973 -0.13169986 -0.056599904 0.042243097 -0.06815604 -0.038826883 -0.05601173 -0.024648087 -0.0037926415 0.044923592 0.034231495 -0.028865736 0.001793505 -0.030981753
눈 0.022629373 -0.051798444 0.03600575 0.08706157 -0.02810169 -0.024887474 0.015337014 -0.05192851 -0.023755215 0.10166617 -0.07090046 -0.24854478 -0.085218534 -0.07173177 0.04667585 -0.117367685
아닌 0.12104391 -0.11957585 0.039100427 0.013004147 -0.07501984 0.06630174 0.03304979 -0.067932606 0.122886226 0.07042217 -0.05467799 0.09859816 -0.12829417 -0.1511661 0.05612094 -0.11887348
자체 -0.03293282 -0.08214449 -0.016407203 -0.014319571 0.011197932 -0.012793369 -0.017651493 0.0026921548 0.0363335 0.039251816 0.018032163 0.11993379 0.0996656 -0.021969626 0.0050610597 -0.014255497
4 0.083422214 -0.06287921 0.00950362 0.05235887 -0.07278239 -0.036517385 0.015250208 -0.058759104 0.0072442777 0.030137883 -0.08277038 -0.07980556 0.04543376 0.031108437 0.09598615 -0.041379035
울 -0.12997152 0.14655197 -0.08331819 -0.19586648 0.079580836 0.19632876 -0.07706689 0.22128434 -0.22758721 -0.1323466 0.21397337 0.1326713 -0.08376891 -0.05600747 -0.25084734 0.07536383
대박 -0.08642239 0.15352553 -0.054531347 -0.1269488 0.16987559 0.05392865 -0.06190976 0.15405324 -0.10275903 -0.1771939 0.12716371 0.12442495 -0.14759655 0.1601328 -0.16279711 0.10112756
몰입 -0.086545035 0.06575828 0.0086404 -0.0881748 0.09194526 0.010136618 -0.025224783 0.0031988984 -0.03258747 -0.07980654 0.002937625 0.17729092 -0.05860851 0.20994183 0.028996654 0.14526832
몇 -0.18829328 0.016343962 0.035872526 -0.017046653 0.08247773 0.020374319 0.061419584 -0.033285942 -0.057067916 -0.10708248 0.024109537 0.056809764 -0.035940416 0.07880928 -0.14633559 0.10375715
실망 0.2740379 -0.049377836 0.11642537 0.24783917 -0.1473674 -0.18548085 0.13454531 -0.25376302 0.08464229 0.29701343 -0.19057406 -0.5244141 0.084908925 -0.31821927 0.060743295 -0.22517575
스럽 -0.014826248 0.04072447 -0.07920715 -0.014397495 -0.011432566 -0.049403194 -0.0012089873 0.055403918 0.021583429 -0.018196441 0.016976913 0.032590866 0.12728778 0.08470862 0.14595896 -0.014411862
는다 -0.08334845 0.0862712 -0.056819405 0.12907888 -0.008951251 -0.028070888 -0.10786157 0.065503515 -0.051102098 -0.036469948 0.0065224813 -0.07143643 0.23384996 0.17943808 0.06749625 0.053011704
대한 -0.116049565 -0.026019732 -0.0013863615 -0.09163739 0.07697801 0.080971904 0.030718217 0.024811238 -0.08289832 -0.050927665 0.0627754 -0.04662372 0.058735173 -0.05584132 -0.13738617 0.031700283
죠 -0.0029227166 0.03397646 -0.08951353 -0.0587625 0.03491472 0.0629241 -0.14246243 -0.000517857 -0.038155645 -0.081829876 0.09410556 0.08241077 -0.21002147 0.21277034 0.0140085835 0.025344003
란 -0.0809775 0.008570396 -0.11116866 -0.014673337 0.018631354 0.016668053 -0.06735564 0.02500724 -0.0846606 -0.05207748 0.05426685 0.06865418 0.11219441 -0.0011420366 -0.055007357 -0.02993661
그런 0.0457839 -0.05965072 -0.010824938 0.048923552 0.02298121 -0.033751495 -0.036533944 -0.04598244 0.04742922 -0.016652828 -0.06448897 0.0024175593 -0.01051243 -0.0024503935 0.058899898 0.028531011
솔직히 0.09137102 -0.05145551 0.019870091 0.03590167 -0.013067825 -0.055786222 -0.0021152361 0.019756328 0.10533455 0.060810976 -0.019733232 -0.048544243 -0.013050728 -0.108033046 0.046274237 -0.106351085
ㅎ -0.07912684 0.046470765 -0.14541085 0.009273545 -0.0042108465 0.09809208 0.04998754 0.120816596 -0.092538685 -0.024236197 0.09154054 0.09162388 0.34978873 -0.011817807 0.023213597 0.12814204
캐릭터 -0.08553011 -0.0510612 0.0831305 0.03577317 -0.0627678 -0.021431243 -0.009031432 -0.10966704 0.025085712 -0.002360981 0.0014274829 -0.040642276 0.06938525 0.062465034 0.0074992464 0.035494942
아주 -0.009589399 0.002100078 0.10596452 -0.08304366 0.087820165 0.088355824 0.052974977 0.08552561 -0.0058836504 -0.036504336 0.021022031 0.15805581 -0.017868793 -0.030702533 -0.13181238 0.055507306
모두 0.0026810563 0.013812633 -0.021838177 -0.12855145 0.048253134 0.0022371595 -0.09312313 0.04541888 0.05243986 -0.08261957 0.042802226 0.2862146 -0.11813573 0.12640253 0.024100741 0.104049765
- 0.0073234793 -0.03063202 0.043889426 0.001974321 -0.0883348 0.07627439 0.053086713 0.045959007 -0.0012623372 0.07850279 0.017076708 -0.028565073 0.06867117 -0.08630892 0.02650087 0.023923647
가족 -0.0567544 0.053657025 0.062057678 -0.060304374 0.040926896 0.059617404 -0.034679383 -0.0020964316 0.015514842 -0.03592274 0.048228063 0.15539555 -0.087647125 0.036105007 -0.01999345 0.06274105
여운 -0.21239012 0.24786569 -0.0564735 -0.26425096 0.24082477 0.26004922 -0.13529189 0.13308018 -0.24867624 -0.21538231 0.18279988 0.23361622 -0.2851199 0.24786244 -0.2120321 0.3220067
건지 0.02401788 -0.046088807 0.0077140415 0.010410795 -0.09879782 -0.05578012 0.07066684 -0.08506453 0.022693109 0.055893306 -0.11373287 -0.031905457 -0.026087336 -0.036635127 0.07256287 -0.040820003
전혀 0.051511582 -0.036468342 0.16199577 0.14588648 0.029426733 0.06385617 0.11275485 -0.055848066 0.037826296 -0.00017845549 0.08370929 0.1142332 -0.073652476 -0.15998863 0.0063929604 -0.023125835
연기력 -0.06625266 -0.001879104 -0.03893072 0.00012739358 -0.009295831 -0.05623848 -0.012814623 0.02090712 -0.043478057 -0.049954448 0.001061104 0.024079282 0.07448156 0.064674795 0.06790539 0.0007583898
나라 0.012268121 -0.004343978 -0.057390146 0.008336345 -0.051484197 -0.005753374 -0.030151775 0.043141983 -0.04118329 0.07612689 0.032676373 -0.08998453 0.034026865 -0.060297754 0.01611669 -0.08658549
후 0.0429862 -0.061505396 0.025957601 0.06480573 -0.09960824 0.021514341 0.019197743 -0.04413697 0.032782182 0.0066635725 -0.007092686 -0.01564847 -0.011785172 -0.25117993 -0.010564941 -0.05828384
다면 0.08303941 0.03539107 -0.015119335 0.101316266 0.006843446 0.07570469 0.07058237 0.083814345 -0.037636038 0.06509283 0.008082505 -0.11878959 -0.02971684 -0.09901959 -0.018466508 -0.018840121
될 0.05755616 -0.008792054 -0.008746999 0.026112728 -0.005028553 0.05330177 0.08136185 0.046037514 -0.0025870348 -0.056046054 0.008570139 0.092146434 0.08995637 -0.035060592 0.0676643 0.013327191
뭔가 -0.12342429 0.01974647 -0.005991084 -0.031147601 0.052999463 0.0044250134 0.0037671297 -0.010582679 -0.05724517 0.010641836 -0.0024031375 0.07391866 -0.021785082 0.081788845 0.015348921 0.054938156
그래도 -0.016500477 -0.0051927385 0.1457039 -0.090940945 -0.007883514 0.107016504 0.098494 -0.054162025 0.023770103 0.009825058 0.06058029 0.09505992 -0.17694126 -0.12462159 -0.18871492 -0.029832045
; 0.106577136 -0.07545036 0.048712656 -0.026697438 -0.05641863 0.029586177 0.047631267 -0.025335278 0.029035347 0.08541234 -0.02024632 -0.067721546 -0.10678201 -0.050765403 -0.019979341 -0.05241199
시리즈 -0.018890783 0.024452327 -0.0134723615 -0.03541807 0.014648387 0.053969447 -0.03043181 0.08616639 -0.008751168 -0.026683796 0.06563436 0.026753336 0.022502411 0.11688974 0.020753793 0.08490795
근데 0.0074139386 0.109668165 -0.1746242 -0.023249896 -0.04108453 0.022658162 -0.050680753 0.035947643 -0.11178324 -0.022344941 0.058819436 0.008666472 0.0040806537 0.020312468 -0.06566029 0.0013891398
작 -0.044642314 0.0345818 -0.11098859 0.035660528 -0.076275885 0.042924304 0.0026546598 0.12301162 -0.11497574 0.037857663 0.042510144 -0.08074298 0.055611797 -0.105247185 -0.030293653 -0.043946594
표현 -0.06812538 0.03751244 -0.012188185 -0.0071469126 0.04280013 0.23991786 -0.06305042 0.08218571 -0.04654635 -0.15280293 0.17806774 0.20199208 -0.32619336 -0.0017060372 -0.10587313 0.004858285
모습 -0.14771897 0.019601434 -0.09037368 -0.09611575 0.07127818 0.047570486 -0.029709844 0.04316905 -0.07097362 -0.03433117 0.08858398 0.19217499 0.0625697 0.056489628 -0.028765768 0.074733816
공감 -0.10166368 -0.024763623 0.08051497 -0.06434836 0.04070338 0.08525497 0.08832654 0.011780566 -0.019251639 -0.019363843 0.029755652 0.205703 0.033692904 0.05147841 -0.059888646 0.17595917
계속 -0.13184749 0.0076298253 0.10075924 -0.0005152486 0.14456064 -0.066861376 0.0040838225 -0.014029401 -0.06119337 -0.012792539 -0.020340828 0.0023677694 -0.008984855 0.15574887 -0.0298481 0.12125823
먹 0.05939822 0.022149887 0.04866639 0.10475808 -0.03617083 0.0751156 -0.0059512323 -0.008562118 -0.016155403 0.03462214 -0.026708879 -0.04322545 -0.015477243 -0.06882105 -0.0037955581 -0.036926422
"" 0.10804775 -0.034154147 0.087415464 0.036892682 0.007034705 0.027969223 0.010826112 -0.014226345 0.047459103 -0.048656162 -0.021744411 -0.013559754 -0.14182658 0.012716652 -0.0023504065 -0.052483242
제목 -0.07813944 -0.021618668 -0.052737355 0.06366452 -0.076356396 -0.009466258 0.015514151 -0.009474631 -0.051789705 0.095254205 -0.026915088 -0.036254287 0.14248057 -0.19310334 0.013449556 0.027528886
7 0.06355969 0.07567072 0.015554121 -0.08581337 -0.027070113 0.14566308 -0.031874884 0.063280925 -0.071115226 -0.08952757 -0.015260335 0.011357326 -0.13362686 -0.0821915 -0.06581756 0.029413754
이랑 0.02789557 -0.04850914 -0.068723045 -0.03484577 -0.040312596 0.023268554 0.0060414406 -0.08046474 -0.0026687866 0.023397803 -0.034901325 0.017197927 0.0762357 -0.015326828 0.048712175 -0.08144972
극장 0.10120581 -0.05506679 0.030133335 0.08806461 -0.080558054 -0.01920117 -0.025508182 -0.09902012 0.08381958 0.013648071 -0.05415554 0.035929188 -0.031367127 -0.0845686 0.05720131 -0.05947829
치 0.09935196 0.026084835 0.10840101 -0.0055017155 0.013212439 -0.07180098 0.021708542 -0.08469227 0.08219451 0.034643527 -0.05103149 -0.11797585 -0.0628485 0.011661765 0.06109367 -0.07403983
비 -0.0012254997 -0.04466888 -0.07394384 0.051653523 -0.0962039 -0.042613655 0.084403425 -0.0070817806 0.007376838 0.055546496 -0.0007669469 -0.0032524003 0.11563363 -0.08967313 0.103284925 -0.081868574
이걸 0.12554698 -0.11004495 0.037262756 -0.10672827 -0.05108354 0.019900141 0.045164507 -0.022042843 -0.015522565 0.071407124 -0.049221445 0.13459586 0.11248231 -0.22633444 -0.013164199 -0.04038816
진 0.08134461 -0.013710461 0.04204531 -0.074332915 0.04732094 0.078701384 0.0056591243 0.11683669 0.06888694 -0.03249864 0.06434892 0.12866907 -0.19942527 -0.057206687 -0.015349858 -0.03017409
바 -0.05962314 -0.09487445 0.09731274 0.12579323 -0.11497782 -0.11541926 0.0979373 -0.04225752 0.11561189 0.14470513 -0.0828722 -0.079383045 0.20564592 -0.1372364 0.024775963 -0.060892638
0 -0.18112266 -0.15941711 0.18794478 0.024885088 -0.0030413077 -0.2200836 0.24870084 -0.020948736 0.07860825 0.12730297 -0.13046749 -0.11691671 0.38681522 -0.040981956 0.026606357 0.053185087
OO 0.12767872 -0.09895199 0.038953215 0.018859526 -0.05770081 -0.052436758 0.05984088 -0.11118464 0.13042066 0.0851508 -0.06328553 -0.017428031 -0.117163 -0.20986815 0.040717077 -0.110801846
그렇 0.044598836 -0.0054776184 -0.059107 0.054554958 -0.12763558 -0.06784242 -0.012797593 -0.1551161 -0.016525766 0.13957113 0.019080866 -0.27337503 0.0882949 -0.13502888 0.053005505 -0.14979857
대사 -0.06447965 -0.039277434 0.0014061767 0.08451057 -0.016476518 -0.07450927 -0.005329971 -0.007887846 0.044432886 0.022558112 0.0070620086 -0.059313856 0.041516546 0.07442961 0.097364426 -0.024927111
부분 0.020793192 0.008436994 0.12665676 0.038520854 -0.018212885 -0.023611438 0.064260274 -0.10594621 0.06936791 0.07004843 -0.07375932 -0.07882521 -0.069914244 -0.013499114 -0.030268557 -0.00014451524
개봉 -0.0009429002 -0.012311078 0.04880711 0.054475784 -0.0041588764 -0.059340026 -0.040695034 -0.055854313 -0.036762167 0.07527349 -0.08233012 -0.18497342 0.017947825 -0.0021656088 0.06601746 0.027220018
대단 -0.02616605 0.08613999 -0.049259767 -0.007548776 0.05907421 0.12876783 -0.039287448 0.05490011 0.010524586 -0.05618969 0.02879755 0.164074 -0.042313013 0.14598638 -0.02740098 0.061932243
어디 0.021555547 0.023300689 0.0795172 -0.010244436 0.026069375 0.018120455 0.021311732 -0.03283995 0.022503845 0.082984656 -0.011612098 -0.09048355 -0.08665344 -0.07772286 -0.03130358 -0.036220975
된다 -0.078299016 0.16233455 -0.14560921 -0.028827444 0.07914073 -0.07620917 -0.11110264 0.028094895 -0.1513187 -0.03818744 0.04454336 -0.060601804 -0.022097958 0.15120351 0.0059642163 0.04859835
작가 -0.1182042 -0.10273241 0.012495154 0.041243073 -0.105273604 -0.04140451 0.023548821 -0.08651207 0.025572097 0.0033401023 -0.03196648 -0.020178813 0.1642217 0.00044013362 0.035860967 0.071894765
기분 -0.07772685 -0.07575215 -0.031921856 0.12027234 -0.015010616 -0.16375874 -0.0017323841 -0.102001704 0.05239529 0.03667175 -0.04294745 -0.10501149 0.101252414 0.025601791 0.0795371 0.052696608
아쉽 0.00043874513 0.059255086 0.0034678346 0.00993925 0.054220922 0.031068768 -0.048060358 0.005155532 -0.07498397 0.017305166 0.02980777 -0.124328285 -0.22490382 -0.09451304 -0.10657228 -0.08285764
제 0.14178385 0.017365597 -0.020301038 -0.023251278 0.037415106 -0.0017969229 0.013459167 -0.0073643783 0.052760743 0.0028668789 -0.02786458 0.11808216 -0.10172572 0.10263135 0.09106707 -0.025055349
진심 0.009997402 -0.037859935 -0.034653638 0.018652255 -0.07559764 0.04590226 -0.01564912 0.057263646 0.02681737 0.0017092596 0.001302969 0.05465289 0.036545392 -0.094283 -0.011639595 0.013300982
타임 0.0021097679 -0.045123354 -0.046881184 -0.002695909 -0.01270455 -0.015107228 0.004300033 0.0139850015 -0.059283853 0.06192543 -0.013818834 -0.10391864 0.03266754 -0.07454844 0.051410474 -0.07552356
/ 0.026767418 0.006096134 -0.01786924 -0.028989373 0.032466214 -0.024256555 -0.010376295 -0.031081555 0.011608553 0.048041664 -0.024255687 -0.04771267 -0.061717477 0.11112902 -0.0018327348 0.03463052
놓 0.13164172 0.04220881 -0.100137 0.12556185 -0.108435504 0.023243614 -0.043961395 -0.009075946 0.01622983 0.0751092 -0.019358661 -0.2007058 0.002401802 -0.044194337 0.101880156 -0.17347357
웃기 -0.02046498 0.04130334 0.0110679185 -0.020576471 -0.041266482 0.07960833 -0.008986116 0.11048965 -0.026804691 -0.07618652 0.013509431 0.20956323 0.07702385 -0.014435614 -0.017557053 0.025478099
보이 -0.036737695 -0.022475995 0.077374905 0.007671548 -0.0075721974 0.06303666 0.11732914 0.06484641 -0.046232734 0.026027726 -0.0256841 0.02794294 0.05030859 -0.011050653 -0.052368596 0.03452433
해도 0.04466203 0.0044588824 0.060278416 0.009560573 -0.060121715 0.015248945 0.033837833 0.022113848 0.00553666 0.009951654 0.05899747 0.093367964 0.018112548 -0.0040193396 -0.0195923 -0.061529312
이제 -0.017076483 0.015403509 0.15669592 0.09545326 -0.038872954 0.028741747 0.051363394 -0.06224303 -0.011462553 0.10548786 -0.0756708 -0.20827723 0.0070028827 -0.008055622 -0.07168489 0.042761877
물 -0.0063366005 -0.0006093176 -0.08204796 0.053610183 -0.07610376 -0.054217603 -0.034984916 -0.05822759 -0.028297987 0.02743296 0.00821208 -0.012959734 0.043595806 0.029185198 0.08290138 0.014987329
봐야 0.0068700914 0.07727719 -0.03858671 -0.0750443 0.07016269 0.09170858 -0.040056333 0.051308066 -0.07360511 -0.030335335 0.055936642 0.05805991 -0.1411057 0.046733715 -0.0604348 0.036984827
막장 0.22921787 -0.14027192 0.04535089 0.021652738 -0.20696047 -0.110698976 0.0926161 -0.17997508 0.11467863 0.122385174 -0.18200399 -0.15525575 0.08352748 -0.22594517 0.17124575 -0.18889914
삶 -0.013321293 0.06927023 0.011403929 -0.08777086 0.163581 0.15083146 -0.14831701 0.030148858 -0.09301862 -0.1859832 0.055034738 0.18448785 -0.4356926 0.18647732 -0.08677542 0.10436105
친구 -0.022531508 -0.020272952 0.017738525 -0.06987959 -0.035610843 0.03692601 -0.013902708 -0.031515196 -0.024722623 0.0016621667 0.06805823 0.039090045 -0.023964917 -0.08571869 -0.087199226 0.023582602
잔잔 -0.010045802 0.070025645 -0.04635059 0.011780644 0.09404743 0.108066075 -0.125808 0.020441003 -0.021925999 -0.02089845 0.10371899 -0.08101336 -0.21018407 0.027768495 -0.080563106 -0.0015409938
씬 -0.005215837 -0.046117447 0.0014850029 -0.027267477 0.00114279 -0.027887601 -0.025819166 -0.042577244 0.003958447 0.003940503 0.0008762662 0.062081862 -0.009609583 -0.031291183 0.053007554 -0.0034295528
조금 -0.011603385 0.033783555 -0.119311735 0.0090015745 -0.0018031274 0.10308666 0.0183953 0.13773556 -0.107468195 0.011578634 0.028282927 -0.08665958 -0.039400626 -0.08105076 -0.07136923 -0.00062762666
딱 0.098861896 -0.034849975 0.06760937 0.015792722 -0.04002016 0.02275308 0.1412421 0.1068366 0.052509177 0.03330837 -0.013100541 0.13712062 0.016550058 -0.0780147 -0.061958738 -0.01989787
억지 0.13044438 -0.055465437 -0.038415473 0.35287058 -0.15327664 -0.12833978 0.11217286 -0.11152697 0.03619432 0.11721254 -0.19050217 -0.25340766 0.1740964 -0.15315579 0.18522155 -0.16985151
영상 -0.1172285 -0.07794757 0.09179305 0.068232186 0.010524721 -0.028328044 0.08565672 0.001047846 -0.031144487 0.06723066 0.06351741 0.030027084 0.118626274 0.0459494 0.05067662 0.03038428
찾 -0.021995245 -0.0015432825 -0.041221954 -0.029533649 -0.025498455 -0.01004354 -0.002394853 0.058699492 -0.085814245 -0.009272127 0.055964723 0.007201631 0.039585475 0.013433245 -0.013688694 0.025178358
요즘 0.003887613 0.13886678 -0.19498579 0.016731573 0.01656588 0.12205517 -0.092984 0.08067803 -0.12421407 -0.081629224 0.09413091 -0.064805046 -0.22111052 -0.0284763 -0.062388815 -0.039716113
같이 0.033475656 -0.033653483 -0.013143551 -0.011628718 -0.018287934 -0.02661457 0.035166405 -0.003233706 0.022143088 -0.025840638 0.021732636 0.0053730374 -0.05467121 -0.012660647 -0.026577106 -0.021079933
" -0.016874725 0.056833744 0.014728496 -0.060356405 0.0294182 -0.042221192 -0.06445311 -0.014735933 -0.084520854 0.013737015 0.06743624 0.024545887 0.053842817 0.17558838 0.00583528 0.089142345
중간 0.17925847 -0.099380136 -0.024218312 0.010078477 -0.12788913 0.00029678238 -0.027959358 -0.08352553 0.05027613 0.09761649 -0.13578832 -0.0010300857 0.04393095 -0.15161994 0.14409211 -0.10534442
구 -0.11759572 0.052225705 -0.04391234 0.042977344 -0.019616378 -0.030849006 -0.008896381 0.025258143 -0.05749027 0.014888223 0.071786016 0.008436893 0.054325406 0.06761699 0.02863568 0.030020652
스릴러 -0.045035586 0.016517727 -0.056050062 -0.075691976 0.07467595 -0.07013086 0.0054081213 0.048477504 0.03449388 0.0005955627 0.032303672 0.028450174 0.06965867 0.09533984 0.06431519 -0.0030054892
라도 0.034206122 -0.017810497 0.030461235 0.04429073 0.025955895 -0.097315885 0.046357386 -0.06671556 0.045576096 0.018733492 0.0011282352 -0.049323667 0.08096501 0.08243984 0.045045014 0.02773223
.... -0.06346164 -0.08404359 -0.018208966 0.047442686 0.011044313 -0.114243515 0.015506958 -0.10933858 0.038907673 0.018959025 -0.06941401 -0.040795874 0.065283686 0.037923217 0.12204526 -0.01572236
가지 -0.13373645 0.015929561 -0.009748586 -0.034880027 -0.0011675132 -0.020358184 0.0003367156 -0.039851565 -0.010232317 -0.011710603 0.008040454 0.070275836 0.07038654 -0.0884686 -0.05149663 0.07545016
8 -0.096845835 0.12838045 -0.038894705 -0.07038446 0.05237588 0.16208887 -0.075522184 0.06418635 -0.12383816 -0.15303786 0.1320575 0.017574193 -0.119404934 -0.10004162 -0.16887616 0.0024768305
믿 -0.10835805 0.046989284 -0.02349741 -0.0015003029 0.0076951436 0.05697079 -0.043242525 0.03712693 -0.08113882 -0.044090874 0.07142793 0.10409429 -0.029104147 -0.0016301197 -0.04125994 0.04737919
싫 0.23079957 -0.06259898 0.096045695 0.051852893 -0.12689741 -0.061614804 0.1514802 -0.051049672 0.067346126 0.122310795 -0.12374259 -0.13780014 -0.06008421 -0.2667909 0.085653074 -0.18185702
아까운 -0.09458946 -0.019137846 -0.012049183 0.20829496 -0.0826994 -0.19802825 0.06252604 -0.107341506 -0.024998099 0.124146506 -0.05069859 -0.27234745 0.13031672 0.0013995474 0.055311266 -0.0021919324
나왔 -0.054137908 1.5979866e-05 0.01984182 0.08257639 -0.0028696787 0.01499762 -0.032343317 0.024990551 -0.013564913 -0.0023350003 -0.009548156 -0.083793804 0.06905947 -0.08856755 0.020748964 -0.054271214
점수 0.066474676 -0.029690025 -0.04841004 -0.0062097413 -0.010103075 0.04425163 0.006075641 0.126174 -0.0058812243 0.0009091815 0.06843605 0.1599888 0.030573718 -0.02921525 0.034356847 0.006019806
긴장감 0.048537154 -0.10013338 0.008728668 -0.22608599 0.15113582 -0.11727348 -0.10654161 -0.05690774 0.18373834 -0.10528675 0.015306525 0.34939513 -0.09618629 0.27448273 0.05051549 0.1549965
부족 0.08734377 0.008433603 0.025324283 0.12818418 -0.07527539 -0.060681175 0.0152409235 -0.12012883 -0.01400428 0.087966345 -0.12502596 -0.2585472 0.012827855 -0.046845555 0.030443382 -0.06189976
개인 0.0074717095 -0.027915342 -0.008813852 -0.017200436 0.004593483 -0.019186795 -0.027530978 -0.0104340445 0.049632072 0.02526478 -0.032951348 0.088242084 -0.043433376 0.0150022935 0.01891918 0.041445665
제대로 -0.10672237 -0.025063457 0.08775185 -0.009894818 0.024129989 0.11476934 0.042751856 -0.04041991 0.042674568 -0.058872573 -0.026459472 0.15704978 -0.05414889 0.0762017 -0.085038505 0.08248733
노래 0.026310502 -0.0032010754 -0.025970617 0.0807009 0.032268 -0.01830134 0.022872364 0.08195861 -0.01757997 0.0007612245 0.012557245 0.0069793626 -0.013094687 0.09572323 0.1058397 -0.046741657
이유 -0.0154057415 -0.009817133 -0.10251674 -0.009954498 -0.078152195 0.08122072 0.08489038 0.06129713 -0.034305096 0.023113651 -0.03468223 -0.003558208 0.15514949 -0.1427721 -0.054449897 -0.03803771
만큼 -0.073147915 0.063155785 -0.031528283 -0.10035001 0.023485202 0.00584245 -0.08254591 -0.079130396 0.026996134 -0.03196174 0.04089874 0.045142855 -0.085349485 0.07872361 -0.006786949 0.076118134
라면 -0.073244646 -0.0069812676 -0.105506785 -0.029544294 -0.02540679 -0.008888152 -0.05185705 0.060192887 -0.07495295 0.011372315 -0.011608904 -0.04824806 0.15061422 -0.085456826 -0.015628839 0.014009136
시작 -0.12974748 -0.011204509 -0.05322874 0.047413133 -0.01371628 0.036083717 0.0053104414 0.020796264 -0.055127323 0.06830487 -0.017154789 -0.054493308 0.14414684 -0.10500464 -0.027253855 0.02922756
구나 -0.043169584 -0.018263666 -0.017829074 0.0690256 -0.041974623 -0.021985212 0.020666804 0.027363637 0.047581803 0.025579633 -0.011330227 0.019017525 0.101893604 -0.02265998 -0.010882577 -0.046071038
잇 -0.10609797 0.011366522 0.029086966 -0.08557642 0.01781253 0.07751496 -0.050328538 -0.043702155 -0.08907366 -0.036003623 0.0029478979 0.10645005 0.033637505 0.010040615 -0.014109319 0.019393303
특히 -0.13594493 0.04253162 -0.110277556 -0.07614234 -0.0025324575 -0.018837167 -0.14871351 0.007093819 -0.0450096 -0.07364026 0.08872703 0.091739975 0.06875504 0.10855651 -0.04888214 0.09750945
한테 0.027150901 0.018098146 -0.012653527 -0.0030139487 -0.045364477 0.043112814 0.033041526 -0.044134896 0.027889615 0.06283752 -0.035679553 0.030467782 0.049985982 -0.034173984 -0.073885866 0.0042557567
날 -0.012860793 0.09613916 -0.0718309 0.12981844 0.038300373 -0.045792583 -0.01309655 0.018671738 -0.05695248 -0.008559518 0.010755032 -0.14015737 -0.01464572 0.004400135 -0.044941455 -0.076712415
아름다운 -0.10389798 0.09968288 0.07693507 -0.21994707 0.3528146 0.14421509 0.0026468753 0.11806959 -0.09413287 -0.15903145 0.08805361 0.32862222 -0.22105066 0.32085612 -0.16483967 0.25487015
려고 0.08746322 -0.10722836 0.15583706 0.009767288 -0.033785935 -0.0051508644 0.13939156 -0.13100934 0.22922651 0.06550429 -0.092625596 -0.02554312 -0.10495119 -0.17654042 0.04062253 -0.12680496
제일 -0.029461123 -0.011634982 -0.033466846 0.026518958 0.045013174 -0.13606784 0.0011692842 -0.03666849 0.005127657 0.002236129 0.05883052 -0.028276704 0.00789181 0.11293327 0.011597134 0.015865747
시대 0.049258348 -0.005242758 -0.0144785885 0.015027807 0.042433966 0.058102455 -0.08877073 -0.004349554 0.10816521 -0.049960334 0.06796871 0.08033316 -0.08658927 0.0008080222 0.008145768 -0.015623355
ㅜㅜ -0.141819 0.029923942 0.0074957465 0.03583777 -0.0016271333 -0.04289493 -0.054215267 -0.009672091 -0.13722955 0.06228939 0.0060013365 -0.10676505 0.23861948 0.00575439 -0.06858412 0.06536099
어떻게 0.08223099 0.061420336 0.05258068 0.09019823 0.009077895 -0.0023930105 0.091232955 0.058354534 -0.100423485 0.0283376 0.009223453 -0.15591744 0.010842013 -0.027313253 -0.048046384 -0.019753704
엔딩 0.020821664 0.01635395 -0.056307267 0.09275717 -0.05309623 0.027721036 -0.034818616 0.035034604 -0.17440732 0.0026635497 0.017022999 -0.18085618 0.06619129 -0.04417131 -0.0042689233 -0.049213145
당시 0.041948985 0.0058362633 -0.0702217 0.08718148 -0.05947872 0.020332934 0.02512089 0.03542291 0.024597734 0.00428127 0.066806845 0.007208195 -9.148716e-06 0.03570837 0.09191479 -0.088841654
봐 0.05075047 -0.020347985 0.06189368 0.0077916034 -0.006658381 0.018686214 0.023315046 -0.037088756 0.034978632 -0.03558147 -0.061688494 0.13552052 0.0022304994 0.050272714 0.07860971 0.026453625
하지만 0.19845097 0.03939725 -0.023979397 -0.006791894 -0.06855142 0.1105256 -0.07240269 -0.04213616 -0.008953775 -0.003662692 0.01633705 -0.009700969 -0.2961177 -0.14249544 -0.06441354 -0.20192757
나름 -0.026241397 0.020164361 0.028896043 -0.025888087 0.040012892 0.041179925 0.035228316 -0.026568271 -0.055897243 0.033226 -0.05667224 -0.108287446 0.015071593 -0.041270476 -0.020196993 0.057057917
무섭 -0.10672834 -0.034288876 -0.015377889 -0.011553128 0.03948167 0.0015815726 -0.0052745133 0.017872933 -0.037766322 0.049313504 0.07861587 0.02136893 0.055038646 0.0075580548 -0.0061822226 0.06848797
명 0.08957575 -0.044739068 0.021183647 -0.014882502 -0.027764706 -0.03273583 0.052083116 -0.042391475 0.072931804 0.03484106 -0.085213564 0.09908393 -0.049212385 -0.0077129886 0.09349401 -0.020673526
나온 -0.024471195 0.10964374 -0.117520876 0.029586803 0.040918358 -0.077435724 -0.05115949 0.047340013 -0.024288451 0.02658443 -0.020784013 -0.07267627 0.07624087 0.17781115 0.08703843 0.047866106
해요 -0.09073033 0.07129573 0.06436069 -0.008702245 0.016609984 -0.005549632 0.017809993 0.02659457 -0.10430606 0.068185836 0.013096346 -0.11590455 0.123689234 -0.019831505 -0.12425589 0.10092495
이것 -0.063118026 -0.011245475 0.073124126 -0.08573472 -0.06620971 -0.10079369 0.005456166 -0.052825663 0.024724118 0.034397025 -0.00053866266 -0.05094596 0.09742858 0.0584318 -0.008577313 0.08787989
사 -0.0741603 0.0051875194 0.01828272 -0.044705633 -0.029776737 0.15829353 -0.06147793 0.035332985 -0.09519163 -0.08609958 0.023433464 0.057917584 -0.096972056 -0.009552937 -0.10761825 -0.002874607
오랜만 -0.14630215 0.06071499 -0.20933983 -0.10545462 0.052351523 0.06672834 -0.12502824 0.07638614 -0.08015299 -0.051814962 0.13842182 0.07058887 0.037723165 0.010203547 -0.027764421 0.084020674
9 -0.15438987 0.0891075 -0.050029952 -0.22883466 0.08628776 0.29125735 -0.051752843 0.18255347 -0.09563162 -0.1277721 0.1904408 0.37929225 -0.19771701 -0.08524741 -0.23849016 0.12216845
니까 0.010784017 0.022835417 -0.07306418 -0.046526507 0.07512536 0.1062391 0.000756997 0.14590022 -0.06250562 -0.04401489 0.06250439 0.1800685 -0.07283657 -0.0041750614 -0.07939136 -0.046328694
팬 -0.053154387 -0.041020133 0.026206685 -0.06736614 0.02546352 -0.005469897 0.01690429 -0.01156362 -0.012058449 -0.021230122 -0.0022331686 0.02249233 0.044389963 -0.029178413 -0.0746342 -0.025452074
차라리 0.12285791 -0.15745933 0.22292708 0.34832883 -0.31289035 -0.27590057 0.26465586 -0.16434287 0.20122413 0.35065594 -0.29027 -0.4596616 0.31348327 -0.4149113 0.07459129 -0.24405913
절대 -0.0064969845 -0.06002224 0.02446162 0.06925051 0.027296 -0.0409924 0.010807639 -0.046263896 -0.00908325 0.059527274 -0.003996838 -0.110905595 -0.0109944325 -0.019850535 0.048750617 0.021011999
세상 -0.067378536 0.033118635 -0.11993209 -0.01417551 -0.007564029 0.08814793 -0.008387894 0.09737011 -0.09576096 -0.044187732 0.0917016 0.13405393 0.011080552 0.041367456 0.02026828 0.04733055
세 -0.057768553 0.05984886 -0.00097264186 0.08585137 0.058842506 -0.027730867 -0.011576035 -0.053646192 -0.020706424 0.008824919 -0.009788073 -0.02223282 -0.03896114 0.055928614 0.026527526 -0.019854128
던데 -0.12272862 0.07406093 -0.23036142 0.043008648 -0.060807656 0.045279704 -0.054472543 0.19119726 -0.1684663 0.0123197865 0.09807664 -0.12394976 0.36930472 -0.0071906736 -0.05845767 0.052244112
의미 -0.008653998 -0.024763983 0.020539701 -0.0408992 -0.022456314 -0.029715609 0.009288454 -0.081929706 -0.016926182 -0.0068351636 0.044003423 0.017789725 0.008822941 0.07785699 -0.011075556 0.04320844
못하 0.011414705 -0.03202729 -0.0597877 0.06757055 -0.08316451 -0.105699904 -0.04981882 -0.10620607 0.014040132 0.12976322 -0.060442034 -0.3064461 0.03145485 -0.059100844 0.045917917 -0.12412023
따뜻 -0.11097126 0.10269733 -0.09198048 -0.1373133 0.08578763 0.15005372 -0.05976358 0.13432015 -0.1469647 -0.08549274 0.15492834 0.18223573 -0.11690866 0.06326161 -0.14824264 0.10134575
봄 -0.10769294 -0.02499391 -0.066446275 -0.026418852 0.041713543 -0.065357946 0.024627918 -0.015512769 -0.07367548 0.04707579 -0.0005121484 -0.014616557 0.30046862 0.16386381 0.045299433 0.073403314
욕 0.26545787 -0.17270285 0.099598594 -0.03764906 -0.20319332 -0.06883658 0.08962042 -0.11435804 0.147341 0.11285379 -0.17699161 0.02003617 0.03267659 -0.22685634 0.12936956 -0.19979124
강추 -0.11584057 0.19038856 -0.17005599 -0.1053587 0.17677218 0.22609635 -0.32309625 0.2801903 -0.12402512 -0.25938958 0.17506807 0.1444675 -0.20933187 0.17862746 -0.1406939 0.10587044
훌륭 -0.07281441 0.0909561 -0.031885378 -0.08602055 0.17439507 0.02357198 -0.08646256 0.064658836 -0.118261054 -0.10657136 0.12775697 0.30917275 -0.19431347 0.31998083 -0.07074742 0.16186097
너무나 -0.073503904 -0.09590241 0.009871075 -0.14200416 0.037114393 -0.15750101 -0.05723181 -0.019865232 0.13934745 -0.04515953 -0.032131296 0.29441327 0.08673981 0.21863891 0.09053292 0.1864287
ㅡ -0.07496644 -0.06296994 0.030250238 0.02909428 -0.012856665 -0.0074718036 0.12128419 0.026055427 -0.06402179 0.07699488 -0.110828124 -0.0820333 0.19487129 -0.09759273 0.016116085 -0.05668131
감 0.06787761 -0.032574914 -0.106053285 -0.093638815 -0.030048981 -0.035853524 -0.035783794 0.061522145 0.09653361 -0.06395038 0.00961869 0.21089792 0.19452217 0.062693335 0.09932401 0.058008637
됨 -0.060917772 0.02858793 -0.15119 -0.051576246 0.014772047 0.0350825 -0.0033869199 0.16760051 -0.08312746 -0.054015204 0.0771074 0.06248683 0.13991593 -0.08581677 -0.007646381 0.053062778
느끼 0.03597006 0.060936883 -0.09353647 -0.03511719 -0.019699246 0.03682858 -0.10607598 0.015054977 -0.034827646 -0.058169678 0.0015041311 -0.05608567 -0.13174033 0.073764406 -0.014021808 -0.047718886
해야 0.0002724336 0.05907842 0.027768712 0.012239893 0.007895961 0.042739447 -0.016701134 -0.017916413 -0.048204873 -0.076347664 0.037649136 -0.012323665 -0.09991291 0.035419967 0.015362607 -0.04610571
빼 0.072886035 -0.13990603 0.079590045 -0.024149392 -0.062440246 0.02674614 -0.013669032 -0.09798511 0.16622415 0.0016944729 -0.1022444 0.13376716 -0.05934369 0.046916198 0.08506777 0.014632108
드 -0.1376571 -0.01620983 -0.038535498 0.004860104 -0.020928776 -0.034699958 0.07948552 -0.012800269 -0.08973311 0.062789984 0.065274246 -0.029558385 0.20418093 -0.12744398 -0.07525993 0.06337936
도대체 0.048344877 -0.058825254 0.11607938 0.021319237 -0.07743095 -0.028699312 0.07917121 -0.07266649 0.14118595 0.037751842 -0.12530336 -0.05003586 0.110888414 -0.08522418 0.019071184 -0.018598408
어야 0.026394116 -0.033151016 0.13420384 0.1174281 -0.030823376 -0.06452773 0.06532902 -0.05589722 0.08321415 0.091076456 -0.08862228 -0.12712277 0.1232808 0.05779221 0.06215921 0.026448367
답답 0.11488553 -0.07955513 0.07443518 0.08925125 -0.0834914 -0.09926903 0.068080366 -0.10153327 0.09125505 0.08888684 -0.12673867 -0.11825047 0.05043695 -0.1857744 0.0838405 -0.10400235
마다 -0.12195396 -0.06406801 0.10641337 -0.024518719 0.017640501 -0.075850606 0.08088502 -0.050478548 -0.0058577363 0.04354736 -0.049656264 0.08586006 0.021957185 0.1429219 0.050033703 0.13660657
준다 -0.09848418 0.041365758 -0.14729439 0.08194986 -0.054959152 -0.010661634 0.009389044 0.105953425 -0.10835658 0.07277395 -0.054578215 -0.0226331 0.3046973 -0.0073102177 0.03742611 0.025073055
놈 0.20186311 -0.046641044 0.06734291 0.027095754 -0.004793204 0.120116465 -0.053027317 -0.020164207 0.093289755 -0.039270278 0.022434138 0.21051165 -0.16253212 -0.025839757 0.04463862 -0.08215762
글 0.19202311 -0.07134744 -0.093040295 0.036814056 -0.04181385 0.0036636924 0.00078154803 -0.07068821 0.03598997 -0.046772506 0.011507663 -0.02369537 0.00431091 -0.024037674 0.022530846 -0.09731401
전쟁 0.06486283 -0.003745112 -0.11052788 0.0012020615 0.019586176 0.06530793 -0.026457522 0.03550854 -0.0415598 -0.020808537 0.08804609 -0.118829705 -0.017346501 -0.074287124 -0.015802322 -0.06877211
수작 -0.35656708 0.33582574 -0.25638303 -0.22724901 0.24105209 0.27265888 -0.2702454 0.31351238 -0.42228898 -0.2452475 0.34104574 0.019292438 0.17377831 0.09069404 -0.31436926 0.20098984
설정 -0.045344956 -0.08605969 0.17724194 0.0668522 -0.0100494595 -0.06332332 0.1388045 -0.1644001 0.07514135 0.0472647 -0.12604968 -0.0951793 -0.012311477 -0.00751157 0.1014383 0.029107384
무엇 -0.12939459 -0.0016888579 -0.06912951 -0.020835334 -0.03171095 0.109021865 -0.06606189 0.039440066 -0.09134924 0.0072023575 0.03812506 0.04629082 0.04829844 -0.04108378 -0.06330075 0.10234326
흥미 0.053580504 -0.046042643 0.021866733 -0.03203121 0.022537427 0.031150393 0.009413009 0.05038973 0.07195949 -0.062892534 0.046222717 0.2939205 -0.12535211 0.028799472 0.050240904 0.0045792167
그저 0.14629944 0.014503341 -0.092429176 0.14454772 -0.098696135 -0.08795268 -0.11665562 -0.0390777 0.05930822 0.05388403 -0.07389521 -0.26814777 0.10924754 -0.031398706 0.20854197 -0.16167611
만화 0.10510802 -0.09009671 0.11937405 0.037953373 -0.043953527 0.14296861 0.077496216 0.0301855 0.090256795 -0.025954897 -0.032475058 0.1605572 0.004207642 -0.044600856 0.06372118 0.02133053
감정 -0.14985006 0.09249396 -0.09182379 0.036052864 -0.0068986504 -0.008304961 -0.11997618 0.028485311 -0.0789548 -0.06754197 0.14234178 -0.07917127 0.08160462 0.13044812 -0.040004525 0.021449123
미국 0.040812824 0.021914383 -0.06964511 0.012210878 -0.046427242 0.06315983 -0.003655527 0.04471529 -0.007903623 -0.0076130386 0.06449135 0.04657702 -0.064862035 -0.056490492 -0.051425133 -0.0018365331
행복 -0.12549229 0.13788696 -0.13432688 -0.04203954 0.016137876 0.18278714 -0.121757664 0.16458209 -0.16991977 -0.11763294 0.1742538 0.16631128 -0.031087881 -0.010896038 -0.15050252 0.034496184
신선 -0.04396522 0.07043944 0.0038252708 -0.07597847 0.1315965 0.12887463 -0.08481715 0.14682014 -0.0117127085 -0.16649793 0.09492885 0.15941212 -0.14358126 0.093820475 -0.070662424 0.14687702
뻔 0.057627328 -0.0636026 -0.04324356 -0.01079608 -0.058827724 0.026031055 -0.026103767 -0.09446614 0.0011492997 0.119760655 0.006136474 -0.11929354 -0.06254443 -0.1681557 0.061205797 -0.177985
군 0.12004529 -0.008930895 0.04904788 0.04420031 -0.012644258 0.015680406 0.029582197 -0.09324676 0.011309685 -0.0006061893 -0.05373594 -0.09782597 -0.12711924 -0.07508891 0.0047199144 -0.033925716
허접 0.1554005 -0.1756109 0.22479957 0.1719926 -0.18703678 -0.18965329 0.14749996 -0.3918926 0.18447751 0.24024962 -0.24772438 -0.25030035 0.09849144 -0.33724165 0.16226101 -0.26634577
형 0.111549705 0.008177343 -0.08754495 -0.042718016 0.08277116 0.09708304 -0.036810264 0.19613172 0.05464984 -0.07409538 0.034164578 0.29074472 0.021193229 0.13062474 0.050861295 -0.03872604
앞 -0.05877107 0.01200706 0.075204365 -0.010633771 0.10608995 -0.06533996 -0.032221306 -0.079723924 0.07613672 0.009522156 -0.030744951 0.024784518 -0.10890477 0.111200966 0.05987569 0.060497984
어도 -0.045464735 0.0024753856 0.0033892996 -0.050558392 -0.060836326 0.11134893 -0.024728654 -0.014165722 -0.001843765 -0.012690587 0.015502341 0.06037297 -0.01660611 -0.090153106 -0.041427087 0.06285155
관객 0.09456165 -0.11276214 0.03449739 -0.06570328 -0.13107684 -0.123216204 0.12375265 -0.09515191 0.055694357 0.08825367 -0.063486904 0.05866287 0.14796846 -0.04365327 0.11643886 -0.00396284
배경 0.011651437 0.023991615 -0.0068166507 -0.14964898 -0.05204021 0.021364069 -0.09768681 0.030221904 0.032617774 -0.030194899 -0.037807193 0.21873854 0.03581874 0.004327515 0.05096394 0.025543258
시절 -0.07359073 0.023440467 -0.05252667 -0.03611242 0.041596524 0.0017034595 -0.019344706 0.012904933 -0.010150764 0.033389293 0.0076865265 -0.020896649 0.0697019 0.11363715 -0.0135570895 0.022536995
6 0.05715998 0.00756005 0.08616929 0.07551181 0.12521058 0.044026352 -0.03094553 -0.03430099 -0.030840244 -0.018170452 0.00872085 -0.12113948 -0.1552041 0.05745512 -0.06495792 -0.010633941
초반 0.071911186 -0.048624344 0.031914774 0.11578493 -0.011543093 0.13170835 0.051338196 0.017852435 -0.07247159 0.04407309 -0.055199854 0.041565005 0.05721867 -0.15620011 -0.03073894 -0.075986
사실 -0.09975007 0.09362004 0.005579528 -0.086034246 0.009945403 0.15053827 -0.007483282 0.076217964 -0.16839091 -0.018804653 0.05122448 0.12440815 -0.02631468 -0.021485923 -0.11255189 0.09890925
웃음 0.0331855 0.025034381 -0.024387388 -0.008788207 -0.03009288 -0.057463497 -0.04782749 -0.07728549 -0.003347667 -0.033132393 -0.01399528 -0.08858244 -0.08849467 0.10232731 0.061454702 0.026252279
OOO 0.18149741 -0.101049036 0.016819278 0.24119274 -0.14233088 -0.116014935 0.06558472 -0.14557709 0.09736405 0.18560696 -0.17766751 -0.23168026 0.079675965 -0.0673313 0.11841625 -0.16648121
엄청 -0.104931645 -0.048176274 -0.061349817 -0.10844329 0.07607511 -0.122219175 -0.025806174 -0.08028038 -0.015542981 0.045034736 -0.026893258 -0.004557221 0.052017257 0.11195803 0.061687972 0.11997965
답 -0.09965918 -0.069493085 -0.046156257 -0.026032243 0.036863633 0.02547963 0.0797896 0.025981456 -0.011200452 -0.054085094 -0.04651472 0.051619224 0.13851933 0.045832414 0.0030977873 0.042355455
더라 -0.0364651 0.11666996 -0.11444364 0.021941423 0.02461966 0.011458637 -0.105835885 0.027504465 -0.05203064 -0.04027841 0.0928051 -0.09531012 -0.12134613 0.20497045 0.042374834 0.037221126
추억 -0.12329629 0.065011285 -0.040208004 0.030048646 0.05889318 0.0654989 -0.003487861 0.08689864 -0.04224657 -0.0834418 0.10361593 0.1702159 0.036603913 0.09341257 -0.048617806 0.079208046
라니 0.13886559 0.031925038 -0.05782939 0.01932446 0.033016715 0.014332913 -0.03809117 0.06629883 -0.07481467 -0.052091353 -0.029465217 -0.032240152 -0.24128543 -0.057125926 0.00185578 -0.09478898
질 0.03798721 -0.031398766 0.02454809 0.19720712 -0.06896533 -0.046429355 0.09455197 -0.0015757824 0.031927183 0.056964025 -0.045086212 -0.13448296 0.077054344 -0.08684801 0.046323616 -0.0845968
자신 -0.10684468 -0.005800884 -0.11200197 0.0055460045 -0.03615617 -0.021882266 -0.05926179 -0.0437125 -0.05143166 -0.027852079 0.012442306 -0.051549163 0.16347073 -0.10924564 0.031235248 -0.021126606
캐스팅 0.056569513 -0.12020828 0.09791846 0.06781261 -0.027677808 -0.058693074 0.046698533 -0.052624207 0.092216894 0.05955648 -0.009133381 0.023502918 0.021728212 -0.04592841 0.11169549 -0.08248537
류 0.036133196 -0.043377325 0.114213 0.04908606 0.023629075 -0.06615729 0.12419578 -0.04823368 0.07958672 0.061993435 -0.14098044 -0.054430842 0.008066128 0.10251749 0.08723355 0.008675265
첨 0.10352824 -0.0068371575 0.046626315 0.012614676 -0.0100724045 0.06597069 0.056019917 -0.079528175 -0.019204358 0.05691317 -0.06325338 0.0072487406 -0.08304499 -0.11576045 0.0026999398 -0.08184205
멋있 -0.07139707 0.2269205 -0.24660741 -0.07363954 0.1818317 0.16508381 -0.23562932 0.13329807 -0.0941702 -0.22866063 0.15382859 0.08365141 -0.27056807 0.19529942 -0.07079719 0.078163885
어색 0.0483371 -0.06316978 0.12421176 0.121886455 -0.070754305 -0.17361239 0.1272825 -0.23202598 0.09826142 0.1418345 -0.14962183 -0.33402508 0.045987517 -0.14415586 0.13268904 -0.1947671
시나리오 0.07130472 -0.088850394 0.10810083 0.084960334 -0.09878205 -0.06400371 0.046593565 -0.074956566 0.107586905 0.031133926 -0.10303984 -0.03653302 0.04843141 -0.06552988 0.018157447 -0.029997448
슬프 0.009820655 0.14758673 -0.19916815 -0.042148553 0.060736034 0.21783789 -0.21008453 0.11368966 -0.10997331 -0.12350832 0.093436845 0.030573431 -0.32300708 0.058556516 -0.11734394 0.0331965
머 -0.035469186 -0.03985542 -0.06118188 0.096995234 -0.038876474 -0.067196265 -0.037638627 -0.049342945 -0.00052851706 0.09582497 -0.015613959 -0.16366775 0.13680024 -0.054102175 0.044740696 0.018907983
소름 -0.15564968 0.15797162 -0.13474864 -0.18446426 0.10167549 0.18200378 -0.15219535 0.15313818 -0.1046236 -0.19328819 0.15476316 0.18307243 -0.10102378 0.14774847 -0.14211506 0.21285033
밖에 -0.06812754 0.057635922 0.1103932 0.059416372 0.05639022 0.1467335 0.11305758 0.09735966 -0.08761806 0.037993547 0.042887986 -0.017186463 -0.03183078 -0.032917686 -0.12688825 0.069390394
정신 -0.022367401 -0.07165337 0.081692025 -0.045914523 -0.046589103 -0.0030846414 0.09823272 -0.054936524 0.06783554 0.049455296 -0.08576677 0.036505543 0.050967794 -0.043983884 0.024704395 -0.033116005
분위기 -0.08398283 0.018027572 0.04661762 -0.06488755 0.013737849 0.05980236 0.05547132 0.035795204 -0.062961474 0.0018362005 0.070537575 0.044335462 0.08787827 0.056499388 -0.030550232 0.13799515
멋진 -0.104346715 0.09936567 -0.1019028 -0.09410117 0.086980574 0.25711793 -0.14643806 0.2275726 -0.18348719 -0.1913999 0.14232016 0.2582051 -0.08382472 0.07591823 -0.1693482 0.080173895
힘들 0.050839417 0.02257138 -0.059876427 0.13295099 -0.11322751 -0.09992195 0.03544174 -0.07980779 -0.077769935 0.13155042 -0.042382933 -0.31952152 0.05194269 -0.07400633 -0.0040097926 -0.1118905
오늘 -0.0028599189 0.04296611 -0.037280016 0.028343217 0.07333011 0.02060389 0.027260877 0.001164114 -0.026258457 -0.015757238 0.02810474 0.04973581 -0.09727932 0.014394831 -0.0049930853 0.065096445
졸작 0.2903974 -0.20816262 0.08111757 0.36550426 -0.3255757 -0.21211001 0.15514657 -0.23607227 0.22031213 0.2633007 -0.27821535 -0.3947087 0.14216425 -0.41297257 0.24570942 -0.3357831
어이없 0.1659817 -0.27857292 0.3664643 0.06043272 -0.07672526 -0.1991435 0.31463706 -0.2884951 0.34978306 0.22404984 -0.35791266 -0.18360804 0.1384026 -0.13661416 0.20374618 -0.16251005
잡 -0.068133056 0.054906055 -0.0012232198 0.10938285 0.041073397 -0.09976012 0.005808814 0.028445248 0.009106768 -0.022831054 -0.042968385 -0.23820905 -0.011319371 0.14308618 0.009807582 0.0029280242
봐서 0.0030690073 0.023799771 -0.057669804 -0.103580855 -0.008749885 0.1696542 -0.09302226 -0.04462361 0.057013884 -0.026422603 0.015005848 0.25188494 -0.17101872 0.0087848315 -0.018846396 0.0035713366
킬링 -0.07413022 -0.0027539039 -0.006085762 -0.068005614 0.02937288 0.05739664 0.04261418 -0.010353354 -0.08978401 -0.027835947 0.0021777637 0.043161668 -0.02771053 -0.077121936 -0.14744991 0.09670243
위해 0.0878384 -0.12321877 0.069334745 -0.031557016 -0.08453849 0.0041781412 0.05071937 -0.04502037 0.05769552 0.004877287 0.003047843 0.19138138 -0.07728342 -0.066805534 -0.021415668 -0.043405302
문제 0.15741344 -0.1174748 0.0819009 0.013084354 -0.02239004 -0.022725023 0.027416712 -0.14999004 0.20741776 -0.012323359 -0.13688737 0.054156784 -0.14758307 0.030619096 0.1238777 -0.053152673
구성 0.0021683834 -0.016474878 -0.022928001 -0.03705213 -0.044037666 0.030529616 -0.07740294 -0.010554833 0.029329864 -0.0018917453 0.023478908 0.031595998 -0.05512382 -0.011862122 -0.006767901 -0.030893575
엄마 0.020476248 0.07958059 -0.049489703 -0.021076234 0.09959202 0.015630832 -0.12912285 0.09599412 -0.089647464 -0.05903993 0.057538357 0.050560378 -0.092543535 0.14383918 -0.008402498 0.08342947
함께 -0.06374709 0.02194021 -0.0070375423 -0.09470273 0.03883714 0.008182178 -0.09113509 0.031830285 0.007901304 -0.08199105 0.097899705 0.09978285 -0.037913166 0.104274675 -0.13895467 0.032912746
이딴 0.016891383 -0.23352171 0.31563804 0.27033588 -0.15912294 -0.27539608 0.3797193 -0.21319614 0.27281654 0.305925 -0.2730783 -0.3109104 0.27882323 -0.17986248 0.041296523 -0.17240311
잊 -0.17912559 0.182136 -0.044949405 0.028551798 0.09465105 0.1250762 -0.04827658 0.1090797 -0.19052652 0.013641745 0.13774583 -0.20965363 -0.00491923 0.030795308 -0.13235997 0.113625385
등 -0.014918464 0.04249897 0.016958782 -0.0878245 0.08279025 0.17302826 0.034713518 0.10522091 -0.015200102 -0.075269274 0.052181583 0.16008015 -0.08189396 -0.13097952 -0.13756412 0.10490096
집 0.05259001 -0.006976738 -0.004059284 0.01739416 -0.059684496 -0.0708164 -0.014181305 0.04730189 0.018621583 -0.019297812 0.032204073 -0.00076696597 -0.03075826 -0.11267886 0.03020394 -0.014738486
유쾌 -0.13181424 0.04119848 -0.15417632 -0.2884175 0.13549867 0.17732975 -0.13887993 0.08410971 0.02008825 -0.29491413 0.19166163 0.5594351 -0.15850408 0.19631168 -0.1313092 0.17569925
뻔한 0.12142819 -0.063526474 -0.03949502 0.27813867 -0.162385 -0.11008488 0.07785026 -0.032864813 0.08167886 0.11345865 -0.07367449 -0.18267003 0.14007157 -0.12975721 0.18211345 -0.17842574
스러운 -0.14806819 0.028529773 -0.0447746 0.01248337 -0.041272018 -0.0342498 -0.008941483 0.024867961 -0.13133746 0.045800216 0.09389248 -0.055312164 0.22276151 0.04498913 -0.021247854 0.10819401
결국 -0.07209343 -0.032362986 -0.035396826 0.15523893 -0.03133568 -0.09082429 -0.016712027 -0.013273847 -0.0054471176 0.1113515 -0.065949336 -0.24527985 0.045397814 -0.06960722 0.027850041 -0.124525756
낫 0.05057602 -0.020202726 0.08106066 -0.0015491047 -0.036581546 0.06063804 0.08898058 0.08448194 0.088569455 -0.024927743 0.0313138 0.14789888 -0.10174853 -0.045649957 0.015701532 -0.018006055
뭘 0.12640762 -0.0408207 0.11013917 0.06569348 -0.047997836 0.05182794 0.121935114 -0.040475532 0.05796565 0.06466927 -0.03936216 0.06765543 -0.034486603 -0.089021824 -0.038248166 -0.087211885
어떤 -0.028254718 0.010300681 -0.07239333 -0.004206681 0.0098433 0.078769304 0.022079349 0.08827558 -0.07235698 0.01624267 0.05487445 0.008210757 0.044664446 -0.13166463 -0.13458803 0.030922381
한데 0.012233533 0.012227586 0.14338104 -0.0043500517 -0.0070540784 0.106080465 0.09694594 -0.0051949676 0.07079923 -0.0031581803 0.010910658 0.11467974 -0.11379006 -0.11411487 -0.08856238 -0.0014269176
나요 -0.10267502 0.07163927 0.036700927 0.012081108 -0.00244233 0.062430125 0.020596579 0.031533867 -0.12359058 0.04505761 0.002158867 -0.11476534 0.084039405 -0.008539105 -0.015672496 0.027438499
소리 0.10396733 0.008021127 0.0123515 -0.0066460525 -0.03483709 0.0051157693 0.036158103 0.036597494 -0.010748158 0.023975745 -0.013229054 0.036513437 -0.006404021 0.046373416 0.020272914 -0.0394738
