9996 16
. 0.024730142 -0.0130950315 -0.0095607415 0.032006957 0.011767925 0.026665814 -0.029189382 0.0056436304 -0.02165037 0.045140836 0.026583381 -0.03104504 -0.03461184 0.006703187 0.022449352 0.004593289
영화 0.019451812 0.03685273 -0.0009845808 0.0037659202 0.023609864 -0.021403706 -0.013159533 0.011693859 0.0013327706 -0.008603392 0.028496567 0.03773269 -0.023432069 -0.012695201 0.01726513 -0.039531127
다 0.004960912 0.024414834 0.03296299 -0.026651723 0.00019427553 0.06737502 0.016300907 0.02257983 0.012826351 -0.0052086 -0.058688648 -0.012075994 -0.022720559 -0.016947985 0.029180804 -0.044155784
고 0.019621883 0.014720819 -0.0059609683 0.016829772 0.023305476 0.036259837 0.0061808634 0.03715548 0.0075878627 0.013848934 -0.029478544 0.012677502 -0.013764345 0.013177559 -0.011600022 0.04047324
하 0.01642795 -0.006830779 -0.037109356 -0.026930448 0.012030924 0.0146422945 0.02110609 0.011473673 0.0074390993 -0.014065086 -0.03506382 -0.0010375994 0.022027647 -0.015697263 -0.039877467 0.0164449
을 0.013560902 0.002030902 0.0015779482 0.020046722 0.0396746 -0.012152468 -0.010307031 0.018176949 0.001477279 0.003032838 0.032858446 -0.009425514 -0.013995535 0.03740773 0.013470298 0.02743768
보 -0.03557253 0.010227821 -0.0053327912 0.019909661 0.0001072671 0.0103145605 -0.0076554823 -0.011482809 -0.022312 0.0191068 -0.035877034 -0.024373516 0.00040131036 -0.014023437 -0.012391722 -0.027956659
.. 0.00021523441 0.0010779385 -0.021613652 0.010602953 -0.031113537 0.016288558 -0.031377517 -0.0027663214 -0.0025215002 0.02291205 0.018778676 -0.009777294 -0.022876801 0.017032094 -0.04988216 0.036844943
게 -0.0061467923 0.040428497 0.06500693 0.0045436257 0.011211321 -0.028653173 0.004153188 0.016987775 -0.016743131 -0.03145349 -0.010495502 0.0016839072 -0.03216869 0.0014339194 0.022090793 -0.0213329
, 0.044407982 0.0007986276 0.04151441 -0.018889133 0.014260234 0.047885768 0.01660872 0.01942074 0.02228307 -0.006820274 -0.021119034 -0.013573672 0.023204407 -0.019608807 0.017584058 0.03140183
! 0.022384614 0.030915778 -0.0037866163 -0.06764823 0.049946878 0.04774109 0.018578187 0.015482564 -0.0014314287 -0.029293442 -0.012543389 0.045039136 0.063793235 -0.078899935 -0.01171086 0.0314697
지 0.09199978 0.0301781 -0.0033474264 -0.022691235 -0.008999684 -0.060358986 -0.00487543 -0.015984459 -0.045662794 0.012473265 0.016812637 -0.0229165 -0.003809421 -0.0007516727 -0.01957672 -0.049565863
있 -0.010409282 0.0042495015 -0.03294946 0.014548353 0.008205219 0.026570044 -0.025127213 -0.015283592 -0.04077552 -0.025403077 -0.036137402 0.031112405 0.06641828 0.005150219 -0.0049744225 0.024511594
없 0.088024266 -0.05248619 0.07238388 0.043654043 -0.0551915 -0.06442616 0.03232227 -0.012418646 0.03929383 0.022027727 0.03261523 -0.07013818 -0.122054346 -0.02035386 -0.1070612 0.0112518035
? 0.050595928 0.02609032 -0.040157694 0.026631411 -0.02034253 -0.013437081 -0.0049934923 0.042810097 0.038792253 0.065633155 -0.012069712 -0.024765894 -0.0059468946 -0.0057978635 -0.052058313 -0.016932875
좋 -0.03696104 0.09862962 0.0055818735 -0.048489664 0.0698959 0.005147778 -0.030384088 0.016141528 -0.12913354 -0.06304723 -0.033054218 0.030180676 0.11620555 0.019664086 0.05644192 -0.046597153
나 0.017243838 0.0021037387 0.019987773 -0.003910596 0.020455483 0.001950235 0.016775753 -0.03764749 0.0027386264 0.042416405 -0.029121997 0.03497843 0.0040630167 -0.014317313 -0.025068289 -0.004070315
었 0.0017364266 -0.00020655233 -0.008840044 0.019721985 -0.00070702535 0.0411925 0.021822223 -0.0264542 -0.014321168 -0.030566737 -0.011476102 -0.04052703 0.04898276 0.030026961 0.0016105439 -0.0009317518
만 0.018573875 0.019341981 -0.014114996 -0.0029810679 -0.051188692 0.029186118 -0.068237774 -0.0030765827 0.035971932 0.06593053 0.057353128 -0.013571839 -0.05418166 0.0013529814 -0.018383406 -0.009881916
는데 -0.0013051725 0.058492467 -0.024308512 -0.0052564554 0.042462774 0.044099256 0.030680807 0.001160359 -0.0015770362 0.041499056 -0.01983773 -0.031700246 -0.009261514 -0.01457888 0.00488019 -0.04082718
너무 0.030411733 -0.0059360596 0.0023593674 0.009466542 0.035579536 -0.01956021 -0.0075702034 -0.01987403 -0.020654956 0.020186553 -0.02627222 -0.030932317 -0.0050722016 0.018210478 0.016367719 -0.058960937
봤 0.03772578 0.024103846 -0.071817584 -0.00261456 -0.022633566 -0.007263966 0.008465099 -0.0041363356 -0.056411847 0.026451714 -0.028315084 -0.010963527 0.03914219 0.0039829225 -0.006975338 -0.056364432
적 0.027236244 0.067768745 -0.052103624 0.0037762204 0.036242865 -0.023071952 0.060082182 -0.0011820312 -0.029444654 -0.028431019 -6.5897075e-05 -0.009297187 0.0040990147 -0.030816572 -0.020658327 -0.07360622
안 -0.016455324 -0.048189443 0.07617986 0.031124106 -0.029974772 0.028209575 -0.0034547541 -0.012615953 0.0694707 0.062801585 0.09680092 0.019944714 -0.081790134 -0.022480631 -0.032824982 0.033032477
정말 -0.0032528013 0.03643046 -0.01667589 0.011836602 0.037160847 0.038288765 0.00813263 -0.0039109243 -0.04234365 -0.00045327723 -0.035351366 0.03309637 0.033929396 0.005847585 0.0011598357 0.0014668446
로 0.0051729414 0.04604139 0.013374847 0.000929983 -0.0024353454 0.0328872 -0.029936459 -0.0072525153 0.061462026 -0.07855035 -0.01829734 0.029723542 -0.018735634 -0.006141561 -0.022614824 0.045209486
음 0.0077277473 -0.028156154 0.03981322 0.013310745 0.02506297 0.033541277 -0.010737162 -0.016866928 -0.020424997 0.010658371 -0.040451642 0.019159354 -0.0034192896 -0.038548265 -0.010379071 -0.021739183
것 0.034797516 -0.01549129 0.0280076 0.051567715 0.021622505 0.028889697 0.007112194 0.016665215 0.004868953 -0.00010433345 0.03491058 0.006576774 0.035441853 -0.04777955 0.04007471 0.0027262708
아 -0.042802215 -0.02517574 -0.02440919 0.014128335 0.020369366 0.047234226 -0.009096692 -0.012805302 -0.033370063 -0.014000189 0.0070578307 0.006879573 0.025904294 -0.01635059 -0.03711744 0.0668877
네요 -0.031714514 0.013935088 0.00759894 -0.003639725 -0.00070263294 0.0051776473 0.031355847 0.023339873 -0.046356276 -0.033647206 -0.013380264 -0.04086266 -0.020449417 -0.015147807 0.0018673984 0.0020249072
재밌 -0.13483094 0.07853135 -0.023855185 -0.08782301 0.029717777 0.058343392 -0.05020909 -0.015738392 -0.116079 -0.08656121 -0.11482033 0.10465215 0.16745557 0.0456423 0.08777422 -0.085479796
어 -0.028070068 -0.04729733 -0.030310774 0.02962728 0.02256187 0.016589018 0.05652094 0.0041152406 -0.03274997 0.034018073 -0.055299737 -0.035472635 -0.027166972 -0.03091723 0.008726482 0.032185342
점 -0.036740113 -0.024790077 -0.052204598 -0.0017138305 -0.06551856 0.025869489 0.027585004 -0.0018443787 0.03957737 -0.05404034 0.007362308 -0.045401108 -0.01892292 -0.12292934 -0.005527552 0.06023731
같 0.016456736 0.0008341741 0.014827109 -0.0017392304 -0.008142422 0.043879505 -0.0029278842 -0.0067538954 0.006837981 -0.022207389 -0.007797556 -0.06384559 0.0042215986 0.0130211655 -0.04048696 -0.028639523
지만 0.016036738 0.00520936 -0.019049864 -0.027712638 0.05772168 -0.06553898 0.0183515 -0.011288795 -0.046217706 -0.015998838 -0.03186601 -0.03573807 0.013815316 0.04914333 0.012981599 -0.012581791
진짜 -0.026188765 0.013331381 -0.00925474 0.0040792483 -0.0048245667 0.005196029 -0.0031518852 0.0138465585 -0.017200423 0.023240373 -0.046669014 0.03668908 -0.015353644 -0.014955228 0.034722496 -0.018956052
했 -0.00012779978 0.00046402655 -0.007027001 0.026735207 -0.02581373 0.014676364 0.028341642 -0.0069500096 -0.004253973 -0.024263317 -0.042769305 -0.0032018062 -0.0024150026 -0.0303901 -0.02155579 0.0009298189
에서 -0.025003023 -0.008314072 -0.022281034 -0.025777822 -0.0052341605 -0.0031321596 -0.008508458 0.02237231 0.01860955 -0.020811629 0.011432503 -0.0014525161 0.002077949 0.0016551078 -0.029745398 0.008189229
기 -0.0008737368 0.022289667 0.006270617 0.00021666178 0.04478432 0.010987895 0.0006306181 -0.01060082 0.04437412 0.016127741 0.025854576 0.012741368 -0.045811556 -0.013100787 0.01115293 -0.0036264425
네 0.030994141 0.007259858 -0.058069836 0.023118757 0.02074724 0.08646534 0.016606063 0.011084588 0.005606517 0.04740146 -0.03921077 0.03923035 -0.022495829 -0.007610982 -0.030505145 8.6546206e-05
않 -0.0725703 -0.014943948 0.0370952 -0.0036097714 -0.0019450323 0.017014405 0.077939846 0.0172388 -0.019655062 -0.03216131 0.0218034 -0.0057088523 -0.034336645 0.00010499441 -0.0016649638 0.02453906
거 0.107668005 0.009773858 -0.002200327 0.016960539 0.089296944 0.021398885 -0.07018731 0.014965328 -0.0018091461 0.018437102 0.017135734 0.028758932 0.008647718 0.07013354 -0.028829372 0.007768193
았 0.006817496 -0.016375821 -0.013125028 0.014778204 -0.032655265 0.06537344 -0.018904442 0.0026464236 -0.024943292 0.036903385 0.004281331 -0.058566935 -0.022739777 0.015729452 0.007974277 -0.017480675
수 -0.018520964 -0.01633495 0.033176154 -0.024757553 0.07109459 -0.04761533 -0.04555923 -0.01520931 -0.045131464 -0.015174111 0.052756675 -0.01691365 0.03442929 0.005184251 0.080348596 -0.006318063
되 0.018702473 0.066630304 0.019988142 -0.027212275 0.017331032 -0.02544197 -0.052028902 -0.013779147 -0.02460988 -0.0350396 -0.035337687 0.037353594 -0.014851996 0.0014706665 0.007817431 0.045224275
면 0.0015662904 -0.05386344 -0.009075633 -0.036668286 0.00050160254 -0.026050376 -0.03981367 0.014275582 -0.01959008 0.025239639 -0.009363066 0.02185139 0.010231496 -0.0014464525 -0.064489484 0.05017263
ㅋㅋ 0.0017633508 0.021533646 0.023191758 -0.024506982 0.008061815 0.07035573 -0.017770885 0.01467992 0.0023660804 -0.009298043 -0.02300488 0.06619953 0.0383944 -0.052324828 -0.012560951 0.022197679
말 -0.028110892 0.022610517 -0.017653627 0.012942141 0.019645214 0.03946655 0.01409803 -0.05594775 0.016973006 -0.021375297 0.017386243 -0.038974803 0.05403804 -0.017595645 -0.031475857 0.045953482
연기 0.00060650794 0.03624567 0.00044804998 -0.07242598 0.025552357 0.0038156968 -0.009681741 0.02220955 -0.025071327 -0.079758085 -0.06763608 -0.018382892 0.031014035 -0.0047008838 0.0030897614 0.032529064
인 0.048317414 -0.0012849945 0.034972515 -0.0089403875 -0.031740807 -0.050762314 -0.018490013 0.05291798 -0.06346025 0.05789546 -0.00481757 0.0044770692 0.005415459 0.03565458 0.017498251 0.020559393
최고 -0.15566814 0.07347373 -0.011999625 -0.2166711 0.115757376 0.05057806 -0.0685576 0.020306587 -0.17617778 -0.0837607 -0.10483613 0.16333538 0.11219565 -0.008770167 0.15076809 -0.04882077
주 0.0645549 0.047088917 0.04493644 -0.0048130252 0.009405018 -0.0032439197 -0.055537537 0.029449498 -0.047706243 0.024918849 -0.000518212 0.011651099 -0.006538727 0.02600399 0.033388007 -0.050920732
내 -0.012491434 -0.0008406827 -0.015687127 0.0022872167 -0.0049156724 -0.025897477 -0.018277412 -0.004122955 0.019959627 -0.046161555 0.015405906 -0.052197058 -0.05382736 0.037640724 -0.0043740408 0.005908445
~ -0.015600325 0.009881403 0.037820775 0.005788596 0.005317005 0.010384444 0.09068969 0.022459192 -0.046396714 -0.031911258 -0.026668265 -0.032666665 0.052074704 -0.0007047427 -0.038305633 0.0067244563
평점 0.012409068 -0.0017439785 0.038773704 -0.04014106 0.029373271 0.025095768 0.006588022 -0.018813914 -0.02973419 0.007641892 0.0072812294 0.038965795 -0.00551129 -0.05610804 -0.014817411 -0.021596437
이런 -0.0051215193 -0.0040823976 0.027829953 0.035718948 0.032434065 0.008793545 0.03993448 -0.030780695 0.007898909 0.08601716 0.012033702 -0.06340285 -0.02283995 0.0064688586 -0.033142824 -0.002030048
어요 -0.04173139 0.08952487 -0.012877995 -0.026131159 0.027518554 0.011005226 4.884199e-05 0.06082796 -0.0544437 -0.031752445 -0.04188363 0.052178472 0.024232838 -0.030453946 0.07806218 0.025714075
던 -0.012396614 0.059099566 0.029523563 0.054287713 0.019687451 0.08482481 -0.005859337 0.030335074 -0.00033662363 0.0006456425 -0.046937983 0.021742411 0.019242542 -0.0052622147 0.0041890126 0.004157909
할 0.036652435 -0.042702977 0.004542275 -0.013313723 -0.018467542 0.051989097 0.027557723 -0.012578344 -0.043776065 0.036577743 0.017325263 -0.029676745 -0.01106492 -0.009349576 0.048452243 -0.02144765
왜 -0.027814522 0.03505757 -0.017722765 -0.014272364 -0.046444055 0.044640046 0.01819111 0.061120216 -0.0069989515 0.01860018 0.00068268273 -0.0067505664 -0.005345403 -0.00030988368 0.017805548 0.01087353
1 0.112879895 -0.022788133 0.06390341 0.069541164 -0.07402986 -0.08560747 -0.005461422 -0.015917204 0.07481895 0.01161867 0.028947279 0.0029739016 -0.033738848 -0.010523676 -0.096146226 0.048948362
겠 0.101561904 0.00060523266 0.09413947 0.055277307 0.01813438 -0.00033579062 -0.016848715 -0.006351036 0.015838694 0.021645525 0.041179564 0.031829383 -0.046725 0.031644907 -0.07207298 0.037071418
해 0.0029613634 -0.03006834 0.021628203 0.004582088 0.03409424 0.10575713 -0.0014763618 -0.005265647 -0.021783601 0.030760895 0.024211075 -0.044770382 -0.015374312 0.00224705 0.016996292 0.011756046
스토리 0.033928707 -0.0096084345 -0.010443761 0.03876772 -0.020885948 -0.0040754057 0.0062639234 -0.012888695 0.00843437 0.030935347 0.04381657 -0.0071189813 -0.044095386 -0.028754264 -0.043022648 0.05554745
습니다 -0.027937105 0.012656008 -0.013834304 0.021803863 0.019807763 0.11169169 0.02475964 0.038447253 -0.04193558 0.011580117 -0.057767067 -0.0064167804 -0.004503382 0.04509979 0.06353429 0.008951001
ㅋㅋㅋ 0.04505828 -0.01721646 -0.005927311 0.0004515851 -0.0046014027 0.031645533 -0.0005321789 0.043821745 -0.012924085 0.04141846 -0.034764487 0.03763865 0.020950409 0.036299396 -0.011851052 0.016733803
... 0.03816112 -0.001847591 -0.031195834 0.020057058 0.008062463 0.015969446 -0.040535886 0.030117672 0.04494241 0.067741 0.061789803 0.001833741 -0.005427968 0.04268242 -0.0048344624 0.055176236
드라마 0.009434622 0.020906186 -0.008829398 -0.05748942 0.027511578 0.02683903 -0.064604156 0.0155476 -0.061229475 -0.0063579925 0.016897166 0.058664657 0.0411433 0.02826007 -0.011153517 -0.01594767
생각 -0.04340532 0.043598503 -0.08825082 0.008885065 -0.02899922 -0.019547869 -0.044455692 0.0022388306 -0.061137564 -0.015132011 -0.012558782 -0.017400172 0.06543857 0.045786794 0.051829748 -0.019498015
아니 0.05495541 -0.02646269 0.021833146 -0.020270951 0.01366165 -0.010991019 0.03260957 -0.007919824 0.01236648 0.013014093 0.017105075 -0.020591412 -0.040871203 0.090703994 -0.0460653 0.022039276
더 0.026559152 -0.05290985 0.046123955 -0.012297306 -0.009936032 -0.0065425043 -0.058242414 0.024797475 0.021987393 0.004694571 0.028866315 0.043714818 -0.010424505 0.030391656 0.0014734665 0.03199258
그 -0.0065509425 -0.007378716 0.00826678 -0.031915743 0.020698411 0.07671315 0.034026757 -0.012154041 -0.028336184 -0.00399842 -0.016150385 -0.0095268665 0.030593334 0.030060004 0.013752946 0.038189035
싶 0.06576022 0.021857869 0.01557242 -0.03336044 -0.014864352 -0.0017611098 -0.07265847 0.037564103 -0.06804781 -0.027711656 -0.005529496 -0.023663284 -0.0022496479 -0.00075170957 0.037189472 0.03720742
사람 -0.0435831 0.08698773 -0.012675288 -0.0019415924 -0.027040722 0.03468306 -0.01788221 0.075228326 -0.0052017644 -0.014327348 -0.03220205 -0.03253718 0.049463395 -0.025146192 -0.025716746 -0.0032335725
듯 -0.016990926 0.06688997 0.035119187 0.041508663 -0.037986718 0.093769744 -0.04751212 0.025998756 -0.008293848 0.029552246 -0.054870423 -0.04946165 0.037141263 -0.016044607 -0.023011427 0.04274354
감동 -0.013440674 0.058689713 -0.031024093 -0.08029538 0.07961202 -0.03146582 -0.03705428 0.03422001 -0.10332934 -0.10385329 -0.12808025 0.06226416 0.13966443 0.059130874 0.11411793 -0.047208898
때 -0.05833284 -0.025858128 0.028553573 -0.04634495 -0.0018664595 0.01413664 -0.033849813 0.03781845 -0.04569876 -0.03533297 0.06769169 0.031156125 0.035524398 -0.032663163 -0.02403151 0.009183754
함 0.025189904 0.028371667 0.03631043 0.011825992 0.0014310523 0.03587274 -0.020338079 0.045758646 0.0039699334 -0.008034503 -0.0415778 0.026946476 0.002077765 -0.004765919 -0.03575842 0.010627453
배우 0.05863303 0.010206287 0.03735375 0.060561877 0.06285433 0.031311065 -0.01697021 -0.00063586177 0.015155337 0.03462325 0.028793199 0.059666365 -0.029350098 -0.039522517 0.00045870323 0.033832684
본 0.074745834 0.014404185 0.01313057 -0.07015624 0.02861061 -0.008459882 0.002625699 0.046242222 -0.012940386 -0.024586553 0.0012324904 0.00232158 0.03432125 0.023354964 0.0318826 0.043807674
까지 0.0644325 -0.03113832 -0.010766622 -0.03020361 0.016452515 -0.04150909 -0.02644558 0.046082404 -0.027131982 -0.021664338 -0.009940774 0.020637091 -0.025616102 -0.005640133 0.030955339 -0.015483882
뭐 0.028873472 -0.020405242 0.026208984 0.055113062 -0.12392829 0.0050375215 0.023570765 0.00808212 0.004222207 0.058764156 0.060318563 0.030634932 -0.03399259 0.012047865 -0.08929724 0.0131117925
볼 -0.006004328 0.021862032 -0.008936861 -0.052419346 0.09579048 0.041371945 0.06876813 -0.035788495 -0.070607975 -0.046842497 -0.060405526 -0.026434205 0.05319999 0.0033046517 0.07614468 0.018753767
알 -0.0430469 -0.0051471377 0.056269627 0.052629486 -0.027180402 0.033704937 -0.0019056565 -0.0032347774 0.028906424 0.0017182571 0.0033106983 0.020242391 0.021060845 -0.019381909 0.004131953 -0.026252106
만들 0.054470364 0.028047448 0.015343699 0.039227817 0.0024868199 -0.030994367 -0.018764818 0.00829512 -0.014650123 -0.041464023 0.033126656 -0.0009152476 -0.03324691 -0.0029051031 -0.019390307 0.031086586
내용 0.053685386 0.0016558988 -0.039020717 0.07032145 -0.010379699 -0.019985713 0.019970132 -0.0024959182 0.052847113 0.054814775 -0.032295384 -0.00792809 -0.04913242 0.0064014317 -0.06847362 0.038827427
감독 0.09619698 -0.029428316 0.084755234 0.050087396 0.043504484 -0.06640714 0.011989152 0.008680945 0.04745546 0.017183254 0.022589987 -0.03773409 -0.07326523 0.032495577 -0.086719394 0.03550349
보다 0.014084939 0.04274841 0.016243864 -0.011933491 -0.002987597 -0.029441323 0.053369943 -0.003696366 0.016440555 -0.014821125 0.025790269 -0.019684276 0.033545747 0.08277633 0.03132909 -0.023119902
라 -0.027386034 0.026405104 -0.0025132755 0.008557635 -0.030912898 0.052345145 -0.031319752 -0.03556487 0.050361723 0.026925212 0.0031298369 0.04281136 0.0070192907 -0.054345157 -0.024675995 -0.09196403
재미 0.054005325 0.07366824 -0.0073484774 -0.022021286 0.020224793 0.0005806256 -0.07124372 -0.0011058309 -0.02172314 -0.001293459 -0.03998969 0.0083285505 0.011122964 0.041121922 -0.011462842 -0.00032827276
그냥 0.032660287 0.0061205514 0.01739702 0.03658505 -0.010657126 0.008067364 0.051157836 0.0059660343 -0.017645888 0.028299557 0.010036512 -0.03443504 -0.019806853 -0.0028293377 -0.03150074 0.028288841
지루 0.046048418 -0.12878165 0.07741653 0.066863336 -0.098695174 -0.02800854 0.05418585 -0.0071060453 0.13379116 0.12081619 0.09372533 -0.041245434 -0.15275754 0.052286506 -0.18984902 0.049797505
시간 0.060912944 -0.040386233 -0.07380927 0.08645489 -0.06167485 0.058804505 -0.02998879 -0.030286884 0.018023232 0.022812307 0.05625495 -0.015452517 -0.026990104 -0.031340342 -0.05080933 -0.018099222
재미있 -0.15226002 0.12679099 -0.09923829 -0.08799562 0.07268686 0.04978231 0.005273986 0.026336817 -0.06483925 -0.050603293 -0.07625538 0.02380161 0.050128248 0.038507152 0.120462805 -0.061714698
중 0.042223584 -0.00868246 0.01781343 -0.09980283 0.092497386 -0.046814732 -0.033804342 -0.04353343 -0.08221492 0.018116985 -0.045314584 0.024150401 0.018961905 -0.0100950785 0.062945165 -0.017892422
년 -0.069518425 0.021337157 -0.101015955 0.020175295 0.05477314 0.048450563 0.030776314 -0.035732243 0.027455918 -0.020979436 -0.002111377 -0.009935902 0.019976024 -0.060770545 0.018060643 -0.034029044
잼 -0.046443142 0.059435476 -0.036318216 -0.06985578 -0.012577664 0.0523416 -0.035018284 0.0320653 -0.03413689 -0.055152178 -0.064249076 0.0014905403 0.072136894 0.009041969 0.05987931 -0.036250096
10 -0.06855346 0.16809005 -0.11788763 0.00053531025 0.090762705 0.020915821 -0.005313288 -0.039508305 -0.1576852 0.001933639 -0.11280844 -0.011935289 0.13073996 -0.013960306 0.049258612 -0.19569623
재미없 0.2947231 -0.2071788 0.18480389 0.13678622 -0.14836264 -0.09195601 0.09310448 -0.018442811 0.09479488 0.09667512 0.2053658 -0.016404495 -0.19677597 -0.042852495 -0.17976911 0.07354272
였 0.022452641 0.06990506 -0.036981568 -0.022784391 -0.029992491 -0.028682746 -0.052022718 0.048063703 -0.045990966 -0.019321978 0.0101187145 -0.06973692 -0.019283807 -0.009464088 0.07914584 0.033462007
쓰레기 0.2587625 -0.179825 0.131645 0.26565465 -0.063125096 0.14311361 0.12507674 -0.040329337 0.22218029 0.1044614 0.20737916 -0.14331025 -0.18196993 -0.041715425 -0.25209504 0.059517305
사랑 -0.100838296 0.052581254 -0.10991082 -0.105382875 0.025253635 0.007922077 -0.03352558 -0.006399593 -0.0995947 -0.116296664 -0.0414468 0.003070897 0.0924404 0.011422476 0.11452088 -0.022524374
못 0.024152977 -0.11228268 -0.021784993 0.049071822 0.009198324 0.07876635 0.09499301 -0.036172867 0.044204667 0.031313315 0.038982335 0.011547379 -0.10404246 -0.035633985 -0.059073 0.06602561
냐 0.057313055 -0.064116694 0.10053231 0.07971955 -0.13205935 -0.042787556 -0.037167884 0.0034416965 0.046107367 -0.056800734 0.039643537 -0.028932944 -0.063566364 -0.02765335 1.40533375e-05 0.036119644
서 0.06609216 0.10597972 0.0021875661 -0.010264323 -0.00513225 0.06646282 0.020828977 0.059879787 -0.04931726 0.013930897 0.007586917 0.0027787618 0.031894673 -0.053890437 -0.042677682 -0.06277907
2 0.0032260104 -0.10119804 0.04338604 0.035473518 -0.022557478 -0.014069066 0.008810773 -0.03427399 0.021358574 0.03676949 0.0117334165 0.03224534 0.0121350745 0.013500439 -0.019707246 0.042119775
라고 0.100661874 0.022997515 0.029695962 0.04251636 0.019703412 -0.06537346 0.013444644 -0.020240868 0.021667637 -0.0078060543 0.025691513 -0.037114654 -0.0514439 -0.006321997 -0.022882894 0.0045202053
야 -0.0082434565 0.00087448827 0.037948467 0.0243058 0.04267638 0.08305746 0.06580493 -0.017653823 0.015917018 0.02409423 -0.055476602 0.008753871 0.019225666 0.010618014 -0.07304832 -0.018542452
니 0.024707247 0.0038943412 -0.01586205 0.040466998 0.056261674 -0.018124595 -0.010561659 -0.013975269 -0.0133066615 0.044445064 0.03794244 0.054580674 -0.06526146 -0.033398278 0.010441388 0.009868437
면서 0.025262559 0.0378089 0.039385125 0.010212302 0.05034826 -0.068765685 -0.07472355 -0.027872711 -0.07634364 -0.046006437 -0.016913341 -0.026058182 0.046779525 0.0313861 0.050740954 -0.028240735
번 -0.06446858 0.025203569 -0.076651834 -0.08734681 0.036675014 0.014584074 -0.031738594 -0.054010138 -0.02725049 -0.058492824 0.0028972654 0.036836237 0.0125549715 0.038868595 0.010228753 0.023920856
다시 -0.10715333 0.01788885 0.0072615817 -0.07446579 0.06867018 0.04495811 -0.06564252 -0.004427495 0.026320608 -0.0063534323 0.016836477 0.051858474 0.05575483 0.015643848 0.047245983 -0.08086282
나오 0.030948091 0.06561275 0.006512456 0.04447247 0.001188239 0.044937685 0.02067085 0.015986772 0.022434318 0.10764128 -0.06785892 0.04205077 -0.0003624817 0.002997079 -0.0069185123 -0.0064264485
작품 -0.05999699 0.0011966554 -0.0030932399 0.015282972 0.035737753 0.063747175 -0.044909507 -0.018274324 -0.048592314 0.012278809 -0.054133214 -0.02611236 -0.004740813 -0.04306544 0.032331027 -0.038309105
이거 0.029373078 0.010151847 -0.037021484 -0.038051624 0.029388526 0.008296539 0.015778309 -0.01751548 -0.025252284 0.035666957 -0.01897062 0.042407073 -0.028035523 -0.035714056 -0.0074630277 -0.021046381
하나 -0.028481212 0.030886522 0.010474462 0.05277483 0.027561063 0.04243062 0.003035429 0.08486502 0.06689176 0.023166796 -0.023676557 -0.02084878 -0.010508423 0.002000445 -0.050482705 0.007252359
줄 -0.0037890486 0.03385189 -0.03473941 0.072938114 -0.011605614 -0.02220687 0.012348252 -0.009911355 0.0064801155 -0.029249718 0.02562317 0.00021810055 -0.00069888297 -0.0075193574 -0.010684057 -0.037375577
해서 0.09023616 -0.032225125 0.024438271 -0.0042025405 0.012157892 0.01406571 0.01982151 0.04671713 -0.014559286 -0.074148156 0.006835761 0.06903785 0.022431856 0.0803971 -0.02146473 -0.0045858836
개 0.10144085 -0.05554852 -0.0088946065 -0.0076424796 0.022773035 0.033187047 -0.021359527 -0.009376869 0.08061598 0.067272775 -0.026320826 -0.00616256 -0.008526611 -0.014967567 -0.014066332 0.025365843
남 0.10025153 -0.010737724 -0.035359398 0.07314248 0.003475316 0.018817224 0.035870228 -0.037624434 0.02224695 0.0028876064 0.021306928 0.006935961 0.013429123 0.04521528 0.015892398 -0.064345546
정도 -0.049158152 -0.033254392 0.035110112 -0.03334023 -0.05643551 0.06636395 0.05662276 -0.01840098 0.046860777 -0.052651506 0.0048944377 -0.022519818 0.039068416 -0.0434796 -0.038513005 0.069745734
마지막 -0.031395342 0.02474869 0.0074902265 -0.07458422 0.064942874 -0.016617427 -0.034437224 0.056154985 -0.05501898 -0.012416794 -0.031115044 -0.035569996 0.04856266 0.025058456 0.10130065 -0.018853398
끝 0.084939994 -0.03487611 -0.041310053 -0.001842111 0.028573098 0.00683715 0.069797285 -0.02222727 0.019568888 -0.005734839 0.035194777 -0.022789406 -0.033847168 0.023138216 -0.01000711 0.027594423
이건 0.10885661 -0.035084434 0.029553683 0.088985056 -0.08721774 -0.0957228 0.086912446 -0.010113842 0.029304847 0.00618558 0.01908693 -0.04720935 -0.07961972 -0.03284943 -0.11997427 -0.025737567
임 -0.021998422 0.024865195 -0.02548942 -0.037418973 0.05939938 0.026716113 0.034234174 0.016156806 -0.021918105 0.026593627 -0.054741893 0.03551908 -0.021141052 -0.036998928 -0.055056814 0.0157751
액션 -0.03416875 -0.01057562 -0.005428225 0.01564943 0.06183297 0.068487056 -0.025539456 -0.017113686 -0.0039391094 0.029167382 -0.058862627 0.04634162 0.021794058 -0.02428895 0.013207196 0.02920404
ㅋ 0.04846403 -0.0011686293 0.021685682 -0.05389181 -0.0062036207 -0.030430783 -0.03819125 -0.02887381 -0.021813259 -0.0292231 -0.056733932 0.009152783 -0.027538177 -0.002043142 -0.04586052 -0.012505978
3 -0.0034841828 -0.05485291 0.0016496265 0.042932414 -0.023071894 0.022985896 0.004597118 0.06205935 0.019210245 -0.030009123 -0.021533666 0.011847539 -0.0120294485 0.010465013 -0.061053343 0.008659058
입니다 0.029333862 0.073450856 0.017880386 0.034501594 0.019967925 -0.019730084 -0.031482644 0.024551978 -0.02531335 -0.02309499 -0.01826419 0.04285571 0.014412844 -0.002427864 0.04096978 0.0017546931
기대 0.09596029 0.1351107 0.0078365095 0.035338387 -0.0077077528 0.018826632 -0.0070937686 0.017848741 -0.05124043 0.039875954 -0.0016840717 0.06290874 0.037906073 -0.011423859 -0.040962547 -0.017776957
건 0.08747656 0.044485215 0.03357814 0.10002668 -0.053371523 -0.04914936 -0.018570159 0.05605661 0.04308272 0.09791533 -0.027743366 -0.016149316 0.0016352986 -0.006628574 -0.05669964 -0.029466473
완전 -0.06234111 0.020465612 0.064977266 -0.015798962 0.059506636 0.04476313 -0.019885056 0.029397095 0.0042998637 -0.059138965 -0.009123298 0.0017321635 0.006814845 -0.009015741 -0.0066387663 -0.028533194
라는 0.021750035 -0.03301623 0.025238123 -0.02639853 -0.0069237817 0.018606491 0.07684611 0.0075372267 -0.01890273 -0.035571907 -0.0051236073 0.036644828 -0.013817633 0.040268708 0.019552365 0.03719293
분 0.1012094 -0.045912374 -0.0022443284 0.04878154 0.02574292 0.03270629 0.0043698237 0.04593718 0.08678336 0.049521826 0.016422156 -0.09879453 -0.08307414 0.013046233 -0.02056092 -0.032725856
다는 -0.0029020924 0.030914072 -0.014689533 0.026012868 -0.032635152 -0.038135387 0.037311967 0.0038169958 0.03829413 0.097986944 -0.046343833 -0.057946894 -0.039598025 -0.09850327 -0.03180315 -0.05337203
참 0.10948818 -0.018509688 0.0049845884 -0.021736931 0.124986045 0.014336699 0.037046194 0.015796911 0.04189561 0.027497457 -0.0535742 -0.04311643 -0.04238856 -0.026794637 -0.071002126 0.043935794
많 -0.12360842 -0.07156695 -0.014213907 -0.09444827 0.036992665 0.08422581 -0.03362712 0.0079204915 -0.039102215 -0.040467713 0.02429485 0.08537009 0.04152509 0.08580712 0.020220635 0.01961184
아깝 0.17502369 -0.12078413 0.010437938 0.05036165 0.09638685 -0.000973069 0.044412103 -0.037905924 0.049040064 0.18013647 0.026804077 -0.08397869 -0.09421135 0.039352093 -0.12607335 0.032806583
처음 -0.033593684 0.015284221 -0.021918267 0.013444809 -0.025768247 0.035086762 0.015236835 -0.006916931 0.08786193 0.007817345 -0.035365738 -0.08979303 -0.0266218 -0.035041936 -0.02325219 0.007867813
장면 0.09361564 0.028164765 -0.080431655 0.026231864 -0.018688804 -0.05283374 -0.03395988 -0.009776293 0.014413706 0.0102531295 -0.0054071974 -0.012346262 0.049682695 0.02425451 0.010446552 -0.041050564
대 0.034463167 0.068521604 0.0033963 0.017647777 -0.08061038 0.014247773 0.010573502 -0.05089519 -0.01843668 -0.024599954 -0.013570949 0.02351473 0.031744834 -0.0014905524 -0.021637259 -0.011408281
다가 0.06541954 -0.03218254 9.802466e-05 0.08129524 -0.018573249 -0.031011568 -0.02115983 0.008131805 0.084563896 0.001471364 0.08762408 -0.0029438047 -0.11031167 0.013342062 -0.08151733 0.03368926
으면 0.08885402 0.058651034 0.03468197 -0.05800783 0.022851577 -0.027889283 -0.018974952 0.065765314 -0.032224245 -0.04364567 0.03308748 0.031242521 -0.003293149 0.01498068 -0.057160188 0.012418158
지금 -0.016579673 0.049663063 -0.07133909 -0.0133137405 0.031789646 0.045174893 -0.0195582 -0.016686354 -0.013855303 -0.032431398 -0.06362805 0.01459846 0.10035381 0.050883736 0.07944731 -0.025860954
모르 -0.018221384 0.014364639 -0.058281112 -0.06437815 0.004022006 -0.09263127 0.020017006 -0.000119401986 -0.008559884 0.03221283 -0.036238033 -0.02934215 0.052966803 -0.031449 0.0155066615 -0.036654662
이렇게 0.0804287 0.02379575 -0.041902307 0.00696321 0.008693174 0.02145948 -0.077111945 0.032444075 -0.024656061 0.013870571 0.02323532 0.0026474693 0.0044761347 0.040332228 -0.003254057 -0.040070523
' -0.015546031 0.03479534 0.04580233 0.03851795 0.045725744 0.10973175 0.049635157 -0.0061103594 -0.009487731 0.02647523 -0.016937004 0.01409262 -0.023147525 0.01403824 -0.020823486 0.08119369
편 -0.058637954 0.04641707 -0.005874349 -0.02357025 0.0618859 0.10186158 0.01152128 0.0383078 -0.039005242 0.031665437 -0.04600781 0.022215903 -0.0023318483 -0.03239471 0.05151343 0.05903132
일 -0.026238328 0.0017784757 0.018749092 -0.06055896 0.0005697942 -0.018131545 -0.00018112348 0.014151421 -0.0039147986 -0.0009815595 0.036011558 -0.07469238 0.058526944 0.004694817 -0.012192675 0.045654416
이게 0.043993495 -0.033809017 0.008190372 0.09004858 -0.021120971 0.043184128 0.069668956 0.009563636 0.032064445 0.04678392 0.035076115 -0.042653564 -0.01601328 -0.030856384 -0.029331125 0.02112313
돈 0.12784941 -0.08757613 0.06441952 0.10879939 -0.11329083 -0.044808876 0.05573266 0.037198428 0.11518024 0.1670168 0.12671573 -0.07653616 -0.09246996 -0.072371766 -0.19951503 0.052902386
최악 0.6242126 -0.03289924 0.2005236 0.43531203 -0.26792416 -0.04696439 0.01037609 0.066064455 0.20828384 0.010027928 0.19564617 -0.19820061 -0.41464397 -0.021656426 -0.4769042 0.044031076
성 0.023430085 0.015766818 -0.027061153 0.05727271 0.028414767 0.030206405 0.042978436 -0.027313346 0.017574217 0.045643173 -0.0014356595 0.019506345 0.00010015667 0.038031753 -0.032600034 -0.06729103
느낌 0.057098042 0.0029698457 0.0150194215 0.011543482 -0.061324023 0.029392652 0.0291544 0.016043719 0.022803811 -0.04147586 -0.029398162 0.035751358 -0.020207902 0.0024095594 0.0134184435 0.06400485
시 0.04304467 0.084610514 0.09934992 -0.034424342 0.03138275 0.066541284 -0.01655384 0.045073386 -0.016063072 -0.02626174 -0.042785786 -0.011813596 -0.019115107 -0.0041200006 0.0038358895 0.090289876
이야기 -0.024011545 0.05299637 -0.006182311 -0.03700162 0.015394295 0.024232501 0.01842332 0.034385897 0.010895699 0.016841637 0.014756191 -0.03575799 0.01898452 -0.02618354 -0.01951002 0.03589882
별로 0.08673059 -0.18902735 0.057856455 0.20244619 -0.16889758 -0.043939058 0.08235004 -0.033287313 0.17309178 0.059081193 0.16919294 -0.1445017 -0.21787983 -0.075427435 -0.20473777 0.09137829
된 -0.069837876 0.017601648 0.0011889695 0.012098717 0.010520913 0.054944925 0.03183926 0.046765305 -0.036370575 -0.00892688 0.015748264 -0.0018001386 0.0042199185 -0.042569384 -0.004290171 -0.03394074
봐도 -0.16493204 0.050003536 -0.004986509 -0.011384204 -0.029350523 -0.0035724787 -0.022828635 0.019260097 -0.033731893 -0.12103448 0.012438204 -0.009283018 0.049403723 -0.01729321 0.11156064 -0.08921729
님 0.049321085 0.022254035 -0.0083719585 -0.0875997 0.056024127 -0.0676214 -0.019408906 -0.0011079783 -0.088169105 -0.048963677 0.0170497 -0.019851668 0.075558186 0.05164468 0.0070880214 -0.057098128
어서 0.013119513 -0.041162137 -0.11369756 0.051050913 -0.011880844 0.026678598 -0.02616393 -0.05468124 0.0031623477 0.0073669315 -0.027083764 -0.020976456 -0.028666422 0.043424096 -0.037334066 -0.0552869
애 0.024894645 0.023715653 0.037227523 0.021005683 0.015851695 0.044450123 -0.00200552 0.03068686 0.01990686 -0.05459608 -0.0072353967 0.051006466 -0.0032414505 -0.03359055 -0.06978941 0.06142839
전 -0.028136726 0.014662066 0.008960729 0.067373075 -0.0038418737 0.07466853 -0.018342685 -0.03870381 0.039741617 -0.0052760844 0.04382898 -0.089889154 -0.031299915 -0.016994195 0.01792341 0.00774206
ㅠㅠ -0.06445787 -0.06489983 -0.041923765 -0.015334778 -0.0010591479 -0.014953384 0.042442273 -0.051674508 -0.008543272 -0.05549183 0.0185714 0.015365342 0.043095276 0.03210708 0.056613658 0.022185965
넘 0.0041568414 0.04048016 0.02527518 0.016313687 0.048639413 0.013785899 0.015729582 -0.001220118 -0.033438493 -0.0046931836 -0.08196114 0.037161585 0.041212335 -0.024883471 0.036790144 -0.04670433
인데 -0.012929819 0.008486605 0.035924524 0.008399143 0.0553197 -0.0025939532 -0.03644383 0.004767799 0.06309121 0.033636857 0.0088257 -0.0018381581 -0.037729885 0.021483907 -0.08218034 -0.05543754
다고 0.043799408 0.06101852 -0.08879592 0.038293764 -0.06192412 -0.07749101 0.047165748 -0.04641029 0.021048417 -0.030786363 -0.015194331 -0.017663972 -0.015162356 0.0049406225 -0.04126147 -0.052189276
이해 0.033638034 0.074858025 0.0033976533 -0.0047764205 0.03539245 -0.015029781 0.05749182 -0.0070414534 -0.0074348515 0.0012523602 -0.028728839 0.03209652 0.029330278 0.009612025 0.018120594 -0.020179698
명작 -0.15280141 0.057598114 -0.059922017 -0.17827053 0.15163639 0.08072156 -0.11320298 0.04813531 -0.13347115 -0.15906471 -0.18447143 0.102639504 0.13986564 0.028252674 0.19135946 -0.065119006
^^ -0.041871 -0.0072669005 -0.037413634 -0.073391214 0.03961965 0.020413028 -0.026257921 0.037628803 -0.0361271 0.04291137 -0.09559043 0.0380827 0.06590026 0.10543215 -0.021793371 -0.1529845
그리고 -0.06712023 0.12662868 -0.07079868 0.022054985 0.093678005 0.075305015 -0.0074279495 0.0374121 -0.018835252 0.08136892 -0.027361616 0.037744153 0.048613224 -0.0055729067 -0.0139993485 -0.10161749
역시 -0.0032776366 0.0662325 -0.11979745 0.02296734 0.033956084 0.07450675 0.052986827 -0.029721614 -0.0149874175 0.050250813 -0.09691895 -0.004962976 0.10983387 0.034070596 0.06362066 -0.1263558
난 -0.045379855 -0.035419486 -0.025858143 -0.026721187 0.061130356 0.1365852 -0.022603033 0.011855035 -0.036900498 0.0042634737 0.032705422 0.036045473 0.04415401 0.01448938 0.068342835 0.028564017
여자 0.011888363 -0.027493706 -0.016948903 0.08321821 -0.042939078 0.012576279 0.037825882 0.0052119717 0.051451273 0.077412054 0.027824903 -0.022211118 -0.050231904 -0.03518002 -0.036863573 -0.017602313
또 -0.090601794 -0.013464095 -0.08943048 -0.07698038 0.053305708 0.054344337 -0.017384816 0.058936816 -0.045055393 0.06579608 -0.05212045 -0.05479716 0.06586135 -0.019569267 0.006473296 -0.015003502
이상 0.001209677 -0.0043293247 0.006568251 0.02654323 0.049684186 0.004037778 0.052041873 -0.061594732 0.004564354 -0.03136488 0.0043667415 -0.073027246 0.009318687 -0.025599252 -0.023811301 0.054741554
걸 0.071417965 -0.035881113 0.0067642163 0.0374978 0.07437248 -0.016317677 0.025054827 -0.025044924 0.019209644 0.07097264 0.007581061 -0.09124946 -0.019043157 0.0051823054 -0.027883437 -0.07806703
한국 -0.005066385 0.04030032 -0.03687628 0.023076415 0.065364785 0.08458381 -0.039421268 0.07079819 -0.015950903 0.048587147 -0.032820553 0.017997403 -0.009179717 0.032202285 0.03166741 -0.09741362
에게 0.035122853 0.07977382 -0.009533224 -0.003643392 -0.035052784 0.041091755 -0.04035798 0.022669822 -0.0857954 -0.12228963 0.007403025 0.071296126 -0.0051801787 -0.00010022041 0.032698013 -0.011546984
는지 0.054611553 0.06564615 -0.009604583 0.09990018 -0.017537443 -0.0069060493 -0.009119818 0.0019334062 0.035159145 0.001410831 0.007796649 0.053317152 0.008511416 0.0128250085 -0.058925174 -0.032736134
많이 0.12088558 0.027043464 -0.036072545 0.0022746031 0.03676127 -0.0016358021 -0.015676316 -0.02489435 0.036494322 0.03914427 -0.021678347 0.022271642 0.018249167 0.021328725 -0.0065445825 -0.035635713
부터 0.026759965 -0.046756644 -0.032725252 0.035930537 -0.029991046 -0.063311085 0.027937572 -0.036665477 -0.017589267 -0.07777168 0.03061291 -0.010488215 -0.04119573 -0.046316504 0.0024848853 0.10058249
만든 -0.026809832 0.028148325 0.0025784587 -0.0203596 -0.042733252 -0.047410898 -0.03707639 -0.054304127 0.0020687124 0.0404075 -0.03034902 0.003719532 0.014992904 -0.009434122 0.035003997 -0.027048448
주인공 -0.0052224947 0.06203243 0.06538963 0.05965567 0.038350385 0.036291603 -0.038936876 0.09330552 -0.028654816 0.1073702 0.01967335 0.00020224377 -0.031083275 0.0028017627 -0.041060377 0.062948056
받 -0.007530425 0.023942422 -0.048059627 0.05728525 0.014265684 -0.059071198 -0.024612438 -0.030429568 0.0077813566 0.0342324 -0.023253871 -0.018919067 -0.009046786 0.0076857014 0.026757719 -0.0012472735
합니다 -0.05533531 0.027425095 -0.039881077 0.0034144374 0.07887231 0.18006721 -0.009459183 -0.043889463 -0.01964914 -0.09914454 -0.10924928 -0.058264922 0.0183839 -0.016040467 0.05082773 -0.020092038
!! 0.11855485 0.099109575 0.09858162 0.01998842 0.02563281 0.07646667 -0.00043298453 0.11751304 -0.009556735 0.06241807 -9.8980556e-05 0.031702712 0.024860065 -0.055575293 -0.033644468 0.118018895
두 0.041302588 -0.07018585 0.047767207 -0.008617774 -0.009183775 -0.03987798 -0.05792929 0.054084107 -0.03807989 -0.019610668 -0.016417507 -0.02906723 0.034807477 -0.019347923 0.043375872 -0.026379872
우리 -0.0031155583 0.09196082 -0.002644611 -0.099736445 0.01467454 -0.020480849 -0.052444734 0.007019018 -0.059126623 -0.10458168 -0.029481934 0.047176436 0.086549655 -0.009537112 0.11059847 -0.030731088
살 0.038848646 0.021169042 -0.07475449 -0.034440752 -0.0043347143 -0.04420461 -0.009790518 -0.03214727 -0.049656726 -0.038179368 -0.06476254 0.016348435 -0.016318075 0.012895325 0.02658691 -0.048073847
괜찮 -0.0978707 0.04051626 -0.047451515 -0.14062841 0.0721616 0.06382646 -0.047389198 0.034521367 -0.13442731 -0.0659655 -0.070508376 0.0996854 0.030514264 0.05749103 0.12109444 -0.044337686
길 0.055694077 0.0264299 0.018903453 -0.005607555 0.06424092 0.050465055 -0.05199198 0.054496516 0.00010377147 -0.0068126335 0.04112258 -0.083237 -0.027918555 -0.050380412 0.03344387 0.09530433
엔 0.0499182 0.0022634862 0.0137758115 -0.056441095 -0.0016315796 -0.042068537 0.023088554 0.055520587 -0.037792582 -0.010429662 0.01851762 0.012092095 -0.032214265 -0.03965779 -0.026273003 -0.010437466
기억 -0.0012148281 -0.011479626 -0.009483661 -0.048132785 0.05807857 -0.0018762441 -0.07576322 -0.021899842 -0.06239536 -0.019816829 -0.040220622 0.090075545 0.022424728 0.059234027 0.08706967 -0.014918125
한다 -0.031801008 0.0544558 0.06884239 0.0045483867 -0.07514472 -0.007761964 0.0032647336 -0.013410046 -0.00021949592 -0.023177857 -0.002934245 0.055670105 0.052238367 -0.0031780512 0.0138330795 0.065654844
ㅎㅎ -0.057863705 0.008569387 0.0042477087 0.019674085 0.172351 0.15305763 -0.033197705 0.074981205 -0.08852616 0.020851862 -0.023271294 0.030988714 0.09553765 -0.029147502 0.07259547 -0.015840396
연출 0.023837801 -0.012003901 -0.030060438 0.06942893 -0.033899207 0.040285252 0.032755904 -0.0092273 0.024858983 -0.036633186 -0.04038862 -0.02191496 0.004455327 -0.034400728 -0.058323964 0.038354248
때문 0.020060213 0.08718234 0.010719869 0.0417855 0.0036345597 0.024812836 -0.021030689 0.06461778 -0.0826182 -0.17236601 0.0041618943 0.070397556 0.01643047 -0.021829478 0.0133040175 -0.018688321
이나 0.07184129 -0.12894069 0.007692611 0.005314667 0.010248125 -0.07557369 -0.12757678 0.04670455 0.09997468 0.10537946 0.04927519 -0.031488914 -0.0521049 -0.036156394 -0.058569748 -0.055878263
요 0.058332372 0.0012009193 0.035997152 0.0013956777 -0.004747971 -0.05867747 -0.010694104 0.015421614 -0.048338376 -0.07940743 -0.05805764 0.061631136 0.037731018 -0.027721696 0.01934403 -0.017096728
저 -0.024794746 -0.050420977 0.040943354 -0.0104872985 0.049346067 0.046651375 0.046842627 0.03622496 0.059474815 0.044678953 0.007256296 0.037841626 0.04436858 0.01616183 0.03924383 0.016413674
재 -0.08734057 0.02536889 0.009361169 -0.0569503 -0.07918225 -0.06993483 -0.05682325 0.016582498 -0.048070107 0.043540694 -0.0387573 0.1273792 0.098451085 0.06788975 0.03716973 -0.06869178
꼭 -0.046694517 0.028493922 0.0051829508 -0.13483469 0.11471935 0.049090825 0.046648458 -0.039979838 -0.026167715 -0.025735788 -0.081019565 0.02725096 0.028779589 0.024283586 0.092542775 0.021294925
랑 0.04411152 0.04658272 -0.01642886 -0.0023596026 -0.046242498 0.041944593 -0.03509544 -0.044573836 0.019345405 -0.09424319 0.012282321 -0.003822606 -0.011782827 -0.021559013 -0.016101908 0.051155817
며 0.035676595 -0.015212066 -0.05471202 0.015728218 0.013157944 0.06592594 0.05621779 -0.032761738 -0.040209558 0.06031381 -0.051161923 -0.0004067623 0.012612697 -0.030696157 0.018921403 0.0021556928
현실 -0.09763207 -0.018290006 0.01864522 -0.076769106 0.029306805 -0.0070018745 -0.122561045 0.011779992 -0.06532016 -0.037629478 0.0009961338 -0.017765682 0.04802086 -0.032471284 0.086633325 0.0476928
ㅡㅡ 0.040246453 0.062387187 -0.014570436 0.0669642 -0.062263004 -0.06750831 -0.022521768 0.027549192 0.0321036 -0.07502452 0.03348684 -0.04637048 -0.105347395 -0.17210647 -0.07129645 0.05871389
긴 0.027275128 -0.023199737 0.10287212 -0.061948456 -0.0840688 -0.17100689 0.0022910286 -0.029518439 -0.060093023 0.023524692 0.060053118 0.12959021 0.008242908 0.049702648 -0.02199682 -0.030106014
무슨 0.14506468 -0.03865937 0.083812654 0.12256272 -0.065212786 -0.0071496544 0.056036055 0.03428155 0.074732535 0.066601045 0.013669009 -0.030734528 -0.07300914 0.058746643 -0.09257495 -0.0006341736
마음 -0.09430729 0.027656661 -0.09722716 -0.10447101 0.0864626 0.11037741 -0.014184039 -0.021726776 0.016115112 -0.06582232 -0.009449102 -0.0052227452 -0.012936772 -0.019293807 0.07158576 -0.02044782
내내 -0.0076431837 -0.015180318 -0.06562027 0.0105403345 0.020909892 0.036777083 -0.053219054 0.045039695 0.03054812 0.027173264 -0.020117106 -0.06000959 -0.04205411 -0.049900997 0.033181254 0.02491536
굿 -0.06876782 0.1836573 -0.062245935 -0.09735095 0.19634533 -0.043082774 -0.0627431 0.04043002 -0.07969922 -0.010337949 -0.14591736 0.0026295474 0.15477411 -0.020101234 0.16104801 -0.028176745
결말 0.018751742 0.052167755 0.051162932 0.049765676 -0.046703596 0.005986324 -0.026601123 0.10564205 -0.05899801 -0.0075980127 -0.012578797 -0.003080151 0.031494774 -0.080934055 0.015783321 0.005148073
죽 0.08025891 -0.021260347 0.04438494 -0.063071646 0.041385323 0.023823945 0.013527872 0.027274607 -0.068040535 0.07042743 -0.029889235 0.049292807 0.0035224147 0.030770209 -0.036666 0.011816734
남자 0.005273212 0.062141087 -0.020440469 -0.009803676 -0.0038822454 0.01607672 -0.0034793955 -0.0012959207 0.009745227 -0.02579317 -0.007579224 0.023892174 0.037542693 -0.03478764 0.026303405 -0.08830585
세요 -0.035687245 0.0356968 0.035530373 0.037804652 0.04812819 0.15714172 -0.008501252 0.059076726 -0.02464795 0.04341407 -0.051181097 -0.014136148 -0.00033116 -0.07442709 -0.023803871 0.0837873
전개 0.057281908 0.017618865 0.10962348 0.04984104 0.020342313 -0.007924997 0.027465861 0.009702276 0.05844053 0.049020145 0.015789835 -0.032733917 -0.040193316 -0.0305641 -0.057178468 -0.007240625
속 0.035471495 -0.01970384 0.06309118 -0.0073246225 -0.027233351 -0.04217304 -0.00905726 0.040800523 -0.018802147 0.040732626 0.017496165 0.101137266 -0.0067702685 0.00078511646 0.024310762 -0.005666147
소재 0.1822706 -0.02106577 0.0039071366 0.09436201 -0.019913483 -0.011604789 -0.07494459 -0.009391528 0.06927195 0.00324165 0.06311288 -0.015188484 -0.08077867 0.070736855 -0.06582855 -0.05416894
짱 -0.13639027 0.111545965 0.025752235 -0.0994934 -0.044085313 0.022022039 -0.07307739 0.06860386 -0.09077923 -0.19935216 -0.101828784 0.113565736 0.11873421 -0.066631354 0.13147292 -0.045440737
인생 -0.14010036 0.050104782 -0.07192974 -0.020857515 -0.060925756 0.14838235 0.11588147 -0.015906097 -0.05062169 0.12012428 -0.0026501107 0.082571276 0.121216714 0.059153482 -0.025073856 -0.052303337
공포 0.062722616 -0.035194453 0.08057663 0.054666713 0.056258436 0.057685733 0.04038938 -0.042037796 0.027775552 0.059088755 0.03653264 -0.00560596 -0.047484204 -0.0061538196 -0.0023785993 0.05042977
다른 0.028770033 -0.045237876 -0.051944096 -0.070511706 0.00032803623 -0.083008714 0.0018936114 -0.007963122 -0.0024486412 -0.060434364 -0.05524808 -0.003605762 0.032869153 0.011664786 -0.0033624517 -0.06535195
아서 -0.035912517 0.045182753 -0.055065442 0.06168562 -0.0011136052 0.048961163 0.071139395 -0.0064910683 0.02984176 0.060329325 -0.040314548 0.011071124 -0.011088417 -0.07027871 -0.011864939 0.040756203
씨 -0.022129027 -0.12501979 -0.017432459 -0.04893713 0.075260535 0.08230984 0.05086372 -0.031239206 0.04902258 -0.015753578 -0.004092274 -0.097572505 -0.018175682 0.014250084 0.028065793 0.024292687
~~ 0.033722296 0.03771169 0.0274584 -0.027311286 -0.03174039 -0.02049675 0.040083136 0.003830831 -0.021411281 -0.045541223 -0.05811062 0.03931619 0.0077594104 0.043101992 0.027920255 0.048481762
짜증 0.23348689 -0.038128678 0.018053891 0.2840988 -0.14316355 -0.040749997 0.1136026 0.01744338 0.16717525 0.0816611 0.03387422 -0.10283018 -0.15161143 -0.045047503 -0.19713639 -0.05001592
은데 0.05886825 0.023227299 -0.06982053 0.0043841414 0.0928976 0.022001263 0.056242324 -0.026543973 -0.028486922 0.062384214 -0.04207223 -0.006536429 0.08426631 0.025195535 -0.014887343 -0.007568191
아요 -0.12095203 -0.02825315 -0.029624445 -0.01755777 0.12755956 0.06435091 -0.036544204 0.012106879 -0.011283655 -0.011169022 0.009507415 -0.0034980713 0.056094766 -0.096459806 0.12888844 0.08853413
뿐 0.018899906 -0.0023103387 -0.015776312 0.04852367 -0.033286057 0.02649439 0.030704625 -0.033206556 0.06775152 0.07790425 0.020962652 0.054156106 0.00652263 0.0261635 -0.08856217 -0.00016139918
필요 -0.14704803 0.062397484 -0.02161396 -0.11306454 0.089710556 0.015270524 -0.10777352 -0.00887616 -0.13763453 -0.09520069 -0.10967624 0.059906412 0.08050632 -0.024109788 0.14665727 0.03460875
별 0.081632376 -0.13706297 0.08080186 0.0067434204 0.025369965 -0.074511014 0.058359496 -0.06565894 0.038855635 0.0022472662 0.07740792 0.042569377 -0.014526662 0.08496472 -0.0035663936 0.16067797
유치 0.11991631 -0.21964219 0.08939556 0.1211005 -0.012771741 0.002400371 0.055753816 -0.06426299 0.14417316 0.10823779 0.16522494 -0.10975416 -0.22498971 -0.0020946627 -0.12758128 0.10408713
가장 0.003954281 -0.004289569 -0.009111555 -0.08388416 0.03353066 0.057939004 0.022681093 0.027810369 0.040879704 0.12462523 -0.019674234 -0.033392813 0.022063054 -0.04094722 -0.01905742 0.09703382
음악 -0.07605533 0.005430125 -0.03284989 -0.024837304 0.058722235 0.018589146 -0.0042668167 0.012609731 -0.026389364 -0.02608032 0.008841468 0.07170775 0.10678409 0.0954161 0.028632183 -0.117327884
) 0.021230875 -0.05572754 -0.020202443 0.017222853 -0.005594828 -0.069387935 -0.085451685 0.02415679 -0.033899095 -0.08158473 -0.006230593 -0.012851537 -0.021347657 0.006249864 0.0028160957 -0.1111605
일본 0.037276614 -0.0059740245 0.047604218 -0.0122626005 -0.020789439 -0.0051981616 -0.01204319 -0.027929429 0.007894398 0.035865523 -0.02664741 -0.059806764 -0.024878517 -0.05577405 -0.025291258 0.08437817
낮 -0.083775245 0.045422405 -0.15286662 -0.16619115 0.0693802 0.0023973887 -0.063332155 0.0151242325 -0.09068143 -0.08561044 -0.15581515 -0.0153499795 0.12907593 -0.010372492 0.13547759 -0.053500764
아이 -0.026883146 0.01930364 0.044124126 0.017860558 0.022359483 0.086934194 -0.071858056 0.045787077 -0.017011069 -0.04578841 -0.027004983 0.052044354 0.006732883 0.06475333 0.038949076 -0.066883974
;; 0.055820376 0.09720203 0.010985527 0.050134636 0.09729066 0.035249174 0.0014504872 0.018613104 0.0061980523 0.015227567 -0.040341258 -0.035303704 -0.046714876 -0.05515618 -0.072151005 0.11998102
오 -0.060592942 -0.026957903 -0.014682514 0.0033544516 0.040471625 0.049976047 -0.012583786 -0.024398187 0.040763084 -0.09862416 0.013384829 -0.015430465 0.018606625 -0.018400777 0.0072236476 -0.040498037
반전 -0.03190679 0.04294171 -0.030685112 -0.0037515657 -0.049215496 0.087598294 0.046467934 0.013073694 0.003722012 -0.021859102 -0.05478355 0.02399476 0.041881282 -0.03603444 0.047970492 0.0016002301
매력 -0.053174257 0.11983351 -0.0673498 -0.030493977 -0.0438047 -0.13330081 -0.06426335 0.0053422973 -0.06102247 -0.09587504 -0.07980827 0.0631507 0.09796011 -0.0071208687 0.08656227 -0.04820445
수준 0.10823093 -0.09396653 0.025307447 0.07462935 -0.07928717 -0.044342585 0.10552686 -0.05376115 0.06609499 0.03565492 0.09752767 0.022401702 -0.020269489 0.015185672 -0.11873418 -0.037176467
다니 -0.1075469 0.077301495 -0.009991084 0.015783362 -0.005026238 0.06790176 -0.019767446 0.0041830484 0.0030775552 0.01024349 -0.039874487 -0.08457524 0.028965259 -0.061210956 0.0032661825 0.0025529205
밋 -0.083186366 0.09847157 -0.020295024 -0.06218014 0.07097061 0.09416867 0.02342347 0.05158781 -0.1401744 -0.046123423 -0.093881376 0.08837962 0.041028958 0.020603798 0.11504726 0.019970952
웃 0.021601634 0.0013802958 0.009673241 -0.009703448 -0.0062452233 -0.047682576 -0.04532944 -0.0014300888 -0.05979968 -0.030696677 -0.014829478 0.015975581 0.06251844 0.095151976 0.062139392 -0.01496576
맞 0.075670324 -0.09630434 -0.004890893 0.005070023 -0.009467053 -0.03522563 -0.08403632 0.042267382 0.004269542 0.024308603 0.08935572 -0.031232415 -0.07621505 -0.037625145 -0.01573274 0.014805542
인지 0.023335718 -0.054824412 0.058906782 -0.051378988 0.061740436 0.053617705 -0.042111814 -0.05659523 0.015647406 0.061362628 0.059439674 -0.06993666 -0.0964943 -0.0015546794 0.0057495427 0.13583225
가슴 -0.08111441 0.030633971 -0.018502492 -0.1557027 0.141811 0.053415153 -0.028472396 -0.007576583 -0.102399394 0.040246725 -0.038153213 -0.018377023 0.123341724 0.048348915 0.0791647 -0.09480439
없이 -0.058443893 -0.021118846 0.03438163 0.05338862 -0.03524474 -0.04503222 -0.06967088 0.07869651 -0.001145063 0.0051539196 -0.003866831 0.0037971116 0.04158948 -0.06621878 0.0102524655 0.028880058
원작 0.14643306 0.024989886 0.058370307 0.03859055 -0.00045419525 0.06220699 0.0365588 0.08746518 -0.021606673 0.009239848 0.0017310918 -0.03291756 -0.051158432 0.047186308 -0.13275553 0.004269577
높 0.19465595 -0.010782643 0.0726067 0.054862034 -0.109687254 -0.10974916 0.069161706 0.04541706 0.038497537 0.19719298 0.123060085 0.058724847 -0.0044688387 0.06289085 -0.16503993 0.027195612
ㄷ -0.0045309262 -0.02411629 -0.0117808785 -0.014024083 0.026605565 -0.04461827 -0.048285577 -0.009979101 -0.051914863 -0.05223216 -0.020316577 -0.06774075 0.0058238055 -0.061887942 0.08056499 0.1529574
인간 -0.12968254 0.051567636 -0.039243538 -0.081610456 0.048269127 0.067595445 0.10276265 -0.089827925 0.021752162 0.0006433239 -0.062927976 0.06376565 -0.012879557 -0.032983396 0.071032226 0.13212384
데 0.0069568213 -0.04819521 0.014955945 -0.09873772 0.0301867 -0.03891374 -0.01789252 -0.044541243 -0.022000164 -0.03886451 0.03920652 0.07679356 0.04421466 0.06214889 -0.0107089905 0.049192198
ㅠ 0.030508436 -0.07050692 -0.09215426 -0.037623774 -0.015217616 -0.07928434 0.01740143 -0.07600737 -0.0028892544 -0.030948745 0.045074068 0.010312389 -0.008373805 0.051869582 0.048940346 -0.013110419
( -0.03583761 0.042143162 0.024106793 0.056964915 -0.117578045 -0.12060801 0.054845728 0.001190711 0.03467646 -0.0091542415 0.02424284 0.08283721 0.0568121 -0.013449965 -0.00611143 -0.10298499
노 0.28797904 -0.20338982 0.26051578 0.12404725 -0.20702568 -0.1410579 -0.01832305 0.14516363 0.119316295 0.063921474 0.29610085 0.030186163 -0.22510383 -0.006525966 -0.24356443 0.1429604
만드 0.06797062 -0.06328012 0.04707803 0.029429642 0.019141031 -0.05425731 -0.030641366 -0.021851871 -0.048244204 -0.0687209 0.04230375 0.043293193 0.016268294 -0.017081458 -0.00497882 0.036897138
급 0.04936405 -0.014450926 0.067625515 -0.09243111 0.0397712 -0.05435009 -0.06589283 0.03015213 -0.019930843 -0.039994527 0.031474344 0.044722233 -0.0027681747 -0.046133444 0.05156271 0.103847176
눈물 -0.026392696 0.06874604 -0.0988047 -0.15972403 0.11394097 -0.054889977 -0.092234835 -0.018807739 -0.1610732 -0.036022615 -0.056963626 -0.0048955716 0.15667075 0.008529144 0.14937297 -0.103619106
준 0.05960365 0.08842719 -0.079832524 0.0029241315 -0.028325647 -0.09894934 0.009122568 0.011918249 0.0043796017 -0.078193426 -0.014585791 0.019359622 0.010323198 0.012094414 -0.011765829 0.0114886165
보여 0.02211381 -0.020061895 0.02761734 -0.00359437 -0.07214843 -0.04099332 -0.03887314 0.029355975 -0.054262877 -0.044209525 -0.053168543 0.02916036 0.0154067995 0.011881154 0.005954065 -0.055159792
용 0.05439648 0.03450547 -0.0025805957 0.040320855 0.037317574 0.05486617 -0.028558396 0.07812008 0.0053215637 -0.036887914 0.06686133 -0.009965158 -0.09502212 -0.03797653 -0.0028875957 0.04208335
찍 0.052466545 -0.010338906 0.089505665 0.064119995 -0.002995045 -0.011859371 -0.020428484 -0.008952803 0.0013426461 -0.036673818 0.028938213 0.002560147 -0.08411571 -0.02230075 -0.068880364 0.012790924
인가 0.0038883842 0.06944967 0.024917481 0.093819186 -0.114322886 -0.010888926 0.009903208 0.04465569 0.052638862 0.0067854105 -0.029565386 0.004459331 -0.011730889 0.011988954 0.0057518007 0.012620244
을까 0.004884328 -0.014068722 -0.022643754 -0.0059311367 -0.10835638 -0.06259068 -0.010805851 -0.016816407 0.037320778 0.00471021 0.007530992 -0.013122192 0.0053048143 0.036109287 0.019495448 -0.02140685
코미디 0.072501466 -0.031889364 -0.007937926 0.036015723 -0.029789295 -0.042409502 0.031953342 -0.011639011 0.08242644 -0.029931048 -0.025138216 0.015731085 -0.06119886 -0.037171736 -0.020588228 -0.061675787
마 0.041290518 0.07226375 0.04091824 0.0735382 -0.018067967 0.07857216 -0.025614645 -0.020521604 0.08242396 0.021862315 0.041329663 -0.043669857 0.014067507 -0.024508124 -0.066471696 0.03642315
화 0.0823872 -0.09365618 0.045472413 0.059115738 0.007611081 -0.041990284 -0.03632997 -0.04692668 0.01902317 -0.058655407 0.0035851363 0.028302964 -0.05532857 -0.040340025 -0.06288758 0.011787588
신 0.063159175 0.05565298 -0.011914144 -0.09108275 0.07321531 -0.075775735 -0.088618405 0.0781354 -0.0372559 0.0028309543 -0.016589338 0.04101189 0.07169109 -0.021730913 0.02402599 -0.046390973
여 0.0034938566 0.059560385 -0.041045822 0.008568894 0.003785331 -0.03282509 0.09339811 -0.007489225 -0.022990057 0.04366677 0.030410089 0.015399122 -0.008415092 -0.03366707 -0.057555765 -0.048137426
모든 -0.020574773 0.13673028 -0.062610924 0.0059997616 -0.0027353491 0.068642 -0.07993077 0.04456597 -0.06724621 -0.055018544 -0.074669965 0.01943607 0.11035087 -0.042994726 0.01096462 -0.12069822
쓰 0.036559705 0.003636363 0.0685289 0.01004958 0.049869224 0.027940841 0.012361227 0.020371255 0.025002481 0.030195002 0.025622299 0.017193723 -0.018992182 0.011071673 -0.03773376 -0.007723507
아직 0.01175256 -0.021444783 -0.06275352 5.6950725e-05 0.1575261 0.08845909 0.03007384 -0.048117146 -0.03245523 0.023320973 -0.09317461 -0.040031616 -0.002803287 -0.035623364 0.026167631 0.0578939
5 0.048531394 0.055497903 0.002526095 -0.011094069 0.0048109954 -0.011750621 -0.15130787 0.12804346 -0.044448398 -0.029210381 0.0017486487 0.025240414 0.070068486 -0.010451407 0.036686834 -0.06748483
추천 -0.035718013 0.13305776 -0.0016079254 -0.023520628 -0.056725234 0.08302941 -0.027290436 0.014608732 -0.08681867 0.08117054 -0.045854654 0.1088558 0.10978139 0.0025823151 0.017126603 -0.09358692
처럼 0.011794375 0.053727925 -0.06836826 0.05424073 0.06553908 0.06378773 -0.05609709 0.037562963 -0.08444512 0.02708256 -0.037791543 -0.07308131 0.032718614 -0.011543204 -0.011936954 -0.0449752
눈 0.0033359039 -0.013697872 0.0063049546 0.058194913 0.06409719 0.004079833 -0.029492702 0.064449996 0.018228095 -0.01794193 -0.055115987 -0.028230064 -0.013851419 -0.07004171 -0.03474531 -0.05445528
아닌 0.0334099 -0.03231008 0.04203736 0.067902155 -0.12546493 -0.026448503 -0.036280055 0.0078397775 0.06780578 -0.07851355 0.050697368 -0.0316241 -0.048524536 0.0024422898 -0.052427124 -0.0046342392
자체 -0.05377072 -0.026628328 0.05784251 -0.050651208 0.026789198 0.010902472 -0.023894869 0.03688288 0.0029589478 -0.00045575897 0.006686724 0.11004181 -0.023976319 0.03487006 -0.053388275 -0.008115016
4 0.1295972 -0.052125286 0.047353636 0.04364735 0.021099318 -0.036014576 -0.024847057 0.014250428 0.08486192 0.09046092 0.024181549 -0.069140576 -0.036670063 -0.014967576 -0.06738717 -0.01813885
울 -0.12389969 0.066372745 -0.005127984 -0.15434033 -0.014923784 0.055640575 -0.031449474 0.067724206 -0.15505113 -0.027668316 -0.094248526 0.1528763 0.1786955 -0.0076861535 0.17493752 0.017520456
대박 -0.12138089 0.07506308 -0.0048775184 -0.10177951 0.06565224 -0.03476371 -0.007998147 0.009837093 -0.06398949 -0.08533578 -0.03027496 0.05512261 0.15056685 -0.008671408 0.17691167 0.014788263
몰입 -0.095586896 0.052217774 -0.056824647 -0.048779946 0.054420732 0.061211497 0.012922667 0.0949735 -0.027372018 0.038781963 -0.072117925 -0.037263006 0.055803612 0.021905977 0.07507777 -0.060203392
몇 -0.06529806 0.024158532 0.06807446 -0.07022628 0.11807275 0.059103966 -0.009194583 0.05039258 -0.07634474 -0.0019105216 -0.0755858 0.015806746 0.0125116715 -0.021424368 0.020834303 0.09927848
실망 0.15766065 -0.1541017 0.0047152378 0.17493388 -0.065428905 -0.06277846 -0.013369645 -0.083128795 0.2771529 0.07663 0.122677535 -0.23470855 -0.17431921 0.0023751692 -0.22203413 -0.009914539
스럽 -0.113472976 0.012095784 0.04224453 0.06354621 -0.046979934 0.07529707 0.012271482 -0.002631848 0.03992999 0.074441336 -0.005746563 0.031995974 0.03211592 -0.027114261 -0.043405302 0.037744507
는다 0.010852197 0.032400925 -0.038409315 0.044500962 -0.015301575 0.027120696 0.033211876 0.019346753 0.028030906 -0.00042662368 0.04421152 -0.027258998 0.029371426 -0.04674121 -0.025572049 -0.03614669
대한 -0.07302136 0.012484918 -0.065626875 0.00032831024 -8.965358e-05 -0.003227381 -0.020729337 0.017722169 0.012071066 -0.0369575 -0.06220104 -0.074620105 0.066130914 0.013573172 0.030033858 -0.015068801
죠 -0.015416123 -0.0037068138 -0.0855674 -0.020259304 0.067024216 -0.018875644 0.03070199 -0.04143656 0.0001915734 0.04787315 -0.0541295 0.034091994 0.065878846 0.056838524 0.04494267 -0.030274874
란 -0.05624121 0.07912501 -0.041819774 0.046709076 0.0133384215 0.033399757 0.011801375 0.110613346 0.0009166498 0.046081964 -0.0034305903 0.05781014 0.011091408 0.013843137 0.016755456 -0.06787863
그런 0.006722365 -0.01776777 0.07007711 0.013610543 0.0044220677 0.008512747 0.00058386044 0.007839541 0.008851734 -0.039484322 0.080114245 -0.11293165 -0.006165924 -0.09482659 -0.032263532 0.09303708
솔직히 0.05967223 -0.060070843 0.08573512 0.029099505 -0.037739314 -0.0035513998 0.048820995 0.11165597 0.03341137 0.06618626 0.025086975 0.02619831 -0.045628484 0.07073647 -0.07632384 0.076407805
ㅎ -0.0896054 -0.050109126 0.028857658 -0.041152753 0.080567054 0.042654496 0.05617871 -0.027956469 -0.014708514 0.0075618993 0.012739854 0.10664754 0.0044200593 0.06713505 0.035898972 0.06683924
캐릭터 -0.02476492 -0.07181755 0.035842225 0.02057385 0.039793506 0.16761667 0.0053306734 -0.004791828 0.03567655 0.102267556 -0.0016701655 -0.00097506715 -0.017416421 0.087098986 -0.071591705 0.012808445
아주 0.04271797 0.045627773 -0.058950413 0.016700845 0.026606513 0.036118582 0.013485425 0.019346727 -0.06245901 0.008601505 -0.016388875 0.03808693 0.018638229 0.023154171 0.025787368 -0.10228703
모두 -0.08148601 0.10092212 0.030847339 -0.044569004 0.013532743 0.0623502 -0.0688049 0.062128004 -0.034863874 -0.059639905 -0.059925508 0.05995628 0.09393547 -0.0018429413 0.043470237 -0.089225225
- -0.027804147 -0.07697953 -0.05987027 0.004912548 0.10295919 0.055219702 0.037725218 0.01953195 -0.00019651346 -0.02566493 0.039821345 -0.03663924 -0.030254573 0.02368569 -0.043883514 0.023903763
가족 -0.05334131 0.036038548 0.0012640618 -0.031323444 -0.03285246 -0.027975108 0.040159065 0.0660149 0.0033084715 0.06657541 -0.0325938 0.0056585316 0.042766217 0.05288913 0.03235923 -0.08314031
여운 -0.20528486 0.105275564 -0.14281397 -0.1733435 0.073147304 -0.019263785 -0.08055733 0.011680392 -0.15289195 -0.073069766 -0.17655419 0.09676714 0.21174009 -0.052242216 0.23555562 -0.03865861
건지 -0.039509058 0.018054307 -0.0042353934 0.12798363 -0.044086523 0.1582076 0.06562044 0.0313278 0.020532032 0.09486738 -0.017502412 -0.019934498 0.011810743 -0.009779279 -0.13217612 -0.11312505
전혀 0.080549546 -0.024170004 -0.12895012 0.012500219 -0.034345433 -0.03578269 0.04727298 -0.048851144 0.1020485 0.051908802 -0.004339458 -0.0015939078 -0.048468012 0.07088223 -0.013724984 -0.14062554
연기력 -0.010620154 0.0027977834 -0.013407169 -0.017099217 0.028856603 0.09310924 -0.078717686 0.07738305 -0.00025747062 0.058982477 0.03744375 -0.03824045 -0.044419933 -0.03452527 0.009698617 0.0035316886
나라 0.07983189 0.015896391 0.04435279 -0.01926486 0.0146480305 -0.020395579 -0.002105443 -0.020718675 -0.058028337 -0.09446347 -0.028552262 0.05845624 -0.013256204 0.08102402 0.051598705 0.014755928
후 0.002310229 0.017888581 0.028437367 0.029474324 0.039304253 -0.0075068194 0.021713477 0.030947305 -0.023408182 -0.06695019 0.043248907 0.02530934 -0.0135538 -0.027429737 0.016014077 0.06466486
다면 0.082348384 0.019184535 0.10131865 -0.079611 0.02928756 0.009332527 -0.0805252 0.10651275 -0.05361809 0.03356682 0.029127207 0.04258945 0.034494195 0.05460897 -0.029116154 0.0062795607
될 0.081136905 -0.039719027 0.052148093 0.050374035 -0.007231929 -0.026148219 0.007302484 0.0141133005 -0.0010772757 -0.04601145 -0.019945374 -0.010853504 -0.027162228 -0.019979205 -0.030760432 0.04931087
뭔가 0.021615233 -0.059873138 0.07852572 -0.021645563 0.011766474 -0.002105661 0.0825864 -0.0015022242 -0.020141985 0.05124064 0.0006817569 0.04920914 -0.0050447746 0.061977256 -0.0045576687 0.0855294
그래도 -0.010432672 0.10826809 0.05827159 0.005473296 -0.03658989 0.028806604 0.018676162 0.010134899 -0.05256701 0.03438475 -0.03917957 0.033408307 0.112120554 -0.07013355 0.06378505 0.034702566
; -0.00010707883 0.04619039 -0.08682904 -0.010047402 0.05826991 -0.041883457 -0.006276181 -0.14817606 0.040864978 -0.042755403 -0.024673294 -0.019195847 -0.04608916 0.063374326 0.0043763523 -0.07041586
시리즈 0.0024725213 0.07413739 -0.06717462 0.029870443 -0.0031597125 0.025241207 -0.031972714 -0.012138558 -0.051910073 -0.037382007 -0.061647225 0.055280752 0.031982772 -0.025543034 0.009231886 -0.009603587
근데 -0.08754224 -0.0282111 0.0039215884 -0.041909736 -0.0020262992 0.058300134 -0.15582122 0.14563689 -0.036364853 -0.03607569 -0.018449154 0.026204629 0.07626084 0.03349115 0.023539972 -0.050935127
작 0.0313296 0.053119577 -0.007186571 0.0059832935 -0.025229333 0.07173085 0.031268403 -0.038092934 -0.017805733 0.08795772 0.026298165 0.03708783 0.0024773104 -0.059150934 -0.009911906 -0.031510595
표현 0.040406734 0.062736005 -0.017698798 -0.12317731 0.117416814 -0.07254239 -0.017149867 0.018528312 -0.16630478 -0.04054898 -0.051772494 0.06812094 0.078924686 0.021769773 0.022476902 -0.056415502
모습 0.033860866 0.110856235 -0.014865647 -0.023934076 -0.056883927 -0.039912857 -0.15482637 0.1470886 -0.11649413 -0.080493346 -0.05353944 0.0069102016 0.09550933 -0.048619475 0.027131163 -0.06827965
공감 0.09571868 0.039777856 0.05571376 -0.044631515 0.010369783 -0.0018537067 -0.049300876 0.11362475 -0.07999085 -0.05113486 -0.08153658 0.033084996 0.03276084 0.06111807 0.058374602 -0.0433133
계속 -0.1276119 0.03803003 -0.12810045 -0.045076653 -0.005089335 0.043107618 -0.07056769 0.08171847 -0.085283704 -0.081508316 -0.05045247 0.00546016 0.07885106 -0.06626212 0.065287784 -0.12901163
먹 0.04799231 0.0057348344 -0.08028745 0.06727272 -0.053314425 0.039229747 0.11093551 -0.059900425 0.040642656 0.05189223 0.009745931 -0.058087226 0.0022370769 0.024982428 -0.07301932 -0.080392584
"" 0.018066274 -0.048843488 -0.04689619 -0.0598809 0.112845026 0.026378931 -0.026806202 -0.085912265 -0.026027545 0.07749729 -0.012991057 -0.040237352 0.034185473 0.004159516 -0.00871012 0.008740994
제목 0.06215126 0.08648524 0.009286902 0.07205098 -0.036943562 -0.07966559 -0.06471492 0.038454846 -0.028758962 -0.011110095 0.040379617 0.06208661 0.010911426 -0.02543943 -0.04765515 -0.07722321
7 -0.026852632 -0.015759904 -0.086672015 -0.032238107 0.0127375955 0.007567775 0.005649587 -0.094684474 -0.10484611 -0.014769249 -0.10253138 0.015559468 0.036098532 0.031417135 0.0180969 -0.09102246
이랑 0.022248363 0.12503064 -0.039990243 0.0016211323 0.017170189 0.03269051 -0.05941254 0.05795935 -0.06087216 0.035847425 0.010019698 -0.038954865 -0.0077660326 0.013849418 -0.068849646 -0.14855807
극장 0.09824853 -0.001703557 0.0316521 0.058809415 -0.09118719 0.031469904 0.17909141 -0.030443868 0.0027197988 0.13328178 0.009212881 0.06399144 -0.062038206 0.0918139 -0.045816593 -0.009190027
치 -0.040390484 -0.017089428 -0.01712752 0.051972583 -0.066717684 0.08422276 -0.016135523 0.011598025 0.044843797 -0.03685596 0.08920998 -0.05026028 -0.036185324 0.03761884 -0.07935948 0.03501277
비 0.04459568 -0.04074749 0.112405956 -0.0044176592 0.005759784 0.025288155 0.09432879 0.028837483 -0.0023191394 0.13776985 0.04110871 0.028873289 -0.026665825 -0.009905056 -0.08068019 0.00025099653
이걸 0.033437926 0.027631123 0.061471358 0.116934784 -0.06388263 0.097986706 0.030043894 0.02391118 0.010344554 0.050612733 0.042398706 -0.046155702 -0.06282907 -0.01546439 -0.09596914 0.019040704
진 0.012744805 -0.0527502 -0.0030922284 0.023593957 0.03136532 -0.028235132 -0.061523788 0.062700756 0.00016507789 0.039598685 -0.014763584 -0.050739713 0.04578882 0.0045984145 0.033704996 -0.037758633
바 0.18770614 -0.080339916 0.04185089 0.115880944 -0.053515673 -0.0095991185 0.04729509 -0.096338235 0.047623232 -0.02708864 0.06722074 -0.038481113 -0.17361054 0.1061094 -0.101573005 0.05229529
0 0.34282002 0.004734506 0.17575452 0.10799586 0.00996923 -0.14227062 -0.079506285 0.117204465 -0.010594426 0.013198098 0.06885274 0.000397033 -0.097974375 -0.09359912 -0.13577014 -0.00025737652
OO -0.011199792 -0.042834055 -0.03243325 0.0809442 0.02086359 -0.015373303 0.060197942 -0.03890655 0.036559194 0.1219881 0.060941823 -0.015857162 -0.0036661942 -0.060583036 -0.08096311 -0.0038357496
그렇 0.033232413 -0.093921915 -0.0013974335 0.047215197 -0.08030851 -0.0726647 -0.016516767 -0.033286788 0.17114487 0.0006058717 0.03685737 -0.07281482 -0.09372314 0.013752577 -0.020359876 0.030367477
대사 0.005540829 -0.07592024 -0.036225587 0.037858207 0.026562847 0.024750676 -0.08655619 -0.0020410174 0.008999318 -0.029347295 -0.018908257 0.037883557 0.003477663 0.059518434 0.015037247 -0.066172004
부분 0.06794123 -0.017351558 -0.0342361 0.030092154 0.1007679 -0.10451351 -0.08494529 -0.0029534732 -0.000113431895 0.025688553 -0.025192676 -0.100031056 0.04326226 0.021140244 0.007331585 -0.11371279
개봉 0.06340868 -0.010167538 0.08978354 0.05921465 -0.04395081 0.043924913 0.0496986 0.039974466 -0.008482613 0.13775423 0.036308043 0.107681364 0.0013414358 0.054205317 -0.04763754 0.018877225
대단 -0.049625214 -0.008337268 -0.03003265 -0.056345265 0.020090869 -0.0320588 0.015899114 -0.057221856 -0.07958874 -0.05493298 -0.044363968 -0.0012888188 0.057112474 -0.040616482 0.14611177 0.028267201
어디 0.058790967 -0.043050814 -0.0032972794 -0.07824832 0.042627312 -0.09703037 0.11078218 -0.063212715 -0.046610523 0.115512505 0.050766356 -0.0059065786 -0.044688705 0.023331542 0.0019808805 0.10759398
된다 0.01590723 0.025377745 -0.03455858 -0.023241706 -0.029838676 0.05899745 0.009768972 -0.020744674 -0.027612753 0.012128207 -0.042119082 -0.03611936 -0.0092581855 -0.027174337 0.015673574 0.02757476
작가 0.09466309 -0.04414098 0.0020261104 0.10579749 -0.013529553 -0.09216421 -0.055770077 0.058131095 0.026565481 -0.061588116 0.08485114 -0.09530809 -0.11348817 -0.14607202 -0.011249366 0.09939891
기분 0.046856176 0.008483657 -0.010902532 0.0483421 -0.012248239 0.039723646 -0.005301059 -0.06247751 0.029942835 -0.04874404 0.0085071605 -0.075846635 -0.045367543 -0.061737042 -0.059991784 -0.00049179967
아쉽 -0.018275268 -0.0771577 -0.060411647 -0.070480324 0.15021129 0.16725886 -0.06673547 -0.013254735 -0.019740816 -0.059475515 -0.005009593 -0.025553122 -0.006485174 0.050797723 0.04631464 0.01304267
제 -0.041630432 -0.038881045 0.026882913 0.027653309 0.04002255 0.044100106 -0.0033542512 -0.05889753 -0.010605786 -0.06726184 0.019306378 -0.013859599 -0.014086536 -0.045336712 -0.019017406 0.08210982
진심 0.046499874 -0.024991637 -0.02612644 -0.012189253 0.04228799 0.05170476 -0.028232872 0.017241118 0.078670114 0.0044852835 0.087556586 -0.007981165 -0.0047631413 -0.017107317 -0.01964247 0.09263379
타임 0.033092663 0.09118497 0.066489324 0.034251023 -0.017891709 -0.0035917943 -0.046038322 0.025897471 -0.056611713 0.055072993 -0.017552853 0.06215418 0.002201187 0.03661989 0.018166997 -0.054558147
/ 0.057552006 0.045099612 -0.07710513 0.0068497295 0.038665533 -0.0077289147 0.10139763 -0.061158713 0.013930632 0.098349735 -0.029154113 0.014803092 0.004701448 0.061135918 0.017889127 -0.15169445
놓 0.049154133 -0.0965508 0.026566712 -0.048782583 0.03420569 0.00026901887 0.10906267 -0.06396605 0.025384242 -0.015424391 -0.014240475 0.044119023 -0.040257532 0.04897948 0.04674004 0.14760223
웃기 0.011814333 0.069427066 -0.07782031 0.055128656 -0.044670958 -0.0044145067 -0.067599796 -0.0016363151 -0.021758804 -0.03492215 0.008593337 -0.05954635 0.0056809997 -0.066697136 0.034076426 -0.06957977
보이 0.03974711 0.026134355 0.07588443 -0.070138454 -0.04494546 -0.10191085 -0.012559667 -0.0036536707 -0.06611942 -0.15045941 0.03646053 0.01104929 -0.058473527 -0.10002809 0.059289064 0.10817395
해도 0.049653996 -0.088432275 -0.011333139 0.0861798 0.080629855 -0.037247602 -0.06358634 0.042851493 0.031419195 0.08119695 0.03756289 -0.026959332 -0.005806704 -0.018853249 -0.046985183 -0.0673448
이제 0.066147625 -0.16340825 -0.014197258 -0.041097637 0.08912867 -0.0632759 0.005611505 -0.012206793 0.039950892 0.13111417 0.08423569 -0.036508393 -0.03422747 0.034915917 -0.017490905 -0.087966375
물 -0.010792101 0.043114085 0.0099235745 0.108824685 0.03433482 0.20036721 0.058874294 0.07355985 0.009565535 0.10132629 0.043583885 -0.01244583 -0.059222367 0.008659673 -0.08680123 -0.031780247
봐야 -0.104580745 0.014720742 -0.1060562 -0.06984911 0.0070193373 0.044614017 -0.017184794 0.028384084 -0.07478144 -0.0292122 -0.028061865 -0.005103571 0.12245146 -0.06735115 0.06974057 -0.06457355
막장 0.18800415 -0.06043362 -0.0029730257 0.12201554 -0.13085845 0.010123899 0.07947661 -0.015641768 0.12525386 0.03329704 0.07144838 0.00697219 -0.0734429 0.08493913 -0.20049293 -0.07027464
삶 -0.11047019 -0.021514222 -0.117288776 -0.16680817 0.13993874 0.025058191 0.02897468 -0.080594145 -0.0037808202 -0.004124373 -0.038209714 0.041436896 0.09812446 -0.0015727159 0.07717783 -0.039266247
친구 -0.031235676 0.09204489 -0.028980173 0.019768367 -0.09106315 0.0052913167 0.004259082 0.011666364 0.04556875 -0.035833314 0.013156914 -0.0028425811 0.047322817 -0.0740767 -0.006571833 0.08640252
잔잔 0.0020070053 -0.005158464 -0.0034208747 -0.06051335 0.11281664 -0.008998882 0.03826535 -0.08346078 -0.02938925 -0.052236244 0.006749242 -0.036256943 0.05583527 -0.048416436 0.116869345 0.08000808
씬 -0.04907488 0.033152245 -0.011535864 0.017954402 -0.08119213 -0.08332883 -0.06862594 0.0063681463 0.050474346 -0.1650318 0.02132067 0.03805582 0.0846299 0.047783583 0.08507123 -0.08583327
조금 -0.08598988 0.03568404 0.05586384 -0.049252853 -0.032126684 0.008302793 -0.021229494 0.1091396 -0.038435794 0.015939236 -0.0024356965 0.03559137 0.051462024 -0.052991014 0.03146318 0.053796522
딱 0.14582238 0.0076735034 0.055963855 -0.014095046 -0.09160674 -0.04435658 -0.06729212 -0.031231415 -0.046321474 -0.10431574 -0.057226494 0.09292268 -0.032185294 0.075647645 -0.063225664 -0.033024356
억지 0.15149653 -0.12003868 0.05405213 0.18679631 -0.12745641 -0.05243156 0.08803469 -0.11597997 0.1612505 -0.0691872 0.16109718 -0.06462008 -0.19124833 -0.08685106 -0.15518926 0.14195342
영상 0.05132089 0.006411187 -0.03548719 -0.040451396 0.025559066 -0.011897084 -0.054133553 0.0058830855 -0.045972053 -0.022643251 0.010993276 0.025304453 0.012389113 0.09269837 -0.01367631 -0.06710508
찾 0.039982725 -0.033595547 0.033147335 -0.0756297 -0.017582476 -0.0404468 -0.018438546 -0.0021331431 -0.0553601 0.08176323 -0.021806825 -0.012407242 0.045359895 0.005937374 0.017184794 0.0015876599
요즘 -0.15897998 0.0005207891 -0.023830995 -0.11271042 0.0073141465 -0.09221883 -0.1712413 -0.008919327 -0.14741325 -0.1804777 0.0032594183 0.0090649165 0.067464024 -0.009884068 0.12595594 -0.06249417
같이 0.03351134 0.08725368 0.010317745 0.029169125 -0.050506175 -0.042577166 -0.040390145 0.004728979 0.035514366 -0.107521765 0.005831498 -0.040626448 -0.054930627 -0.10316458 -0.030622842 0.052280355
" 0.07929215 -0.12574175 0.0048146476 0.047618948 0.005242667 -0.04185733 -0.055253997 -0.0129911965 0.0037664464 0.011000137 0.06075291 -0.018112626 -0.07670885 -0.06484202 0.015903529 0.034552027
중간 0.01559294 -0.041181117 -0.015144363 0.09883222 -0.07451398 -0.054265656 -0.010012078 0.06939365 0.1354188 -0.01824318 0.06704459 -0.046206538 -0.04068629 -0.002085737 -0.032823674 -0.120774664
구 -0.009487448 -0.0009453784 0.040765595 0.0044836653 -0.004371667 0.016145254 -0.07663295 0.032092642 -0.018129498 -0.015933879 0.005701715 -0.025887258 0.041803997 -0.009980283 0.053544484 0.0582411
스릴러 0.0002001533 -0.021117015 0.06895432 -0.0135504 0.057741154 0.0637694 0.026508978 0.019673599 -0.03925203 -0.022053901 -0.014598496 -0.059234627 -0.0032728731 -0.07653594 -0.0072085075 0.118776225
라도 0.0109239 -0.07101993 0.01729739 0.057609834 -0.036077492 0.030835526 0.012200224 -0.033701282 0.07831699 -0.12020677 0.05594494 -0.009285964 -0.040482055 0.012915621 -0.078851365 -0.06765701
.... 0.054809272 -0.049254864 0.045945194 0.0332309 0.011131937 0.014428724 -0.053392846 0.10677253 0.063160084 0.12428991 0.03181324 -0.06514161 -0.049104817 -0.11614132 -0.07003665 0.050621167
가지 0.087224364 -0.013888008 -0.0126290945 -0.08136289 0.080479905 0.037009496 0.043870766 -0.13547789 -0.059922546 0.15001585 -0.05879778 0.04972536 -0.0076583964 0.0904013 -0.040367745 0.100532494
8 -0.18528968 0.054296162 -0.05095914 -0.100517556 0.05404222 -0.004080688 -0.079672486 0.07903848 -0.10023072 -0.14617221 -0.039209295 0.02011149 0.055954583 0.012269296 0.099727385 -0.03535521
믿 -0.0046231663 -0.012333342 0.026240587 -0.13676289 0.102512285 -0.050859004 -0.13513063 0.010943558 -0.011579937 0.0130183585 -0.045321263 -0.03152501 0.036881406 0.013938236 0.03256737 -0.004111332
싫 0.021671347 -0.0879641 0.15665148 0.07022124 -0.0571087 0.03801743 0.012838132 0.10548689 0.07755762 0.13208206 0.07384612 0.07824189 -0.032305624 -0.01667075 -0.08676129 0.0791485
아까운 0.11173218 -0.05198312 0.01662903 0.17430463 -0.01881966 0.091704264 0.010693289 -0.03852936 0.12739123 0.10264592 0.06338952 -0.04528754 -0.11455753 -0.0051742275 -0.15354855 -0.025764335
나왔 0.047445048 0.025248582 -0.01492542 0.054955002 0.025386106 0.050800387 0.030033644 -0.029016469 0.010598136 -0.007074278 0.037685886 -0.010609852 -0.015359681 -0.03521504 -0.033153243 -0.026182141
점수 0.045295704 -0.050423883 -0.020983452 0.072040536 -0.012590382 0.012622936 0.04392565 -0.026771812 0.044537015 0.11577905 0.031525284 -0.049077682 -0.023029327 0.040723424 -0.004112305 -0.03602453
긴장감 -0.06471735 0.006149799 0.0046537803 -0.11079332 -0.011844872 -0.15492734 -0.041672308 0.06916715 -0.09926114 0.031923734 -0.016092686 0.08605631 0.057000995 0.035575006 0.027851008 0.025303548
부족 0.061834816 0.02221217 -0.06715873 0.18153937 -0.08130503 0.020238027 0.06509017 -0.046799548 -0.0027168929 0.029663486 0.02944241 0.018493406 -0.052190788 -0.06732419 -0.108173534 -0.0039491695
개인 -0.019837152 0.0106783435 -0.08261476 0.014653612 -0.010661913 -0.115276 -0.052752458 -0.060160868 0.027577553 -0.16131103 -0.025880009 -0.06828463 -0.06206381 0.0039669173 -0.014588882 -0.03546887
제대로 0.022855563 0.032084446 -0.018703423 -0.08516155 0.05638808 -0.068890505 -0.009405556 -0.038880564 -0.10104729 -0.085978985 -0.01327316 0.025240954 0.046392422 0.0088160895 -0.016200194 -0.036494616
노래 -0.037452284 -0.021607373 0.15271728 -0.034639962 -0.022006076 -0.077802904 -0.032350335 0.10659004 -0.10747776 0.04517065 0.06903746 0.0992322 0.050879672 -0.075642 0.0327664 0.13156152
이유 0.03175111 -0.042037476 0.07302982 -0.07646799 -0.031053051 -0.077995524 0.0125610875 0.057978924 0.007113492 -0.029318394 0.085712634 0.028370576 -0.052628588 0.020934585 -0.011798809 0.06802346
만큼 0.0006757241 0.01203849 -0.009057164 -0.08187798 0.151657 0.029549005 -0.06076229 0.010217619 -0.09857206 0.08650379 -0.04627547 -0.05681565 0.015197899 -0.0014158469 -0.012994333 0.032436874
라면 -0.02096041 -0.04286751 -0.0010097394 0.01814411 0.07262259 0.119410396 0.0047100387 0.021172132 0.0043534855 0.042798787 -0.028706465 -0.047812823 0.024655296 -0.09336471 -0.0066620316 0.10842919
시작 -0.012196745 -0.06702454 0.018650874 -0.057276282 0.013808514 0.020496363 -0.07031913 0.008415536 -0.055983238 -0.086234845 0.018177465 0.02378322 -0.042280734 0.03169075 0.044703353 0.11529106
구나 0.016716255 -0.015540423 -0.00082214986 0.012808013 0.034991134 0.16371395 0.032363754 0.027685393 -0.0156072015 -0.03576906 0.023080017 -0.06733118 -0.08847514 -0.012374441 -0.05584918 -0.017204857
잇 -0.052944742 0.016094508 -0.06880056 -0.038586177 -0.05819081 -0.0013079477 -0.029759645 -0.019843899 -0.04261718 -0.029179823 -0.043183967 0.02751199 0.10218131 0.00033604392 0.09523209 -0.02200734
특히 -0.11315707 -0.017874146 -0.0014684483 -0.056419034 0.04463617 -0.005117838 -0.056028005 -0.044936847 -0.03460343 -0.121660404 -0.0024529842 0.00974226 0.09431886 -0.007143209 0.10674765 -0.0481137
한테 0.12180793 0.081142165 -0.06573362 0.13169724 -0.105317265 -0.057093535 0.06539835 -0.14482537 0.051357236 0.11142341 -0.05238887 0.038660906 0.01422519 0.031574916 -0.079830654 -0.09219085
날 0.00046874178 0.089218356 0.0086908685 0.06951617 -0.033638265 0.04342886 -0.0027976565 0.02393455 0.0132864965 0.06888032 -0.034096792 -0.04011633 0.06661675 0.043111507 0.02304226 -0.06339892
아름다운 -0.077920504 0.0076995725 0.010927451 -0.1602375 0.17250971 0.092311606 -0.17875153 0.16293286 -0.20287544 -0.114381135 -0.11674941 0.01194066 0.124812685 -0.04581825 0.105630636 -0.013097624
려고 0.15921997 -0.0592375 0.10998587 -0.00575641 -0.06733954 -0.19309022 0.0071273926 -0.0082686385 0.042967618 -0.012579834 0.10047865 0.050703216 -0.060218554 0.005422586 -0.06250041 0.055224326
제일 -0.04297036 0.009236173 -0.08129991 0.0065390677 -0.06797263 -0.1222981 -0.064746134 0.038430735 -0.013787045 -0.004628333 -0.058770027 0.012884603 0.021278713 0.043758806 0.058435928 -0.01798153
시대 -0.051210724 0.03050386 0.009102031 0.03996546 -0.026506567 0.06037011 0.0509585 0.09102119 0.034828395 0.06272924 -0.020357614 0.0039919754 0.048659224 -0.031424507 0.015148118 -0.06565361
ㅜㅜ 0.0123972455 0.12193783 -0.08974566 -0.04443715 0.08397165 -0.050125558 -0.004246335 0.004720697 -0.021261735 -0.007192758 -0.07899945 -0.006690105 0.071092434 -0.024951 -0.008001937 -0.024616614
어떻게 -0.013818478 0.0062445323 -0.01580987 -0.020634158 0.056514975 0.10741045 0.049779147 -0.012137201 0.07260229 0.025439778 0.04784018 -0.037846263 -0.0526363 -0.012965998 -0.013865948 0.09295446
엔딩 -0.035215925 -0.04111878 -0.07657192 0.026278313 -0.0014834034 -0.049623776 0.035434026 0.013224393 0.09350957 0.051446337 0.015920177 -0.12608664 0.058156163 -0.091010556 0.049201168 -0.019522993
당시 -0.067110024 -0.062557325 0.11117563 0.033277366 0.018975843 0.041747887 -0.0018864496 0.08353469 0.08494647 0.06983736 0.031074716 -0.0058659585 -0.019590095 -0.078616984 -0.030667182 0.04603464
봐 0.096109115 0.015203267 0.046317555 -0.011491017 0.07260458 0.03765916 -0.025698656 -0.04663658 -0.05150773 -0.030496078 -0.020335069 0.035409365 0.003692531 0.048995685 -0.03801611 -0.04394971
하지만 0.043311555 -0.13279079 -0.0053320075 -0.062143017 0.04314959 -0.12012088 0.094487116 -0.17778726 0.055653453 0.013168155 0.03356974 -0.03805749 -0.041437745 0.009933939 0.00791456 0.1456108
나름 0.059200007 0.102553636 -0.050715536 -0.02744496 0.009958209 -0.017476954 0.04253664 -0.09796403 -0.091013715 0.014878991 -0.12879272 0.028665304 0.055011876 0.09429422 0.054158635 -0.050875433
무섭 0.099860705 0.056739714 0.0037390273 0.06509764 -0.018835943 0.03386617 -0.006833908 0.07873062 -0.042883597 0.0435931 0.016304947 -0.053648792 0.052820496 -0.04663772 -0.011344901 -0.048582252
명 0.032186385 4.3720593e-05 -0.04310805 -0.007672153 0.018249467 0.005673 0.02493145 0.030700207 0.021981327 0.04531666 0.05352142 -0.055205896 0.0019845036 -0.0025125034 -0.030055232 -0.02542061
나온 -0.052725654 -0.05339158 -0.043218262 0.017913999 -0.020397497 -0.07220208 -0.0062656514 0.018307153 0.061951667 -0.0019591753 0.010830189 -0.048861943 -0.022553947 -0.0023321828 -0.019831812 -0.010932025
해요 -0.084097505 -0.056574687 -0.049119677 -0.08948993 0.119308434 0.026986424 0.027434018 0.024929913 -0.04841809 -0.050948206 0.021356784 -0.017378086 0.0019059302 -0.08802434 0.020288687 0.023430865
이것 0.07727339 0.0153419785 -0.06155872 0.035678875 0.043219477 0.052197862 0.010026577 -0.043192513 0.025759919 0.040955916 0.00021061001 -0.065418534 0.01140639 0.018412696 -0.060177848 0.017313356
사 -0.0088144755 0.066977486 -0.06562629 -0.047395643 0.031489275 -0.04702679 -0.019515997 -0.042537265 0.034780335 0.01867897 -0.06466691 -0.038191933 0.034568846 -0.090448566 0.08361747 0.13234667
오랜만 -0.15250744 0.048340794 -0.11722068 -0.06721287 -0.0004892268 0.081539296 0.027660914 0.038921375 -0.048200842 -0.002083281 -0.062343623 -0.01856113 0.15060692 0.053075787 0.08653569 -0.063030995
9 -0.04745877 0.20499407 -0.04104175 -0.09868157 0.054649886 -0.0046185623 -0.18681808 0.12815514 -0.18624268 -0.077607825 -0.05786456 0.061743006 0.123090826 -0.0665015 0.07294982 -0.13876931
니까 -0.0499516 0.07382682 0.056690477 -0.065612555 -0.009959439 -0.03015348 -0.13732435 0.004073863 -0.027725518 -0.10656153 0.00902061 0.0061038625 -0.017050952 0.015548557 0.017553348 -0.040328495
팬 0.02239018 0.028446788 0.113290794 0.009601508 0.040076245 -0.042780954 -0.060822718 0.03227687 -0.054297857 0.008357163 -0.01495499 0.090248115 0.001781979 0.07689053 -0.02973981 -0.063181184
차라리 0.3345471 -0.11728477 0.08433269 0.29983494 -0.0046262536 0.34557438 0.055262793 0.0064153173 0.19082586 -0.0788244 0.1474453 -0.12653844 -0.4639431 0.111243516 -0.33383143 0.046391334
절대 -0.100368574 0.046358075 -0.048687458 0.09557083 -0.035773635 -0.040436506 0.05330939 0.07775265 0.049277708 0.06032629 0.007370324 0.004121629 0.09460144 0.051294718 -0.014223565 -0.07464336
세상 -0.02631887 -0.013716439 0.014563432 -0.07661418 0.10766385 0.12771484 0.06017664 -0.03598831 0.0041768616 -0.0698557 0.005058886 -0.0457208 0.009939607 0.01699098 -0.03401179 0.11327037
세 -0.025906269 -0.022722866 -0.07363877 0.008299785 0.08888638 0.09504376 0.023524368 0.008800519 0.031121777 0.062390864 0.06266682 -0.08447524 0.008081607 0.0086107245 -0.023827374 -0.07196295
던데 -0.13030203 -0.023854963 -0.053833295 -0.035719484 -0.0098053925 0.0030217457 -0.06992473 0.0848853 -0.029092913 -0.028772071 -0.016670886 0.037736606 0.019895386 -0.047195327 0.07640779 -0.04292897
의미 -0.0032696372 0.11453379 -0.055123694 0.08065112 0.058630273 0.13953392 0.124773934 -0.024959352 0.0030757259 0.0036129635 -0.08284077 -0.037377268 0.01122411 -0.0018611753 0.0045678457 -0.012598516
못하 0.08402857 -0.081822656 -0.052989677 -0.04487322 -0.010473191 -0.0030969202 0.055494122 -0.021268375 0.026789993 0.055010457 0.0053411056 -0.04896849 -0.03204825 0.0494226 -0.053753413 0.05778355
따뜻 -0.03736777 0.060364213 -0.03410902 -0.057773158 0.12598518 0.11762286 -0.026102662 0.05425779 -0.13231689 -0.085118905 -0.051100057 0.07337485 0.09580416 0.06920547 0.10023739 -0.023513965
봄 -0.025904078 -0.069358766 0.017580565 0.016920464 0.09216194 0.05512217 -0.022383071 0.011500939 0.0023645773 -0.012688739 0.014054652 0.005681927 -0.004171717 -0.0012186146 0.064135216 0.00052833115
욕 0.09320527 -0.009750368 0.00044709904 0.12676841 0.034481883 -0.042338 0.07307719 -0.08049508 0.11938656 0.058017403 0.068869874 -0.09754298 -0.1419351 -0.0658669 -0.09326757 0.17516328
강추 -0.33145323 0.038172025 -0.054682843 -0.09688599 -0.050322417 0.025604526 -0.16855913 0.064417176 -0.08454767 -0.29942346 -0.051316846 0.040435404 0.089557335 0.069051646 0.15886836 -0.17192274
훌륭 -0.05656292 0.104875095 -0.15264273 -0.11795081 0.119584695 -0.018645192 -0.05721876 -0.0654121 -0.115786046 -0.063920856 -0.11072668 0.08756986 0.092143044 0.06383852 0.113717854 -0.08750686
너무나 0.03162185 0.07376574 0.022807004 -0.040920462 0.0022738886 -0.04242889 -0.05009775 0.00061553513 -0.040265955 0.027960945 0.02042867 0.05025808 0.06916597 0.052740492 -0.034051962 -0.046826974
ㅡ 0.056169476 -0.064105354 0.13933712 0.020928482 -0.020423096 -0.09432029 -0.13754894 0.15680605 0.06324438 -0.023378644 0.027189462 -0.04063598 0.00014589448 0.0004397834 -0.012503594 -0.0077244756
감 -0.10222702 -0.027833633 0.05733896 0.015611118 -0.15248595 -0.1657908 -0.008903738 0.036275443 0.028397925 0.008568778 0.029961232 0.021533262 0.040280096 -0.06509804 0.019892039 0.01841091
됨 0.026822954 0.05968733 0.04742286 0.024535721 -0.054498777 -0.11983301 0.038755305 -0.051919263 -0.040280532 0.13573459 -0.033336762 0.043090202 0.06362687 0.0561527 0.033693075 0.021038527
느끼 -0.10905559 0.0698301 -0.07650482 -0.05409412 -0.03186488 -0.017958835 -0.03140937 -0.0339853 -0.014866757 -0.13529886 0.0060968073 -0.002105597 0.052913774 -0.026770813 0.11175697 -0.0202234
해야 -0.0084833475 0.084145926 0.08724782 -0.079549074 -0.03941526 -0.038826514 0.07827762 -0.06400202 -0.028832762 0.049253263 -0.03302087 0.13348459 -0.035975736 -0.013095474 0.042861093 0.16016962
빼 0.048636794 0.054873563 0.07291694 0.061219364 -0.079541795 -0.09663303 -0.1039807 0.023665007 0.013872661 0.0366615 -0.020778837 -0.020746538 -0.05721113 -0.058419533 -0.0045777587 0.029445779
드 -0.027077913 0.038709346 0.04405875 0.05483576 -0.044198696 -0.0056179017 -0.01448822 0.0692065 -0.02209272 -0.07411839 -0.036858354 0.051210914 -0.06565205 -0.07469138 0.020524818 0.05184365
도대체 0.098411486 -0.037786867 0.04649194 0.04930437 0.03206233 0.06117815 0.04589555 0.03258057 0.056537617 0.020120008 0.07445629 -0.023483315 -0.010138712 -0.018029897 -0.10058353 0.020621043
어야 0.030001484 -0.066719085 -0.03547507 0.14812328 0.039087035 0.0014387824 -0.010931726 -0.005607513 0.08121156 -0.011150024 0.07854368 -0.15514131 -0.060567778 0.041587695 -0.11503572 -0.028927192
답답 0.09499892 -0.08421817 0.0023932415 0.20446156 -0.08611344 0.033056796 -0.00096537406 0.017019244 0.09491396 -0.12289526 0.090002716 -0.15872669 -0.16427423 -0.012469336 -0.078444265 0.06415339
마다 0.056802202 -0.023356264 0.027444974 0.020321677 0.0317036 0.0011992101 -0.08414936 -0.0015192768 0.011469511 -0.0013658209 -0.020151317 -0.049726296 -0.02794983 0.026103998 0.04506059 -0.024201745
준다 -0.06310243 0.05386974 0.121232584 0.075532965 0.00111305 0.18996255 -0.038789466 0.12974833 -0.024066864 0.028634265 -0.04207458 -0.0087604625 -0.030389706 -0.13360836 0.002786642 0.07485239
놈 -0.03060685 0.15933244 0.07062395 0.09866767 -0.13171008 -0.068254106 0.05281076 -0.0041422737 -0.06503947 -0.13205318 -0.07752956 0.07679189 -0.0219481 -0.1358886 0.05545064 0.102678046
글 -0.03701318 -0.08388655 -0.032609854 0.08344337 0.077948436 0.08626446 -0.10332502 -0.028109971 0.05686306 -0.1133197 0.023672014 -0.09030198 -0.12229127 0.04708484 0.006407816 0.025437262
전쟁 -0.107798666 0.030845044 -0.075946175 0.08415957 -0.036791626 0.15302686 -0.075472124 0.06976276 -0.012461927 -0.14656135 -0.04262459 -0.04298703 -0.036079396 -0.02746992 0.037171774 -0.03958976
수작 -0.25512043 0.18436606 -0.01590407 -0.23671162 0.14777312 0.015368925 -0.07078393 0.0032413593 -0.2479589 -0.025997214 -0.225286 0.12465264 0.24529 -0.040892754 0.2837599 0.04156273
설정 0.18953097 0.08830898 0.034249023 0.13705432 -0.048489913 -0.06752171 0.02379669 -0.025659347 0.03995297 -0.12569101 -0.026192827 -0.0476242 -0.0763943 -0.13999777 0.0027583835 0.1062264
무엇 0.050918836 0.07988579 0.0043142876 0.036924068 0.015234295 0.04812762 -0.0070560393 0.03251159 0.0049183546 -0.07482609 -0.04900952 0.004680158 -0.005086936 -0.023434306 0.026941689 -0.045575928
흥미 0.060902018 0.09336741 -0.11302148 0.018014235 -0.029586876 0.06722801 0.14710115 -0.08988358 0.04278516 -0.019162772 -0.010509802 -0.04244036 -0.017983027 0.038814217 -0.013440413 -0.056716025
그저 -0.016302316 -0.14044434 0.08318533 -0.06752156 -0.022205947 0.0047172173 0.019645058 -0.019619517 0.086854756 -0.012384016 0.10390416 0.0064673875 -0.052207213 -0.044633593 -0.06036055 0.19743401
만화 0.08993288 -0.010368512 0.012720533 0.037419286 -0.10121527 -0.10596089 -0.10933036 0.00050765625 -0.04106253 -0.23515762 0.017369496 -0.008068399 -0.02801948 0.005793782 -0.041252848 0.039730363
감정 -0.15133475 0.03470192 -0.02891614 -0.03594301 0.101246886 0.02189426 -0.040987674 -0.017378265 0.00826042 -0.010029736 0.0009593365 -0.041312374 0.034519784 -0.1074185 0.039042328 0.036081005
미국 -0.07822292 -0.025827017 -0.10866436 -0.015380151 -0.006971262 -0.033856522 0.0008739029 -0.02829162 0.044913225 -0.17946811 0.013594462 -0.03727424 0.020119192 0.023945088 0.040649362 -0.06239661
행복 -0.10356884 0.09780146 0.04860415 -0.17799129 -0.008236829 0.1643058 0.028634867 0.06577404 -0.20392874 -0.06539501 -0.11378543 0.20276022 0.092608675 0.13353473 0.115183964 0.015522676
신선 -0.09903812 0.06617361 -0.033139452 -0.05667106 0.042804915 0.1485102 -0.08469585 0.023346933 -0.031434063 -0.047519635 -0.05710655 0.117589876 0.12582223 0.09067234 0.042774737 -0.11943893
뻔 0.1405457 -0.0814554 0.06931609 -0.059041798 -0.08360944 -0.07066778 0.084528044 -0.031347197 -0.010888857 0.14418145 0.05600983 0.08062759 -0.0744213 0.09354876 -0.10289704 0.020701576
군 -0.062324394 -0.028243935 0.0070360065 0.026238857 -0.06953366 0.021310426 0.060437277 -0.018606083 0.062022157 0.015419306 -0.043955434 -0.008435312 -0.002603086 -0.0062008365 -0.036581844 -0.0047059385
허접 0.27965498 -0.098681 0.057024494 0.28212133 -0.19238971 -0.08474028 0.08000019 -0.097633116 0.21174258 0.0023174195 0.118151784 -0.13793743 -0.22557057 -0.024539711 -0.21989812 0.017841138
형 0.023537857 -0.026343185 0.078097224 -0.019949483 -0.01974401 -0.16238917 -0.049453475 0.023231883 -0.050613668 -0.04021133 -0.04050769 0.07470957 0.06558219 -0.042977616 0.01844454 0.08998672
앞 0.00904832 -0.014099014 -0.016956273 -0.06130023 0.09114003 0.04827552 0.027310453 0.059578117 -0.07123089 0.079865225 0.0016942433 -0.040912785 0.029973892 -0.039242674 0.07805568 0.1068152
어도 0.11214843 0.064359054 0.020005314 0.013041193 0.0463391 -0.038911857 -0.035435855 -0.08667308 -0.011312278 -0.0989925 -0.044078607 0.07651103 -0.02975379 0.015470337 -0.048195288 0.0047785356
관객 0.095915556 0.00980116 0.04578698 0.17423122 -0.13120903 -0.05255293 -0.06359112 0.021367865 0.031883292 -0.059961703 0.048207656 -0.032675575 -0.0934385 -0.022549808 -0.07495345 -0.011498614
배경 0.1039065 -0.0058687804 0.17779523 -0.080536574 0.0542841 -0.06248594 -0.046458963 0.044461504 -0.08080642 0.12220377 0.015859634 -0.01498154 0.002051876 -0.047699008 -0.0043700733 0.097131416
시절 0.065693885 0.023580777 0.025405375 -0.08425317 0.08387224 0.057525128 -0.018432133 -0.01563173 -0.060109496 0.00568563 -0.034132194 -0.05444981 -0.011727774 -0.029041616 0.015237777 0.093202695
6 -0.031208102 -0.01997808 -0.105631776 0.039750703 -0.033875715 0.0048719225 0.009664276 -0.049893033 0.009769479 0.053526394 -0.031826355 -0.051124312 0.080212995 0.070159644 0.0025279066 -0.15649791
초반 0.03855394 -0.00030345545 0.09551076 0.05843595 -0.12807767 -0.022279268 -0.0475678 0.027100284 0.0038382902 0.07134548 0.037330918 0.010316422 -0.0587169 -0.052316565 -0.1006524 0.040560555
사실 0.027775642 0.08439897 0.11301658 -0.11713085 0.091895744 -0.010396922 -0.07473858 0.047732446 -0.16575086 0.0013316292 -0.09996885 0.09775286 0.124445 0.0050212657 0.052064296 0.022430208
웃음 -0.08687629 -0.02361758 0.03696905 0.057189763 0.020364793 0.10588326 -0.05073366 0.01814963 0.030636078 0.098268956 0.0035901393 -0.16354473 -0.007115425 -0.115263976 0.029541748 0.03595607
OOO 0.010685748 -0.11515241 -0.05594659 0.08035912 -0.009532561 0.060791615 0.05479982 0.010189674 0.17434353 0.06468678 0.06597751 -0.06878233 -0.102920786 0.05649083 -0.0941143 -0.04244852
엄청 -0.066995695 0.03582532 -0.03175674 -0.061530884 -0.005637259 -0.02098412 -0.08743887 0.07939201 -0.021819288 0.010126611 -0.020537699 -0.049961306 0.048772726 -0.02518372 -0.005453481 -0.00345799
답 0.1256109 0.030132717 0.036689226 0.017865166 0.022476155 -0.033187985 -0.066128 0.037556123 -0.05338716 -0.051820956 -0.002683083 0.028314969 0.012826865 -0.0035897584 -0.05235391 0.032827713
더라 -0.15562029 -0.0008184337 -0.037236307 0.061939873 0.061900504 0.0950343 0.032944743 -0.048482142 0.0069614374 0.08144264 -0.073256485 -0.08791696 -0.016680028 -0.10887132 0.048934773 0.03911064
추억 0.031745248 0.09505392 -0.061506897 -0.085992195 -0.012711794 -0.012699759 0.013885523 -0.06323313 -0.12195238 0.02578004 -0.11477213 0.045869913 0.0725858 0.05159834 0.05921796 -0.0769931
라니 -0.14276613 -0.0026504009 -0.08876015 0.018404817 0.0023021754 0.08269036 0.024556102 -0.029592667 0.08106944 0.0030144546 0.008040869 -0.10067818 0.0035169257 -0.110454015 0.0031717203 0.046020478
질 0.045730527 -0.013617436 0.066207305 -0.028265242 -0.054872837 0.029322889 0.05016671 -0.0052893236 0.08940887 0.09181417 0.0008028636 0.097958654 -0.06591416 0.0112436535 -0.07730612 0.056390375
자신 0.0009005783 0.0726179 0.029933188 -0.081146896 0.0069618486 -0.06764209 -0.018424045 -0.011684837 -0.04598835 -0.07211621 -0.00031524216 0.025130844 0.015508743 -0.038885605 0.07431337 0.09831851
캐스팅 0.09594218 0.020764021 0.039039094 0.10186508 -0.09506563 -0.035307363 -0.048773315 0.05827666 0.058743894 0.0027480978 0.032822184 -0.048016813 -0.01943409 -0.05792914 -0.058874715 -0.013211412
류 0.13975996 -0.1571294 0.0073904926 0.023795415 -0.027147118 -0.019185435 0.0017302171 -0.117314614 0.07060811 0.045448218 0.07528135 -0.071960166 -0.10698063 0.102696374 -0.10090074 0.083015345
첨 -0.023072671 -0.06533361 0.06859385 -0.039867356 -0.10614466 -0.008284199 0.078525685 -0.015812851 0.05755436 0.17183487 0.06286808 0.100487955 0.0012721546 0.09763778 -0.031793974 -0.061763614
멋있 -0.1238093 0.02446891 -0.046915185 -0.1359284 0.07700809 0.09748739 0.024423249 -0.079046205 -0.059078474 0.062125538 -0.060068477 0.10417002 0.12846215 0.17290074 0.073816895 -0.13402711
어색 0.1323353 -0.11264067 0.04226817 0.21787488 -0.014303858 0.02018905 0.041224413 -0.034424808 0.1561897 0.10190035 0.04820594 -0.104576305 -0.121012494 -0.012805412 -0.20404103 0.00045517666
시나리오 0.015546256 -0.02601942 -0.059755325 0.1141699 0.008063836 0.07473318 -0.01484218 -0.060755637 0.11944235 -0.06408224 0.0032007424 -0.100301586 -0.16613533 -0.013233292 -0.10212972 0.0684327
슬프 -0.07843408 0.034163363 -0.10406762 -0.16637683 0.038487766 0.10840966 0.050634306 -0.09115462 -0.09651729 0.03897818 -0.08695448 0.10713398 0.06409566 0.12411098 0.08470759 -0.017646542
머 0.042486697 0.051967084 0.026021497 0.06365927 -0.044766724 0.010940825 0.03854564 0.0065754848 0.05471936 0.05377682 0.0027321575 -0.022132361 -0.08485749 -0.01310955 -0.094013505 0.018064924
소름 -0.057148285 0.028497146 -0.15887855 -0.08990251 0.12584955 -0.04511593 -0.078734584 -0.00549197 -0.055375427 -0.03725055 -0.06885719 -0.031748388 0.16509002 0.08202979 0.07306431 -0.06056104
밖에 -0.0012313057 0.03199224 -0.02944295 -0.062354423 0.10389589 -0.0015571144 -0.015865326 -0.0195512 -0.07063009 -0.031920586 -0.04152778 0.06771754 0.06773542 0.06334217 -0.013521327 -0.07517669
정신 0.16922261 0.04494478 0.022454305 0.026974112 -0.068439856 -0.14109002 -0.06378091 0.0012863526 0.018776746 0.003274219 0.032560155 0.071700074 -0.039847795 0.06561674 -0.08745134 -0.006060067
분위기 0.043329895 0.015171919 0.11671953 -0.10905728 0.0079570515 -0.084591806 -0.02193322 0.012475459 -0.087875456 0.036109686 -0.07055636 0.042441417 0.056392 0.08838542 -0.008050639 -0.038870487
멋진 -0.050812714 0.08882326 -0.1359059 -0.082152456 0.1386902 0.0013865598 -0.027870728 -0.04009669 -0.102561414 -0.028623108 -0.06682287 0.036926646 0.03372733 0.01728102 0.10223605 -0.046822313
힘들 0.012975307 -0.09760646 0.07224791 0.022939783 -0.012912775 -0.0050773495 -0.037454348 -0.022976259 0.02108426 -0.01774782 0.061219756 -0.042404663 -0.08368562 -0.07665451 0.010445751 0.12308576
오늘 -0.004470579 -0.0065639904 -0.03532164 0.022672206 -0.048674002 -0.18864354 -0.08214574 -0.029296707 -0.00047107827 -0.013352975 -0.012220775 -0.08325741 0.059442807 -0.07433138 0.076265156 0.0012968828
졸작 0.13829306 -0.28664467 0.1577499 0.17300464 -0.319033 -0.15203278 -0.17035593 0.058532294 0.29646933 -0.20159142 0.29247087 -0.12054824 -0.34828272 -0.10279138 -0.18684022 0.20821358
어이없 0.20711468 -0.071983084 0.18606007 0.21801385 -0.13099423 -0.06031336 -0.019273344 0.10148976 0.16018544 0.14868875 0.18517506 -0.08462466 -0.12631603 -0.06000727 -0.21906112 0.05191922
잡 -0.08778956 -0.06415727 -0.03217993 -0.047813278 0.031838235 0.12010733 0.10321068 -0.077961005 0.06871332 -0.012587929 0.034866083 0.047986493 -0.05093672 0.11101872 -0.028641606 -0.06051139
봐서 0.08333538 -0.013240877 -0.015041668 -0.015528813 0.097923785 0.08539812 -0.030028017 -0.06705555 -0.05428288 0.09925481 -0.058549885 0.017028693 0.047387153 0.08687987 -0.050658785 -0.051344834
킬링 0.03294118 0.05475986 -0.016721597 0.06362627 -0.0024545088 -0.043056928 -0.006658493 0.014543346 0.056048986 0.08189307 0.018802773 -0.022635978 0.06556675 -0.021761289 -0.051409554 -0.1259992
위해 0.048216175 0.104516886 0.0017564116 0.087780975 -0.058094032 0.07605303 0.105084755 -0.010162599 -0.0035608008 -0.06475693 -0.086732924 -0.0016699916 -0.00021282225 -0.07010473 -0.03670182 0.045119155
문제 0.085079595 0.016782787 0.047789782 0.097439155 0.008244026 0.024802148 0.018657371 -0.020362202 0.03400828 -0.0057669273 0.023006715 -0.050210074 -0.10279319 -0.009769863 -0.06515134 0.08842987
구성 -0.019183638 -0.020540679 0.02709977 -0.05992377 -0.044127896 -0.09410327 0.11358159 -0.07254251 -0.042428456 -0.10503579 0.0055037052 0.07445697 -0.0009812815 0.0816829 0.058720786 0.096818864
엄마 0.051607955 0.096641526 -0.059629943 0.045123164 0.136067 0.18182655 0.018508207 -0.09198031 -0.020805934 -0.089064956 -0.083983585 -0.1453455 -0.026252665 -0.103981815 -0.0011325671 0.011140794
함께 -0.0007377802 0.05282763 -0.025722515 -0.085297376 -0.027049575 -0.1369765 -0.062999375 -0.01526497 -0.06059559 -0.09183311 -0.07379847 -0.0064048516 0.10198581 0.085545205 0.05192434 -0.11778603
이딴 0.30672818 0.021465324 0.33667856 0.3092209 -0.14064555 0.05043966 0.09426951 0.09586032 0.098810665 0.1800728 0.20131725 0.017794712 -0.26275432 -0.07309324 -0.18424647 0.17973153
잊 -0.14881365 -0.07425846 0.010722805 -0.22606319 0.19516453 -0.123203084 -0.20443402 0.04635594 -0.100864746 -0.0473391 -0.07228024 -0.0044370093 0.14035504 -0.00037361847 0.101899 -0.028208446
등 0.06544911 0.06455412 -0.050501652 -0.07830109 0.085619316 0.016274747 -0.04848197 -0.041945368 -0.09580982 -0.05909141 -0.08509749 0.066950954 0.027135212 0.08065555 0.09492387 0.035914894
집 -0.0636368 -0.0031973387 0.058115482 0.0042820135 0.007846904 0.065963656 -0.017109744 0.10087862 0.018376058 -0.077195205 -0.01679738 -0.056727085 -0.030811632 -0.12522176 -0.0039097383 0.087324336
유쾌 -0.10506451 0.1213844 -0.11120534 -0.04361019 0.10070394 0.1068929 0.0017807006 -0.049050316 -0.17231716 -0.24355362 -0.14310238 0.042782083 0.1148268 0.035056613 0.11159035 0.0016945626
뻔한 0.06063439 -0.12312875 0.026705833 0.08375409 -0.038692784 0.053671394 0.09622818 -0.014232441 0.119013496 0.10473424 0.06797334 -0.017741516 -0.044412218 -0.0016924189 -0.05216993 0.14050488
스러운 -0.045684364 0.0021208345 -0.009415519 -0.051117573 0.09870878 0.079575434 -0.015036821 0.022634571 -0.07071966 -0.044168394 -0.031814724 0.030584686 0.01067755 0.045671936 0.0017223923 -0.04067851
결국 0.03155563 -0.016939336 -0.063668914 0.05149509 -0.058512017 -0.049922228 -0.0048796535 -0.02527115 -0.044928215 -0.11341869 -0.0101962285 0.033377636 -0.071292244 0.056880213 0.048451 -0.051044885
낫 0.055020526 -0.027723331 0.0490249 -0.042440854 0.054856647 -0.02364954 -0.057858154 -0.0053237644 -0.027193313 -0.15358329 0.039340343 0.037964612 0.014055191 0.08961914 -0.0056670518 -0.014026413
